{
  "model": {
    "layers": [
      {
        "type": "CONV",
        "activation": "RELU",
        "weights": [
          [
            [
              -0.0022230617449088,
              -0.0036689546261999,
              0.0020464238969664
            ],
            [
              -0.0079250034600204,
              0.0067814104104687,
              0.0013554513562957
            ],
            [
              0.0065531517555039,
              0.0031021471076662,
              -0.0012387207321428
            ]
          ],
          [
            [
              -0.010157816142844,
              -0.002598046307653,
              0.0043420506197466
            ],
            [
              0.0069856972591219,
              0.0068331534848623,
              -0.0011331537834196
            ],
            [
              -0.0068150795853679,
              0.002433043190554,
              -0.0058075089954373
            ]
          ],
          [
            [
              0.010031825590112,
              -0.005071570926383,
              0.0095159944731795
            ],
            [
              0.010379275955311,
              -0.0063289640816115,
              0.0083529411806976
            ],
            [
              -0.0030364840015855,
              -0.00088308149247053,
              0.004692604161939
            ]
          ]
        ],
        "biases": [
          [
          ]
        ],
        "convParams": {
          "stride": 1
        }
      },
      {
        "type": "CONV",
        "activation": "RELU",
        "weights": [
          [
            [
              0.0054161702586589,
              -0.0010390241920513,
              0.0063802981348064
            ],
            [
              0.0088317749774589,
              -0.0030016288019974,
              -0.0027159804271555
            ],
            [
              0.0054669728075361,
              0.0028740193129748,
              -0.0041395095250911
            ]
          ],
          [
            [
              -0.00066990411739366,
              0.004513833366103,
              -0.0093173467783793
            ],
            [
              0.0019799570405132,
              0.0012574994905642,
              0.0032055731459376
            ],
            [
              -0.0084453219997673,
              -0.0069984904809849,
              0.0064609405144956
            ]
          ],
          [
            [
              -0.0058424940594595,
              -0.0074758746522551,
              0.0026854758874051
            ],
            [
              0.0048597949642779,
              -0.0026430164782117,
              0.0061226926237988
            ],
            [
              0.008718814604703,
              0.0088140624991865,
              0.0013282394754321
            ]
          ],
          [
            [
              -0.0055706745728935,
              -0.0087671592175535,
              -0.0025685280702352
            ],
            [
              -0.0092508795445826,
              0.0033962145484028,
              0.00010035245978788
            ],
            [
              0.0064737423363482,
              -0.0025312840983624,
              -0.0037362994291679
            ]
          ],
          [
            [
              -0.0083124625797972,
              0.0096210728551143,
              -0.0071327157668296
            ],
            [
              -0.0058106198518969,
              -0.0086984051452454,
              0.0033621000082408
            ],
            [
              0.0043028302838119,
              0.0089758941023173,
              -0.0090796614368929
            ]
          ],
          [
            [
              0.0081903596635863,
              -0.0012214228326058,
              -0.0090760343609922
            ],
            [
              -0.0045673206161909,
              0.010156969098106,
              0.010507982900165
            ],
            [
              0.002501297687853,
              -0.0042726351521952,
              -0.0025133343384024
            ]
          ],
          [
            [
              -0.00093304449673832,
              0.0077692839480672,
              0.004207199834827
            ],
            [
              0.00076101440816958,
              0.0089135552929601,
              0.0020571716323636
            ],
            [
              0.0060037802964795,
              0.0083065261302665,
              0.006572724917331
            ]
          ],
          [
            [
              0.00043741789325278,
              -0.0040692046936714,
              0.0011145959392806
            ],
            [
              0.0010765362918077,
              0.0024203225909101,
              0.0055952087143003
            ],
            [
              0.00067483538452587,
              -0.0054214105918755,
              0.0096077064821052
            ]
          ],
          [
            [
              0.00909432480561,
              -0.0011664510199195,
              -0.0022323351864747
            ],
            [
              0.0028771677528262,
              -0.0050427751168243,
              0.0055371815659022
            ],
            [
              0.008916555900952,
              0.0094309119212045,
              0.00046983100336588
            ]
          ]
        ],
        "biases": [
          [
          ]
        ],
        "convParams": {
          "stride": 1
        }
      },
      {
        "type": "POOLING",
        "activation": "NONE",
        "weights": [
        ],
        "biases": null,
        "convParams": null
      },
      {
        "type": "FLAT",
        "activation": "NONE",
        "weights": [
        ],
        "biases": null,
        "convParams": null
      },
      {
        "type": "HIDDEN",
        "activation": "NONE",
        "weights": [
          [
            [
              -0.023021554613611,
              -0.0089320561687509,
              -0.0021671080314759,
              0.00025549149798726,
              -0.0026979170527928,
              -0.020369659138863,
              0.0085121048842321,
              0.0049881352635555,
              0.0011243759800908,
              0.0079461620989604
            ],
            [
              0.021227533061382,
              -0.024903812673678,
              -0.011881500381925,
              0.0060686828183073,
              0.014738611308149,
              0.010517840346225,
              0.0028245499287886,
              -0.00069136718571323,
              0.0069038768642613,
              0.0014089206066808
            ],
            [
              -0.016589280048794,
              0.022545200840034,
              -0.010929626376423,
              0.00085988278840393,
              0.0071671623543996,
              -0.0061561335968522,
              0.0010908626787136,
              -0.00018653195269945,
              0.0096703608333693,
              -0.012935478015268
            ],
            [
              0.0048948485552413,
              0.017935825087161,
              0.0054482125688075,
              0.010376596046339,
              0.015172315124221,
              0.0077137620547475,
              -0.0018621157239628,
              0.0055894599240076,
              -0.013854033597359,
              0.0090001392480153
            ],
            [
              0.017737472347461,
              -0.010790066371738,
              -0.004559175773682,
              -0.00063761697701992,
              -0.015854787752824,
              -0.0045623466597849,
              -0.0084987954127967,
              0.011994702361656,
              -0.0071621559191264,
              -0.012180917397699
            ],
            [
              -0.013985342997112,
              -0.0079950624271583,
              0.0036448173643373,
              -0.021605687272357,
              -0.0051849230992096,
              0.00020879340995428,
              0.015034633788101,
              0.0036990601572641,
              0.0047721284361676,
              0.01217191742962
            ],
            [
              0.0066173252298828,
              0.022444896832727,
              -0.0046842865746547,
              -0.0012785399341895,
              0.0014275742400444,
              0.0021328599517214,
              -0.016602468938895,
              -0.002858633496895,
              0.017299814705275,
              -0.00083110115882546
            ],
            [
              0.011307052818288,
              -0.017665241609987,
              -0.0052798787616179,
              -0.0031176966412482,
              -0.02023835710861,
              0.0023232538207369,
              -0.0014667393704942,
              -0.019383188461599,
              0.0022316387909931,
              0.011125066331449
            ],
            [
              -0.0048171448768551,
              0.01049791552113,
              0.018576374074183,
              0.0062617019660805,
              -0.0063357319901761,
              -0.0071165590497588,
              -0.0037598428327298,
              0.022193067130393,
              0.0086686305716602,
              0.0059615303967578
            ],
            [
              0.0099123512012165,
              -0.011680013239557,
              0.020558934541944,
              -0.011405468571639,
              -0.021851188820777,
              -0.012549315642655,
              -0.0078308034740885,
              0.010086248668861,
              -0.0033640074047455,
              0.0025253144360713
            ],
            [
              -0.013646782671894,
              0.011052067748555,
              -0.002407856570284,
              -0.010417987356004,
              -0.019946941801819,
              0.0081410633910515,
              0.0053110312325399,
              0.001245652347073,
              0.0093484077391458,
              -0.0013637633207822
            ],
            [
              -0.002060732098388,
              -0.0071631090258257,
              0.023889019362321,
              0.0041851735672799,
              0.014411796712124,
              -0.014422661047435,
              -0.024388636199877,
              0.0036765065502702,
              0.0074006250301564,
              -0.00091128335830295
            ],
            [
              0.0021633266303515,
              0.0051999655136735,
              0.0014838550024984,
              -0.0040134007355828,
              -0.0063897475689238,
              -0.0019849444391181,
              0.0042653646358777,
              -0.0016065234212839,
              0.011754575287268,
              -0.012200839689123
            ],
            [
              -0.014061719009293,
              -0.00091109735088259,
              -0.010661951257983,
              0.0047221608164407,
              0.0078370857882585,
              0.0058602337643577,
              0.005045359806308,
              -0.0057907939119663,
              -0.005728145546926,
              0.0037601124448081
            ],
            [
              -0.016200685195243,
              0.013089329640389,
              0.019328803945286,
              -0.0038808852481782,
              0.001722124836841,
              0.0057762092152033,
              0.01154194619725,
              -0.021581722759338,
              -0.0021228335209139,
              0.017377759824473
            ],
            [
              0.018026288523506,
              -0.0069947451317838,
              0.00046197979904844,
              -0.0094786523340125,
              0.009653322515076,
              0.015335557868904,
              -0.00070466290645135,
              0.0022633576913876,
              -0.002406617907656,
              -0.014512920640233
            ],
            [
              -0.0032633365057092,
              0.0023190947843972,
              0.0047355383463536,
              -0.012313575748665,
              -0.011046616112337,
              -0.0058942683974514,
              -0.018295670836673,
              -0.010528756758935,
              0.015132600272638,
              0.001308390486343
            ],
            [
              -0.0018098400894403,
              0.0057650001684127,
              -0.014056794707104,
              0.0046594021483951,
              0.0011822979499251,
              0.0076934172922517,
              -0.015025400173019,
              0.028454636804616,
              0.0055897352112452,
              -0.0026957349122516
            ],
            [
              0.0028913138435202,
              -0.0022711708890423,
              -0.0024588331280852,
              -0.00013522598808582,
              0.003717048236024,
              0.0017173616369471,
              0.014034461627,
              0.007632974592061,
              0.0034440008660198,
              -0.0093990041009374
            ],
            [
              0.028147181123876,
              0.0041312120335968,
              -0.0085347146766582,
              0.013527801146575,
              -0.028640500078423,
              -0.0062330603736655,
              0.0060802025050027,
              0.0023517640393026,
              -0.00059932198808776,
              0.0090496544848924
            ],
            [
              -0.0016565719183905,
              -0.010849708327913,
              -0.0032245545719977,
              -0.0072922862032469,
              0.0031075807473581,
              -0.0089655379481814,
              0.0022283678286908,
              0.027433760013026,
              -0.004747784389013,
              -0.018298439670685
            ],
            [
              -0.0095323557779763,
              0.0099021117188015,
              -0.012965147401192,
              -0.0017487903785612,
              0.011170757489531,
              -0.010837217098059,
              -0.013748674796311,
              0.00017159689094587,
              0.0013899053447171,
              0.0087522579383722
            ],
            [
              -0.019365548241683,
              0.0027922166822303,
              0.014298527986107,
              0.0091516565720474,
              -0.0056479476627211,
              -0.0065900513452428,
              0.0045353481362091,
              0.023165066594506,
              0.0059884794517114,
              0.0036188485160832
            ],
            [
              0.0036455835979656,
              -0.012673237473112,
              -0.0014541483495011,
              0.010165510567418,
              -0.0078058939482223,
              -0.0073133700869148,
              -0.0075254009414051,
              -0.0078288947622345,
              -0.00092694249130912,
              0.005790563406884
            ],
            [
              0.00068338603527106,
              0.01131172271168,
              0.0064320718697161,
              0.0065057922581476,
              -0.030928282687223,
              0.002768538890036,
              0.0087193413849167,
              -0.0057751614597177,
              0.0025312820651236,
              -0.00062827476984903
            ],
            [
              -0.0054467008397078,
              -0.0083473351386621,
              -0.0067458985847717,
              0.0035993741609416,
              -0.016493496699884,
              0.0035181768522784,
              0.010357371762191,
              0.010382563859822,
              0.0030550316604353,
              0.0080672277628252
            ],
            [
              -0.022417015549593,
              -0.010704895574554,
              0.0018662091553689,
              -0.0060710279391928,
              -0.0035326622183679,
              0.014852579096061,
              -0.0051363293353109,
              -0.01535632151984,
              -0.009277808824228,
              0.010551126017865
            ],
            [
              0.004541618983679,
              0.0087124040035065,
              0.0086258735963907,
              -0.0074370433168273,
              0.01488781063463,
              -0.0029561390018063,
              0.0034766381648545,
              0.01057215600692,
              -0.011403018826514,
              -0.00052624630128695
            ],
            [
              -0.0012369799134289,
              -0.0037571236791088,
              -0.0037387111565174,
              -0.002514189654288,
              -0.0019006674717219,
              -0.0059817966659091,
              -0.0079897266985734,
              0.0082010908272991,
              -0.0027956874731676,
              0.003145747763835
            ],
            [
              0.0088669108385684,
              0.0038925011430381,
              0.0053378362029132,
              -0.013479744824531,
              0.0043462425095077,
              -0.010586647478844,
              0.0050975022547516,
              0.009086299631074,
              0.014937135682347,
              0.0096256854362735
            ],
            [
              -0.0049933811549861,
              0.0028001862274039,
              0.015664739077494,
              0.014102414125479,
              -0.0017880281018781,
              -0.00036590910050979,
              -0.0064422345067925,
              0.0042655719261672,
              -0.0029523486742774,
              0.0048619752861295
            ],
            [
              0.0034304108415831,
              0.0037612331429303,
              0.0081015501396694,
              -0.0017294515274965,
              0.0045009937486801,
              -0.0041773476723442,
              -0.0048168066950107,
              -0.01673101909418,
              0.013778765048515,
              0.01184377143986
            ],
            [
              -0.0076395635953126,
              0.0013353509339671,
              -0.0096368795723114,
              0.0058852217293441,
              0.0078009547230234,
              -0.0014474382332141,
              -0.0023136510975657,
              -0.0066446433686696,
              0.023878481886636,
              0.012315591188027
            ],
            [
              0.0059403532202288,
              -0.015231914537119,
              0.010009372811016,
              -0.0046620502914499,
              -0.011963143161154,
              0.01010395903208,
              -0.015587090479939,
              0.01690960839037,
              -0.01434065571271,
              -0.016459916023145
            ],
            [
              0.010449675076576,
              0.01338253067302,
              0.0016224733044252,
              0.005961345013232,
              -0.0096382719112559,
              -0.0074914056617813,
              0.0048048689237493,
              -0.0079247754630398,
              0.00056098704315356,
              0.0029364705475149
            ],
            [
              0.00056160609887261,
              -0.0079368752033999,
              -0.0046531794026598,
              0.01979337622464,
              -0.0093701613171085,
              0.0095405249289674,
              0.0073936429327463,
              -0.0035820215604065,
              0.0086663190193665,
              -0.011305793178799
            ],
            [
              0.015917916707194,
              -0.0059541575328726,
              0.01004021312392,
              0.0014837542547546,
              0.019589278506377,
              0.0069877621914784,
              -0.010309430825686,
              -0.013057017832497,
              0.021189933562189,
              0.0076756669196415
            ],
            [
              -0.004157942123972,
              -0.018039024205962,
              -0.0021126620727086,
              -0.011663321321413,
              -0.0025605497266175,
              0.004110986193347,
              0.013264347231085,
              0.0023114897888556,
              -0.0073046871475762,
              0.0045321691400613
            ],
            [
              -0.0046594396274845,
              -0.01328094080533,
              0.0017937608640491,
              -0.0046908143497642,
              0.0075206313760019,
              -0.0033071425564807,
              0.0073959808239467,
              -0.0022100783652534,
              -0.011174972831225,
              -0.0085321302067425
            ],
            [
              0.0014891338226332,
              -0.0043321921264313,
              -0.015769163004259,
              -0.0057051181106745,
              0.0061799328056861,
              0.026604543863506,
              0.0029821617263031,
              -0.0073209072959428,
              0.0059870202272532,
              -0.0061684646898633
            ],
            [
              0.0044857668995633,
              -0.009704823882558,
              0.0028822879672672,
              -0.004834365526251,
              -0.0063625441061013,
              0.0087059624664893,
              0.0062824031670155,
              0.020428620039948,
              -0.015172545455453,
              0.0035767595587443
            ],
            [
              -0.014600118437516,
              -0.017832563001011,
              0.0089991984555729,
              -0.012884038164983,
              0.0051117053794391,
              -0.023754047070333,
              -0.019278731034307,
              -0.0044204329781182,
              0.030614409594498,
              -0.0012248332366815
            ],
            [
              0.012725971431009,
              0.013994738324646,
              -0.00038723141567369,
              0.0063299906956764,
              0.0086750913949325,
              0.015675796746843,
              -0.0029571247275556,
              0.00015708964276276,
              -0.0078259461743523,
              -0.0083417711626707
            ],
            [
              0.00095566509979519,
              -0.0031806297208008,
              0.0075147806899326,
              -0.0030910219277924,
              -0.0043050110383517,
              0.010532593101676,
              -0.0038577408592305,
              -0.014321864595983,
              0.016737897376022,
              0.012949660364017
            ],
            [
              0.0092496420246961,
              -0.0020260177596197,
              -0.0074785874402696,
              -0.0064037739903234,
              -0.014924974912734,
              -0.012387031369453,
              -0.014479588158696,
              0.0169926652416,
              0.0010425787398419,
              -0.0013212064310891
            ],
            [
              0.027697553807164,
              -0.0060608141911032,
              0.0022319689425312,
              0.016473067272132,
              -0.0022860080433091,
              -0.0026676277318324,
              -0.015776332835455,
              0.0034537595799215,
              -0.007341951621519,
              -0.01531486385858
            ],
            [
              -0.0068441324634509,
              0.0040961557325694,
              0.0029072081480933,
              0.0028663663488213,
              0.0074137112129353,
              -0.0071193472983726,
              -0.0036269468897959,
              -0.018820327944369,
              0.0040738043938421,
              0.0064305776200251
            ],
            [
              -0.00022226326551669,
              -0.0046645148412096,
              0.008507074130872,
              -0.0087075697904736,
              0.0074040314449892,
              -0.0092384810360666,
              -0.011329879332405,
              0.0070247321779717,
              -0.0011579906414598,
              0.0095467638385061
            ],
            [
              0.00034498858245805,
              -0.0084863028110289,
              0.00022884869009708,
              -0.01089231996954,
              0.0046205746570058,
              0.0018095883685294,
              -0.011094493662751,
              -0.011411386969968,
              0.0056086301997775,
              -0.002032009470681
            ],
            [
              -0.0062337287268713,
              -0.003080286972209,
              -0.0036914617357592,
              -0.022994232392099,
              -0.0039880609951617,
              0.0027439296462262,
              0.0030878057916843,
              0.0074440975092856,
              0.0087805136728771,
              -0.012928520373225
            ],
            [
              0.0058050312549795,
              0.0099461072086034,
              0.023417785653549,
              -0.0052365925566622,
              0.00041311300269347,
              -0.0067743937891732,
              0.0072192059107562,
              0.023203250201908,
              0.0027472790974499,
              0.00018604716506165
            ],
            [
              0.01192606233077,
              -0.014968056225801,
              0.0040539348594211,
              0.0032789854371778,
              0.0028354657485132,
              0.014989822950613,
              -0.0060569312732921,
              -0.0088196581178178,
              -0.0040133695300112,
              0.0015166506341202
            ],
            [
              -0.010333705199295,
              0.010661659222592,
              0.00021757148996755,
              0.0051168372925353,
              -0.0031066840263525,
              -0.0025110213415066,
              -0.011914111795452,
              -0.010422685323795,
              -0.0078270755262003,
              0.0014293080829705
            ],
            [
              -0.002548863274963,
              -0.0051117499441931,
              0.0014429470368304,
              0.0015154802974519,
              -0.0032154199195185,
              0.0031478491754861,
              0.0011578320287153,
              -0.0018994757051818,
              0.0054294797105953,
              -0.015854374438417
            ],
            [
              0.0015688164957814,
              -0.0081142928154569,
              0.015819808992671,
              -0.0045508880003557,
              -0.015607109747321,
              -0.017689103609786,
              -0.014033303952586,
              -0.00084503172925542,
              -0.0038913288430711,
              -0.018717264740913
            ],
            [
              0.0045076098825643,
              -0.011465654124494,
              -0.015665781838071,
              -0.014883646693268,
              -0.015980681257828,
              0.0066465240433401,
              -0.0079559090585097,
              -0.011645686514257,
              0.0086804401704468,
              -0.014798572138412
            ],
            [
              -0.023591671898503,
              0.0097900569612074,
              0.0074097223941826,
              0.013573342571413,
              0.0024890897210428,
              0.012313378406222,
              0.0083921741838551,
              -0.010360879354628,
              -0.0033682086406705,
              -0.010189190729258
            ],
            [
              -0.014277350576408,
              -0.00078926406304066,
              -0.019126356773036,
              0.0094410553276647,
              -0.010494433033045,
              -0.010965790750535,
              0.01430613378592,
              -0.0016193620083499,
              -0.026207555339578,
              0.014450254144187
            ],
            [
              -0.0053388811320668,
              -0.01131822986677,
              0.012493467889248,
              -0.020362890510787,
              0.013162038649298,
              -0.0071100441121626,
              -0.018371212895435,
              0.0057180608777298,
              0.0011099293610003,
              -0.001993968933955
            ],
            [
              -0.011937199376883,
              -0.016899294547585,
              -0.026229537668181,
              -0.0034119130043096,
              0.0024084501974673,
              0.005604892335874,
              -0.010027770892075,
              0.010929195308073,
              -0.0055785121997779,
              -0.011575992190449
            ],
            [
              -0.00439583200402,
              -0.0036487455324759,
              0.0026181895372129,
              0.0091348187816709,
              0.0066573267596045,
              -0.0022439521330847,
              -0.0044785767907134,
              0.0087519562879691,
              0.01117824296682,
              -0.0039274873520506
            ],
            [
              -0.0055798943506852,
              -0.00060675368385811,
              -0.0012980066235097,
              -0.0073058860896951,
              0.0086934125913781,
              0.0061174844705674,
              -0.0079827953486103,
              0.0070756509179202,
              -0.0026326899097988,
              0.0015144312985768
            ],
            [
              -0.017857071898424,
              -0.008013828000267,
              0.0044952320390953,
              -0.00068404462263716,
              0.0056516615654561,
              0.0015591577815889,
              -0.016572243004888,
              -0.0010121986602775,
              0.0065567338702272,
              0.008962457707701
            ],
            [
              -0.015762572580587,
              -0.018601431341339,
              0.0020010387252405,
              0.0015720180975147,
              -0.0083526156844835,
              0.003693616734644,
              -0.010493779926511,
              0.0074668297606752,
              0.010903445800229,
              0.0034688228928583
            ],
            [
              -0.010081720087754,
              -0.0093463623598278,
              0.0056848282373898,
              -0.0031396242544459,
              -0.019192092771776,
              0.0041557042939142,
              -0.018225362988727,
              -0.0095092538539404,
              0.00049687652919267,
              0.0053099375886641
            ],
            [
              -0.016795416627951,
              -0.01591756966946,
              0.0044431946949272,
              -0.0021302803470225,
              0.0060466768821507,
              -0.0018609526531192,
              -0.016333957926584,
              0.019158218859625,
              -0.0036454245327753,
              -0.0067254298016283
            ],
            [
              0.013548817868393,
              -0.0014713689652252,
              -0.0059208896083453,
              0.019606179909326,
              -0.015449347840365,
              0.0059974939515791,
              -0.0053831684285238,
              0.0023038517004628,
              0.0068686883758799,
              0.0039073827308305
            ],
            [
              -0.0090577172650632,
              0.01041143824574,
              0.013679860978706,
              0.00028264259219272,
              0.008647035678618,
              -0.0014860552626174,
              0.0014014668017652,
              0.0019966071466726,
              0.0046007928596771,
              -0.0031051846339555
            ],
            [
              0.0052813893339916,
              -0.0080074788088717,
              -0.010293831205764,
              0.01120382043658,
              0.0089925911770097,
              -0.0056106216687713,
              0.00014278083428114,
              0.020632387221754,
              0.0045859921831461,
              0.0037548034704941
            ],
            [
              -0.00090627396661463,
              -0.0028334585170105,
              0.010801060865951,
              -0.0012973936953311,
              1.8766771499952e-5,
              0.0075598284326052,
              0.012880915984532,
              -0.011219408026663,
              -0.0095470573052902,
              -0.00019286841819016
            ],
            [
              -0.012906314098664,
              -0.010799996143747,
              0.001538525421541,
              0.0037535074751045,
              -0.0050658104037105,
              0.0070124876220078,
              -3.1762651201246e-5,
              -0.00087826160090466,
              0.0030407319255242,
              0.0091626053753666
            ],
            [
              -0.0081118955597519,
              0.0047032881101593,
              -0.011920586712027,
              0.004471526230503,
              0.0017675885309814,
              -0.014521567766777,
              -0.0076359989746117,
              0.01381586658555,
              -0.0071054051807828,
              -0.006776561975864
            ],
            [
              0.0021699270949193,
              0.008455847530172,
              -0.0072481996442635,
              -0.0099809857155127,
              0.0062166245817874,
              -0.010272914854559,
              -0.0090144471552144,
              -0.010027206238916,
              0.0017245498947475,
              0.00042714133895096
            ],
            [
              0.0095033905249479,
              -0.0030892369896983,
              -0.0021953305918254,
              0.0098974265143447,
              0.0028835070951274,
              0.007972938566866,
              0.0048006049212914,
              -0.014494851382121,
              -0.011733992072017,
              -0.013279910612341
            ],
            [
              0.0055786318402866,
              0.0086111809495784,
              0.0012330019973904,
              -0.0035312268349217,
              -0.013672587172647,
              0.0007759959751948,
              -0.0098534197825879,
              0.018358081573811,
              0.0003703295774878,
              -0.003667673965974
            ],
            [
              0.011318467240476,
              -0.0083757734138041,
              -0.011333034602537,
              -0.018486810376911,
              -0.00058207384440019,
              -0.0015744283095047,
              -0.0036813817526472,
              0.0056506657503615,
              0.013073077040632,
              -0.014964108795508
            ],
            [
              -0.0085800868612013,
              0.017770300110099,
              -0.0086589002701155,
              -0.0074084975413472,
              -0.0083763046228566,
              -0.0077260933009426,
              0.0079790031056993,
              -0.0069246412730857,
              -0.011135172896365,
              0.0082645163703617
            ],
            [
              0.0020361161956289,
              -0.012216242095078,
              -0.0073327033180739,
              0.0073509095105763,
              0.015643912495646,
              -0.0079089642955435,
              0.013349512402167,
              -0.01199089928467,
              0.0057881014543807,
              0.015206208057774
            ],
            [
              0.0088798112283873,
              -0.00085547709393288,
              -0.0027461949847707,
              -0.004623086724873,
              0.0048849827657382,
              0.00081834534108978,
              0.0027824706127187,
              -0.024098712745777,
              0.005988872239174,
              0.002619990520473
            ],
            [
              -0.0036156939283379,
              -0.00033994014570837,
              0.00047029824054478,
              0.0080928739111625,
              -0.014625155690053,
              -0.0091950378847885,
              0.02089848222535,
              0.010797547041153,
              0.011398771995123,
              -0.0032402355989137
            ],
            [
              0.00085493623213347,
              -0.0064411740653313,
              0.0051864526330174,
              0.0069478937832023,
              0.012892507038702,
              -0.0017933900956638,
              0.00075359999706377,
              0.003898488362669,
              -0.010529711265814,
              0.014238301580157
            ],
            [
              0.0069652669362133,
              -0.010771139189222,
              0.01981532067787,
              -0.009622242857346,
              0.007076702334616,
              -0.00042695560038233,
              -0.0012047497374899,
              0.0095454023830192,
              -0.011433089307994,
              0.019641268771922
            ],
            [
              -0.013542339248481,
              -0.0027018278758338,
              0.00015302612938356,
              0.01788406759268,
              -0.0017168573268988,
              0.0082553494316758,
              0.017288096901498,
              0.01108645104848,
              -0.012684101671231,
              0.0011337707184371
            ],
            [
              -0.017966553103864,
              0.0098591477167701,
              0.01339458928772,
              -0.02428657478047,
              -0.022095708769889,
              -0.013587236262632,
              0.012221970762759,
              -0.018112258140336,
              -0.012253993953057,
              0.010233590433289
            ],
            [
              -0.0064026712701803,
              -0.017299780182136,
              0.0016946066750551,
              0.0188545871715,
              0.0051342163049573,
              -0.024378225714669,
              0.023825695354376,
              0.0073319807925324,
              0.00035787644354417,
              0.00020220170386277
            ],
            [
              0.0057436825888222,
              0.0042724537231703,
              0.0090806220883985,
              0.016962546813467,
              0.0012855522149072,
              0.0037421425069961,
              -0.0069674308107791,
              -0.0015030473755719,
              0.004694518154817,
              -0.0010141547940699
            ],
            [
              -0.0086499349096826,
              0.0021385447580964,
              -0.0088638801781589,
              -0.0024812489455656,
              -0.0092993577389126,
              0.009994553360173,
              -0.0020544815444023,
              -0.0049130172373161,
              0.011924732792887,
              -0.0012154489220818
            ],
            [
              -0.007237428725388,
              0.0036595476343837,
              -0.0012375844671271,
              0.0057889679842147,
              -0.0018150736247299,
              -0.018256673500509,
              0.0025031246635351,
              -0.0070399929290861,
              -0.0080965564901346,
              -0.0097628082700505
            ],
            [
              -0.0084692860467505,
              0.017771041300788,
              -0.0061827946735613,
              0.0098232284727297,
              0.0047522643668749,
              -0.0081970603553545,
              0.007323860588154,
              -0.0079133343351402,
              0.018418849055265,
              0.0070499163112205
            ],
            [
              0.0057496078954764,
              -0.017815678618765,
              0.0037804556577591,
              0.0023968032741142,
              -0.01405929739841,
              -0.017185924854123,
              -0.0090505359431814,
              -0.0073939284461378,
              0.0018374141781069,
              0.0093603798219841
            ],
            [
              -0.0094759972118002,
              -0.0018676636952862,
              0.001953092070757,
              -0.0046946818023358,
              -0.0053818168080574,
              0.00025427540434554,
              -0.0013598272455944,
              -0.0049643850444266,
              -7.2248393209557e-5,
              0.0080923727059559
            ],
            [
              -0.0065144341515327,
              -0.0024921084126829,
              -0.025321546707311,
              0.015477791545343,
              -0.0072431920253566,
              0.0072612715571019,
              -0.0035049240062594,
              -0.015859058388064,
              0.021127919209656,
              0.024646774373802
            ],
            [
              0.013299099190082,
              -0.018859883501922,
              -0.00085543069522875,
              -0.0016284766063479,
              -0.0089597429194782,
              0.013247541544143,
              -0.0057627273260866,
              0.0092198265177677,
              0.0021254090208232,
              0.012797693451771
            ],
            [
              0.0016699454583441,
              -0.0056619225543589,
              0.016009828552757,
              -0.0093723414567591,
              -0.00054022819664549,
              -0.0071008807752342,
              -0.00025289171914041,
              -0.0071053505959986,
              0.0013910012524665,
              0.0037742655394666
            ],
            [
              -0.0083023972007324,
              0.011233299830982,
              0.026232696991406,
              0.0074729427304591,
              -0.0099330163378691,
              0.004594384454039,
              0.0073581554288641,
              -0.0092311385339886,
              -0.0015950452340381,
              -0.011528530651804
            ],
            [
              -0.0073458391837533,
              0.012503545055554,
              -0.0051836924053297,
              0.0059259326551262,
              0.0095394372834863,
              0.0093530685874747,
              -0.0084790462952351,
              -0.00040679057825435,
              -0.011745608632771,
              -0.016633231260474
            ],
            [
              -0.0025654534920162,
              0.0071730184903048,
              0.0098305225174415,
              0.00027807407599004,
              -0.00693697951735,
              -0.001416997446268,
              -0.002994882795993,
              -0.0060315682979315,
              -0.020551518117087,
              -0.007495097445753
            ],
            [
              -0.01205580796795,
              0.020076551214949,
              0.006543444536205,
              0.023941668934669,
              -0.011747926026476,
              -0.0077241912183587,
              -0.0090530641238369,
              -0.0058843499901756,
              0.017618754120558,
              -0.0051128644036137
            ],
            [
              -0.0065288374102754,
              0.0020276516792453,
              -0.0020172870346442,
              -0.0038626457406099,
              0.0004029698462523,
              0.0124901462115,
              0.010115832042778,
              -0.0023398940410736,
              0.0030050258101835,
              -0.015721180460939
            ],
            [
              0.0011110667384049,
              -0.00097554278579215,
              0.003447313107578,
              0.020051076951981,
              -0.018543925334898,
              0.0090111510622086,
              -0.0075895063453837,
              0.013982544619944,
              0.015922660219038,
              0.0058776639236793
            ],
            [
              0.0028466888948549,
              0.0024164036155972,
              0.0059142659909717,
              -0.01907324450473,
              0.029118711239255,
              0.0050041972946325,
              -0.0035943238567194,
              -0.00076389744571809,
              0.0045256594592575,
              0.013466667085278
            ],
            [
              -0.003793466044436,
              0.018998217651531,
              0.013549109780996,
              0.010014036598602,
              -0.016631504594968,
              0.0087625132366274,
              0.0013932925088759,
              0.0048101006046199,
              -0.021415762873383,
              -0.017063920260251
            ],
            [
              0.0023644151595413,
              0.020483515486649,
              0.0013996152147294,
              -0.0063324283381085,
              0.01179428357408,
              -0.026504769860001,
              0.0063319419825295,
              -0.0127278705294,
              -0.001652261066959,
              -0.0024573939866791
            ],
            [
              0.012745320630399,
              -0.00045854628345958,
              -0.012946088599099,
              -0.0057097808762046,
              -0.0047161181295217,
              0.003714923653431,
              0.015865321835861,
              -0.0057758200798369,
              -0.021788801882425,
              -0.0043027631763346
            ],
            [
              0.0017211047855677,
              0.0081921098422791,
              -0.0098779138440245,
              0.009282627155442,
              0.0033647005929328,
              -0.0080801977638165,
              -0.015513403535537,
              0.0031066708517432,
              0.0026306371613224,
              -0.0073546204161099
            ],
            [
              0.0074853039349987,
              0.0067835102314623,
              -0.0086352090544824,
              0.00051427429972186,
              0.0042370635608368,
              -0.017009532558912,
              -0.0042385357723552,
              -0.0075974469710038,
              0.0052067378091153,
              -0.0067602120462071
            ],
            [
              0.0210513026086,
              0.0097274537230621,
              -0.0026666715218319,
              0.0042414867078058,
              -0.01344105401274,
              8.390840505399e-5,
              0.016116503708415,
              -0.0077563412202739,
              0.015443002071055,
              -0.0060082037243999
            ],
            [
              -0.0015872013360246,
              0.010842757393786,
              0.00016786348156958,
              -0.014074455076052,
              -0.0068041119834972,
              -0.00070055690663312,
              -0.0093539306305909,
              -0.00013327563056455,
              -0.0018315420038882,
              0.0014447905920616
            ],
            [
              -0.0043493323366797,
              0.0038778914934666,
              0.0068063729233761,
              -0.0020793391641042,
              -0.0082251247018505,
              0.0018509570286833,
              0.0072562345415812,
              0.0023005019623779,
              -0.006148099379699,
              0.0038481383743713
            ],
            [
              -0.00096174171103487,
              -0.017747484296805,
              -0.0056446016045785,
              -0.00070208714778359,
              0.017683470127985,
              0.007874456417969,
              0.0075808732645232,
              -0.010762383506383,
              0.0066330036962091,
              -0.014702584821097
            ],
            [
              -0.00096088702870793,
              0.0081422815898711,
              -0.0062428930701058,
              -0.028062910167527,
              -0.019778500896729,
              -0.0037381102989555,
              0.0059843418451858,
              0.00082105582519387,
              -0.012122248666403,
              0.0061387672005275
            ],
            [
              -0.0057337830728678,
              0.010901593151083,
              9.7571593518938e-5,
              -0.010536275783793,
              0.0067991226774561,
              0.0077141388910891,
              -0.0054421780131278,
              -0.0064912043534067,
              0.0041009672576776,
              -0.0047881422421858
            ],
            [
              -0.003710033449657,
              -0.0030455099196201,
              0.023068612952426,
              -0.013830387778598,
              -0.0001822066511676,
              -0.011155689909808,
              0.011533625520098,
              0.0036840859610148,
              -0.010333889400776,
              -0.0036133466060244
            ],
            [
              -0.019314087008798,
              0.0020282761421496,
              0.00073596246746989,
              0.012791567580842,
              -0.00014248161088094,
              0.0054488590113709,
              -0.00053531727226954,
              0.014425903307855,
              0.0045107663379019,
              -0.016415344440221
            ],
            [
              0.0017457625777775,
              0.0056211994304349,
              -0.011161283807141,
              -0.011758063715577,
              -0.0072501882317793,
              -0.0050297025897343,
              -0.0051661839471122,
              -0.015094842032146,
              0.001331578913943,
              0.0065533984444462
            ],
            [
              0.011879485743397,
              0.0021010617642431,
              0.021766653279585,
              0.0071702786439644,
              -0.0056832736302342,
              0.0061370707232521,
              -0.012499129186304,
              -0.013198950139781,
              -0.0044437512509194,
              0.0043113733966066
            ],
            [
              0.0095868217520713,
              0.0030493560106707,
              0.0028600497795573,
              -0.017577176305122,
              -0.015390061316318,
              -0.0050148910169135,
              0.022790212570149,
              -0.013664195308951,
              -0.0077794288202688,
              0.01082819564154
            ],
            [
              -0.0043340029817771,
              0.0044595649869831,
              -0.0057198080814941,
              -0.0059317993465899,
              -0.017621192684614,
              -0.0094253726437748,
              0.0016539262789556,
              0.0054915673636373,
              0.015890932917132,
              0.00085870186741432
            ],
            [
              -0.028693280741173,
              0.0071947396436323,
              -0.0033091607375194,
              0.0063741315192309,
              -0.010692092746198,
              -0.015704286722272,
              -0.011209971333508,
              0.002611862067782,
              0.0053827338530968,
              0.00079786996943243
            ],
            [
              -0.0068590569681888,
              -0.0089052420404645,
              -0.014981438691374,
              -0.0058528673674043,
              0.00089028960885519,
              -0.0063384812266984,
              0.0075732407190096,
              -0.013679193643189,
              -0.00040384667430081,
              0.0025541963886806
            ],
            [
              -0.0093301148040126,
              0.0012065606640533,
              -0.0062467055697958,
              0.0078685543111271,
              -0.0072255787850531,
              -0.0072349176124154,
              -0.019209317417655,
              0.010330443519582,
              -0.0087656470086043,
              -0.01438836269748
            ],
            [
              -0.012246092021189,
              0.010037037710201,
              -0.0098846008512611,
              -0.006740895951698,
              0.0045641009590377,
              -0.00066864139441764,
              -0.008184758156968,
              -0.0096240422183211,
              0.0014883180459641,
              -0.0058959144608065
            ],
            [
              -0.020677068320773,
              0.017737887605872,
              -0.00069455362475053,
              -0.018133274232278,
              -0.0025191492405459,
              -0.0017576134117871,
              0.0056999322130725,
              -0.0046093923478954,
              -0.0038484307097498,
              0.00042367136990854
            ],
            [
              -0.0053577125830769,
              -0.014199603563014,
              -0.00021651815706366,
              0.019964822789725,
              -0.021972715319404,
              0.00085124531978545,
              -0.0079892606045166,
              -0.0011188564940239,
              0.007857348673981,
              0.019517513995921
            ],
            [
              0.015444865267896,
              0.012035230174573,
              -0.0028296060134389,
              0.0071316438032769,
              -0.013939007823599,
              -0.011131432533699,
              0.011619312824433,
              -0.014868296280568,
              -0.0078707871062587,
              -0.006772521692986
            ],
            [
              0.009449325386767,
              -0.0029001647909276,
              -0.005024862598725,
              0.021341615930806,
              0.001371816666788,
              -0.0077725774679243,
              0.0034719792766145,
              0.012011352876636,
              0.0049222370044929,
              0.0050265623967716
            ],
            [
              -0.0028447027125928,
              -0.0019957812646769,
              0.0055761292493034,
              0.0011730602236354,
              0.0044047615826467,
              0.0076730583964897,
              -0.0014750972114238,
              -0.014444241032792,
              -0.010863113531065,
              -0.0032488413464309
            ],
            [
              0.0041530712417539,
              -0.0095355738804027,
              0.0041514816230629,
              -0.010422383311785,
              -0.0054532187226961,
              0.0023176983006741,
              -0.012420676317434,
              0.0053206266058518,
              -0.015956404273822,
              0.016136423119102
            ],
            [
              -0.0058459584369186,
              0.0039700762445094,
              -0.0045414008695321,
              -0.00021296686344251,
              0.0077407958185125,
              -0.013083534585956,
              0.0023804677503434,
              -0.0055246768695726,
              -0.01264162491953,
              0.013743500162502
            ],
            [
              -0.010539421682651,
              0.0093505440995853,
              0.0086979033625236,
              -0.0016092926603346,
              -0.01064634004167,
              0.006642178453785,
              0.0018122300903701,
              0.00817205741301,
              -0.0060375318262435,
              -0.0041677469430193
            ],
            [
              -0.010843181963188,
              -0.005659867787567,
              0.008693249618519,
              -0.0041333681954704,
              0.0037430044993559,
              -0.013393661121767,
              -0.0022457747725121,
              0.0048155892226924,
              -0.010545022911613,
              -0.0038212847401777
            ],
            [
              -0.00077080767067253,
              -0.0031353897531066,
              -0.0051808798332646,
              -0.010560519598618,
              -0.0013217076616643,
              0.0018788914435936,
              0.0019568218326818,
              0.0070654906621936,
              0.016952548329903,
              -0.0037998542986277
            ],
            [
              0.0062061485134946,
              -0.0031505953641111,
              0.0039426083793563,
              0.015041172405854,
              0.012311383207526,
              -0.023010785552615,
              -0.0033216618749875,
              0.0075911789873483,
              0.0066781124619663,
              -0.0033670286177524
            ],
            [
              0.0083152835175359,
              -0.024109878389326,
              -0.00056768274099436,
              0.0054548026839175,
              0.006634806101755,
              -0.011887761310317,
              0.0051018684848564,
              0.019001860954531,
              -0.007266959853702,
              0.006958143920039
            ],
            [
              0.0010719771315255,
              0.0038530084135664,
              -0.010107073474808,
              0.0040586981977168,
              0.010941429061871,
              0.011450516525496,
              0.0086258648984646,
              -0.0045628384972562,
              0.0046218176573998,
              0.012670640302216
            ],
            [
              0.0063051510174075,
              -0.0092976443636722,
              0.0036522609519193,
              0.0031865374063722,
              -0.018724986718174,
              -0.010101515841,
              -0.0014670076683498,
              0.00094620644765432,
              0.010890027705514,
              -0.0072854676603677
            ],
            [
              -0.00046174559812994,
              0.015102868681144,
              -0.0038608128486878,
              -0.0036678994061345,
              -0.0061714462114957,
              -0.0024563599599021,
              -0.0093159274707656,
              -0.00066501176948235,
              0.0050219236666491,
              0.0077311551062559
            ],
            [
              0.0056475760001207,
              0.0091808272257776,
              -0.0090116277259048,
              -0.0018844784690546,
              0.00034386592142359,
              -0.009927498292854,
              0.011358744746233,
              -0.019438760787438,
              -0.015903960848026,
              -0.0075200485564442
            ],
            [
              -0.0098915449275444,
              0.0082046788830355,
              -0.017161645017518,
              -0.0070789621339921,
              0.0090763637059731,
              0.010096580488439,
              0.016814806586856,
              0.0034694127965845,
              8.0146690064261e-5,
              -0.018532313351829
            ],
            [
              0.005288574458324,
              -0.00086091153824116,
              0.02525548604684,
              -0.00072177443440749,
              0.0056259784625655,
              -0.0049374670691237,
              -0.010222459387749,
              -0.0045425121037522,
              0.0072278330432212,
              -0.0029334178786927
            ],
            [
              -0.0018739029996175,
              -0.00086924744297284,
              0.0028515561189088,
              -0.0026595025948245,
              0.020906385290211,
              0.0049075779670586,
              -0.00041356069174417,
              0.018350836629019,
              0.0037341770983572,
              0.009864514673584
            ],
            [
              0.0069311559981061,
              0.0041608754347551,
              0.0084291808217264,
              -0.0062253790477468,
              0.0050006536342754,
              -0.0082804030345677,
              0.0098876528037467,
              0.0011818705953838,
              0.00577299907312,
              0.017461633784612
            ],
            [
              0.0006427780937426,
              -0.0055744514120359,
              -0.017160580254064,
              0.0037099957179106,
              0.015797652444505,
              -0.0067155233441852,
              -0.015218837577168,
              0.011505269268881,
              0.0021980214138021,
              0.0020889896064983
            ],
            [
              -0.013200246425238,
              0.0044655240572089,
              -0.0012108812415047,
              0.011460959538278,
              0.0022332461453815,
              0.016769115417796,
              -0.00011929171579158,
              -0.0040000094899118,
              -0.0023482175112067,
              -0.0027552086539107
            ],
            [
              -0.00064247163986577,
              -0.018955844865122,
              0.0088907279297683,
              0.020461630180344,
              -0.011938041948132,
              -0.0069824971394532,
              -0.0028346971450048,
              -0.010864545187221,
              0.0090732499379298,
              -0.017070841458494
            ],
            [
              0.0080691147934355,
              -0.0030352968387571,
              -0.0054768829134686,
              0.0087832675914345,
              -0.0051128180002851,
              -0.0096527801263437,
              -0.014322163971525,
              0.0028503657437334,
              0.00085930801012485,
              0.0067926478269705
            ],
            [
              -0.00052359843701939,
              -0.0053927255016041,
              -0.022163407627061,
              0.0038556089533149,
              -0.0016251821702569,
              0.009980553821195,
              -0.00048642680510874,
              0.0024906091982471,
              0.0046497867428163,
              0.0035854603737126
            ],
            [
              -0.00050288183541634,
              0.0040945078533835,
              0.0085441237754039,
              -0.0095321834297359,
              0.0032615324418666,
              0.018401143982203,
              -0.003565957576772,
              -0.016689681374441,
              0.0016434517179053,
              0.0061881817648343
            ],
            [
              0.0084756614540016,
              -0.0021727282227629,
              0.016408453691699,
              -0.00359163395652,
              -0.010278936184649,
              0.0031053482774129,
              -0.0058593259328275,
              0.0093904486735961,
              0.019116582493343,
              -0.012672784285478
            ],
            [
              0.01321463029564,
              0.0035764436208326,
              -0.010456065606716,
              -0.00017080322129185,
              -0.019174372514337,
              -0.0056930764709369,
              -0.0050100557965799,
              -0.014575144350855,
              -0.0049152733093912,
              0.010998495362869
            ],
            [
              0.0097308099304017,
              -0.015687551698705,
              -0.0077081255129935,
              -0.011111180891174,
              -0.0089776427198711,
              0.0037354780210957,
              -0.010206180580808,
              -0.0054765844259867,
              0.010587054888123,
              0.0076731412656426
            ],
            [
              0.0084342546404717,
              0.01801946417953,
              -0.0085404754827655,
              0.002927897031299,
              0.016501842330287,
              0.0060563885162909,
              -0.0040146559560782,
              0.010627382909808,
              -0.0068790090247216,
              -0.0098924286010662
            ],
            [
              -0.013032598909882,
              -0.00059004079830129,
              0.010002004715502,
              -0.0089264630114413,
              0.0019260187286628,
              0.002090600039782,
              0.012472246592952,
              0.011167497830578,
              -0.0013861001646018,
              0.019107723217211
            ],
            [
              -0.0030658604025199,
              -0.0020940777861836,
              -0.0034222262581112,
              -0.0011378802165094,
              0.013731048655555,
              0.010470169037209,
              -0.0046549238975824,
              0.0084000769061996,
              0.0027666662583408,
              -0.0069094148726263
            ],
            [
              0.0098166767325237,
              -0.0090209004175494,
              -0.004724303823611,
              -0.0017632479609662,
              0.0047340321942993,
              -0.0017651514228406,
              -0.0085214213739679,
              -0.0076796244608924,
              -0.0068405853157731,
              0.0039989548574984
            ],
            [
              -0.00070746577498116,
              -0.025760943018475,
              0.015121563077279,
              0.0080076938861456,
              0.0029098083996093,
              0.0025300233461852,
              0.0079025976844723,
              0.012651494494529,
              -0.020397255998253,
              -0.016783318897247
            ],
            [
              0.0018911029314358,
              0.0003140796742625,
              0.00063905063113679,
              0.011703563843396,
              -0.0067099242550247,
              0.0040822014815129,
              0.00098521209729762,
              0.00069069595931266,
              -0.0033029786683566,
              -0.012502898946081
            ],
            [
              0.011851200328616,
              0.0036259362001678,
              0.0079583896474145,
              -0.012331777339191,
              0.00037481124860877,
              0.0041990802357715,
              -0.020394806079673,
              0.011814631436485,
              0.0053606567670004,
              0.015918777643379
            ],
            [
              -0.0063883435434123,
              0.0044065909655381,
              -0.0067467290839306,
              -0.016810015629456,
              0.016031269890672,
              0.021129956402214,
              -0.00050110522666399,
              0.0026807178464012,
              0.0046109240558079,
              -0.0083651078205119
            ],
            [
              -0.0021695592652636,
              -0.0093849925919798,
              0.0013887364147741,
              0.0068455213666143,
              0.004496297610583,
              -0.0014054644834604,
              0.0074069538820124,
              -0.0060718066420135,
              0.0054612625089442,
              -0.0070581589097198
            ],
            [
              -0.00028327003039153,
              0.0001026647689215,
              -0.0037482162881192,
              0.0010018956887696,
              -0.0012980933493033,
              -0.011744081798023,
              -0.0032395851786008,
              -0.0098776094279155,
              -0.015114464566414,
              0.0077665960075564
            ],
            [
              -0.010484532227265,
              0.011203544692467,
              0.012430542542976,
              -0.0061023311058615,
              0.020227608246202,
              0.019381785697266,
              0.0056333511274782,
              0.0033967094234068,
              0.0081338246368039,
              0.008655973250659
            ],
            [
              0.0088001192254678,
              -0.0075726936606662,
              -0.01362874125264,
              0.008318699298802,
              -0.0041141086780162,
              -0.0017114854290189,
              -0.012321578931563,
              -0.0038821335712737,
              -0.0092546292354916,
              0.0035567796727586
            ],
            [
              -0.0036432783548847,
              0.01078018305577,
              0.016306478967778,
              -0.021232660997661,
              0.0027069076232913,
              -0.00012499113878023,
              0.011688368708646,
              0.017421583816186,
              7.8845281365194e-5,
              0.014837724797293
            ],
            [
              -0.0049129383416552,
              0.0048431149235113,
              -0.015245062194219,
              -0.0059631805131015,
              0.0027559273166478,
              0.010429076721112,
              0.0063923151174608,
              0.0013605790705513,
              -7.5660301561907e-5,
              0.0034203200491725
            ],
            [
              0.014045136360007,
              -0.0027021589169429,
              -0.0028184119235364,
              0.0055578636491588,
              0.0029122741301482,
              -0.0095130529715067,
              -0.0047919041276969,
              -0.0038137611322287,
              0.0037214375392013,
              0.0062193329375835
            ],
            [
              -0.0018403400619108,
              -0.024084189113777,
              0.019074141691425,
              -0.00070687700509673,
              0.0027363709934986,
              -0.011571294428483,
              -0.0083764887924617,
              0.0086584610969254,
              -0.011761360338722,
              -0.0025711739884931
            ],
            [
              -0.010322613529004,
              0.0016442594347912,
              -0.0042546586560392,
              -0.00050785027976439,
              -0.0012824300482959,
              0.0030099097596021,
              -0.0077892946635154,
              0.013486070480841,
              -0.0013994583913973,
              0.0058248834479654
            ],
            [
              -0.0027231853226012,
              -0.0032520217102192,
              0.0086963142137501,
              -0.013335186234881,
              0.012403535489869,
              -0.011304275063118,
              -0.0037628977947168,
              0.0078644394656348,
              0.012630496332082,
              -0.0041210845018223
            ],
            [
              0.010966653266947,
              0.0029452807751489,
              0.010558753225754,
              -0.0040672664929633,
              0.0084400754162272,
              0.0039683295341223,
              0.0010808848465783,
              -0.005670304007259,
              -0.0077306370877228,
              0.0094902335629763
            ],
            [
              -0.005753382783596,
              -0.0059957277561857,
              -0.0017389370361978,
              -0.014126701032832,
              -0.014396054764975,
              0.0039392822614052,
              0.00081295989422826,
              -0.0024729858890196,
              0.0087641991521233,
              -7.4116681180747e-6
            ],
            [
              0.010232338959525,
              -0.00049383005473769,
              0.0022814396724154,
              0.0036028569758529,
              0.0081095956143822,
              -0.014935513478157,
              -0.010043597138399,
              0.0018215259936176,
              0.010205058704786,
              -0.0059701873634597
            ],
            [
              -0.0022540771703543,
              0.011677376436635,
              -0.0075169637106077,
              -0.022215546137425,
              0.014544911325786,
              -0.0030927580948424,
              -0.0029756485063038,
              0.0030795776247113,
              -0.010474619583438,
              -0.0028354291513829
            ],
            [
              -0.0059484114359495,
              0.030542820832358,
              0.012633642657476,
              -0.0062638678954408,
              0.0031605657428803,
              -0.001172139018623,
              0.010875921930286,
              -0.012726392660809,
              -0.010520795615036,
              -0.00011648186425677
            ],
            [
              -0.0087302295811243,
              -0.0095080720447946,
              -0.0052428900560117,
              -0.016346511526312,
              0.0022422149255167,
              -0.0019409341682532,
              -0.008866841387427,
              -0.018836498108455,
              0.0016610034441795,
              0.0079680311870361
            ],
            [
              -0.0011187863918139,
              2.4277352730891e-5,
              0.006421249211911,
              0.00055341211702772,
              0.0009649206666505,
              0.013613510974079,
              0.0013887621892887,
              0.0069871285191359,
              -0.01092433574956,
              0.00096695848429562
            ],
            [
              -0.0014758376599871,
              0.017177929229434,
              -0.00027727489881385,
              -0.011796816284329,
              -0.0054688457910613,
              0.0048825866410678,
              0.0017788138581707,
              0.020472163074874,
              -0.010405422541275,
              -0.010394598679247
            ],
            [
              0.004814471828329,
              0.0021173780763157,
              0.0064275857525718,
              0.013105112809813,
              -0.011517561104066,
              -0.010742472659134,
              0.0018484629394167,
              0.025512777491204,
              -0.0083801552133564,
              0.0015393551364926
            ],
            [
              0.0019407213912545,
              -0.015168138720529,
              -0.0054277145166715,
              0.0059123093651128,
              0.00047162361946816,
              0.0012173746935465,
              0.0065888315708995,
              -0.0013982372053054,
              -0.013609953449319,
              -0.0098432598860163
            ],
            [
              -0.0070796180151285,
              0.012609844570446,
              2.1198520640783e-5,
              0.010939478282684,
              -0.00549978953315,
              -0.0082649713997232,
              -0.0037817178667862,
              -0.011596650556406,
              -0.019292023144394,
              0.0047933585872836
            ],
            [
              0.0051034311688863,
              -0.00034848638468938,
              0.0019144584303751,
              0.0019057598178126,
              0.011176586668068,
              -0.007808654241317,
              0.0069049314525569,
              -0.015374386418869,
              -0.0019534465427377,
              0.0007640128056904
            ],
            [
              -0.01182032924374,
              0.01915635922466,
              0.013488150545653,
              0.0090419891368769,
              0.014181942948434,
              0.0056589620028763,
              -0.0058984624039028,
              0.0045364934306745,
              0.0030530707645553,
              0.0073173408867139
            ],
            [
              2.0388690532503e-5,
              -0.0062287617425968,
              0.015806922983192,
              0.002393800353501,
              -0.0036144659867555,
              -0.0078326878679903,
              -0.01255413960247,
              0.0095253960661401,
              0.003821717621244,
              -0.0034412321099668
            ],
            [
              -0.0039329298015887,
              0.0059675599448182,
              0.0041313640681431,
              0.01507150789252,
              0.010431399068109,
              0.0063095719872846,
              -0.011079119291516,
              0.0035285599662475,
              -0.0027583235351367,
              0.011907643115176
            ],
            [
              0.0020126643889217,
              0.0099668780326059,
              -0.00329829798773,
              0.00148068352913,
              0.0049494891186552,
              -0.0031643130570041,
              -0.010269383750109,
              -0.0033269858289963,
              -0.012234601741919,
              -0.013177029912751
            ],
            [
              0.017360083107382,
              -0.01721440731848,
              0.0019521928872523,
              0.0021915224524277,
              0.00079868625804954,
              0.014205793101519,
              0.0044284964265555,
              -0.00050789085655748,
              0.0028033194864904,
              0.008958241402409
            ],
            [
              -0.0028164943450795,
              -0.0081374978436189,
              -0.028277603858439,
              0.012783597760189,
              -0.015517899178983,
              0.0015090329333675,
              -0.0041646192153831,
              0.012389803053575,
              -0.0037566492436455,
              -0.0015904689580729
            ],
            [
              0.0051053253405337,
              0.0063087370962783,
              0.01620193762837,
              -0.0044041818925791,
              0.0032597656647273,
              0.0066947658316904,
              0.0038223574722845,
              0.0057368376128502,
              0.0051583792340525,
              0.020551609768616
            ],
            [
              0.0093843837152204,
              -0.0020487139957783,
              -0.0039892274711034,
              0.011825089137218,
              -0.026272733342982,
              0.0017962393056424,
              0.011025560387406,
              -0.0017424555054353,
              -0.0037183055801199,
              0.003806161536275
            ],
            [
              0.0042600163714411,
              -0.0013657959781936,
              0.01716640142445,
              -0.0015685909299981,
              -0.0075939022833439,
              0.0098646227701064,
              0.011380031263501,
              0.013939351174782,
              0.0074345298480573,
              -0.0028849007603128
            ],
            [
              0.0048466529679065,
              0.006275635521523,
              0.00382817343814,
              -0.0022140656443363,
              0.018284769090018,
              -0.013385660862607,
              0.0013953827229827,
              0.0093602822024123,
              0.0047707927520604,
              0.0025908937174059
            ],
            [
              0.0039357579450262,
              -0.0054220728309781,
              -0.0091225791263181,
              -0.019550768022184,
              0.0089786029663919,
              -0.001017155686696,
              0.001998626885428,
              -0.0025656138443844,
              0.012897242923699,
              -0.012732697888584
            ],
            [
              -0.0083448941115399,
              -0.0052413534798531,
              -0.0026956627211797,
              0.0017588314703512,
              0.0023843522286471,
              0.0059570383172923,
              0.00169653277467,
              0.0048104851752633,
              -0.0072261577147105,
              0.013882883363013
            ],
            [
              0.0080981313743597,
              0.0068983375338023,
              0.018708255906654,
              -0.011815207328167,
              0.0011580451270527,
              0.010417979920612,
              0.00015811407673846,
              0.014134964796889,
              -0.025315467445929,
              0.00065355915044151
            ],
            [
              0.015761333834084,
              -0.0098946895667863,
              0.0056788588679189,
              0.0046608592374083,
              0.0061702396398407,
              -0.0098402312261651,
              -0.0035201714580874,
              -0.0061721635169349,
              0.0137387669207,
              -0.0096843945599844
            ],
            [
              -0.0064406614840503,
              -0.00010833933221431,
              0.022252535526427,
              0.0051558371145855,
              0.0032588030017543,
              -0.0058821254453828,
              0.006552369982253,
              -0.012998574018027,
              0.0068285935308904,
              0.0012549304058281
            ],
            [
              0.0025451956011198,
              -0.00048940776905806,
              0.011592091591765,
              -0.0064414449508123,
              0.0029106916087744,
              0.0057012044949405,
              -0.0039938056123572,
              0.003778861203819,
              0.0072395642482594,
              -0.0050852832916472
            ],
            [
              -0.0097919808154713,
              0.00079615068709074,
              0.008938097732788,
              0.01261800800075,
              -0.0073322006946012,
              0.012634069259016,
              -0.00083949888062085,
              -0.0028061629865982,
              0.0061554199368748,
              -0.00040094351588532
            ],
            [
              -0.012407799831354,
              0.0003272263156063,
              -0.0067625007305966,
              -0.0068795716957215,
              -0.0066071773284578,
              -0.0018979142302817,
              0.0027178152077558,
              -0.0029581213203903,
              -0.0014139489018086,
              -0.0015498876907738
            ],
            [
              -0.0022713829946303,
              0.007581403349405,
              0.0079204519547941,
              0.014113425564681,
              -0.007419378379665,
              0.0020551590445179,
              0.013706418688565,
              0.0048347362211756,
              0.017445669572553,
              -0.0026542451319845
            ],
            [
              0.008200467069268,
              0.00094124253661422,
              -0.0022626390436801,
              0.0045014923849837,
              -0.0094159733768099,
              -0.010790992446728,
              0.0088695339101854,
              -0.0041225809947654,
              0.0040990406137996,
              0.0022371346024836
            ],
            [
              -0.0072302645955145,
              -0.0012576907480091,
              -0.017538542102153,
              -0.0049370902925678,
              -0.0072764888908187,
              0.0099983964986943,
              0.0094704733262671,
              -0.0013452947337098,
              0.0041685185922055,
              -0.0055213019819489
            ],
            [
              0.00066033672663515,
              0.011109895501185,
              -0.0074067841000822,
              0.01201748862806,
              0.0095336301884041,
              0.0006482461870988,
              0.012501165151402,
              -0.00016141186535639,
              -0.016191343093443,
              0.0037643007850057
            ],
            [
              0.011161335517489,
              -0.0062497400218721,
              0.0041206784874934,
              0.0063601523918217,
              -0.016080096339769,
              -0.00032895372434695,
              -0.0047981868416637,
              -0.010302262144342,
              -0.0083760052794773,
              -0.003217230364514
            ],
            [
              -0.0042687760376053,
              -0.00026577643303004,
              -0.017555569643639,
              0.0030780673481304,
              -0.023055819777969,
              -0.00014414716610244,
              0.0072705685754672,
              -0.00299852728616,
              -0.011113128614917,
              -0.004079832189375
            ],
            [
              0.0076672766472212,
              -0.0013434786660908,
              -0.00068609778720855,
              0.0013281270236594,
              -0.0027730039008973,
              0.0082649074388967,
              0.0032289871137047,
              -0.0027816480586542,
              -0.0010623865973675,
              -0.0079081953512342
            ],
            [
              -0.015438641507116,
              0.0057792016160152,
              -0.0088277102429488,
              -0.010505455381693,
              -0.014739274737852,
              -0.00082762827401941,
              0.024585334121682,
              -0.0045700823249376,
              0.011308017234953,
              -0.012415058306008
            ],
            [
              -0.019624242780599,
              0.015608773245361,
              -0.018485155576048,
              0.012332712612357,
              -0.015449148697575,
              0.0084595496296628,
              0.0058608300788386,
              0.0052403164802323,
              0.0057326690320358,
              -0.0058335362266131
            ],
            [
              -0.0059549599626001,
              0.0014983356564859,
              0.0023628230196098,
              -0.010802025115406,
              -0.014355853552409,
              0.016486993731675,
              0.00018742045153002,
              0.016917658687156,
              -0.010950236443179,
              -0.018483011519991
            ],
            [
              -0.0083371185109093,
              0.00605028151003,
              0.00053459762734733,
              0.012615766281575,
              -0.0069321372744271,
              0.01739690388719,
              -0.0051692236365034,
              -0.0067959535553844,
              0.0048427731812339,
              0.0014879827503675
            ],
            [
              -0.02028480113328,
              -0.012384939819096,
              0.011833174020342,
              0.00034260899038082,
              0.0029010366631534,
              -0.0059973942894102,
              -0.00054478955629939,
              -0.0099571668298764,
              -0.001326093280175,
              -0.00014469816671484
            ],
            [
              -0.014962924405632,
              -0.0018029855762168,
              0.020427223870544,
              0.0025656123159278,
              -0.0045123703739314,
              0.0054854088660463,
              0.01067211543496,
              -0.0091024960173802,
              0.009936786424926,
              0.0099802650786851
            ],
            [
              -0.024350844887911,
              0.01045187212031,
              -0.0045459119273438,
              -0.0025662434752198,
              -0.01038697150409,
              0.00486631517915,
              -0.003653507517865,
              0.0097485664435134,
              0.0051488476091878,
              -0.0013102121392803
            ],
            [
              -0.0050907909776468,
              -0.004443615431701,
              0.013407941077692,
              -0.016988848976679,
              -0.0068968798018859,
              -0.0042917343304185,
              0.0096365372581068,
              -0.010822540754166,
              -0.00057229373024182,
              0.001305515406384
            ],
            [
              0.014318146269727,
              0.0047258786023803,
              0.005822963115104,
              -0.011622204077929,
              -0.0040978460487244,
              -0.011226266726049,
              -0.0049977241551894,
              -0.018394199888139,
              -0.014522629148778,
              0.013364857898415
            ],
            [
              0.0020391385883761,
              -0.00038802806327599,
              0.0017108993086652,
              0.0030648549594988,
              0.019150617291026,
              0.010177831810606,
              0.016987480639621,
              0.0051182965006869,
              -0.017806774818985,
              0.021597645345814
            ],
            [
              0.008330720302718,
              0.0040131372884814,
              0.0062741673923695,
              -0.011409079232465,
              -0.00095585941762824,
              -0.0010930493932483,
              0.00064879734835838,
              -0.00029030526413784,
              0.013766073951864,
              0.01410593732983
            ],
            [
              0.0030409021304724,
              0.0062092296515843,
              -0.0143188144442,
              0.0056238665312012,
              -0.0017734397033198,
              0.0070063370453606,
              -0.003580163038931,
              0.0039544107701763,
              0.0077638805215755,
              -0.007946955066127
            ],
            [
              0.0066467451142688,
              0.00060323746936964,
              -0.00090793537603728,
              -0.0068626117705401,
              0.0074751420288098,
              -0.0028782695445527,
              0.0031293664289701,
              -0.011700358647579,
              -0.014793700002866,
              0.012778043584502
            ],
            [
              -0.0052865557913438,
              -0.0079617365471225,
              -0.0083424777714304,
              0.0075760380337643,
              -0.0014770831388434,
              -0.011461319906283,
              0.010428356742958,
              0.015972626407185,
              0.0010499896768211,
              0.01332852322002
            ],
            [
              -0.01171089884962,
              0.0001801087170368,
              0.0032392395415942,
              0.0038390337885593,
              -0.003442113967843,
              0.0024412567045067,
              -0.014966538145785,
              0.004947280333196,
              0.0071727049631977,
              -0.0102108801732
            ],
            [
              -0.001136999784807,
              -0.00066156130803048,
              -0.016556931572491,
              0.0051019141441889,
              0.0028144068782577,
              0.0061414645668937,
              -0.0036608952817268,
              -0.0190926501378,
              -0.011646469973815,
              0.0049337361581036
            ],
            [
              -0.0061163623123762,
              0.014239857963355,
              -0.0011037037717133,
              0.0070027457225076,
              -0.0016509923896753,
              0.0079066147484821,
              0.017670727370896,
              -0.021883326837765,
              0.00047442469536913,
              0.020110042959968
            ],
            [
              0.0015881049065344,
              0.0056385512978254,
              0.0010248882182123,
              0.0015106482365747,
              0.0036529372703003,
              -0.014172277874292,
              -0.01932924217666,
              -0.013201796404868,
              0.0017525615325641,
              -0.0051068081659988
            ],
            [
              0.013556805108767,
              -0.0043338752899041,
              0.014536621264518,
              0.0051048703816296,
              -0.0083375682903376,
              0.026492025119964,
              -0.016812125461514,
              -0.0067624391430155,
              -0.0083904975764083,
              0.0041378816028892
            ],
            [
              0.018898727914835,
              0.0059903188732282,
              0.012019538746517,
              -0.002241783982925,
              0.0039600592167751,
              0.0017190457192088,
              -0.0016357624248128,
              0.0064767482002418,
              -0.027413945119733,
              -0.0069666013774227
            ],
            [
              0.0075917786009805,
              0.0012872439341275,
              -0.00099106457557016,
              0.0050630677875275,
              -0.0086351568965861,
              0.001891667366338,
              -0.013158692321302,
              0.0052589340720725,
              0.013032052094405,
              0.0066896271357141
            ],
            [
              0.0053260762651638,
              -0.009191642823183,
              0.0049785188743279,
              0.0021057166305033,
              -0.0073475953982639,
              0.0013812742430305,
              0.0048010494750314,
              0.0080465461115642,
              0.009347720640285,
              -0.0014147819487736
            ],
            [
              -0.012192120578314,
              -0.010828584757669,
              -0.016144288803294,
              0.0059627881257059,
              0.0026256282464623,
              -0.0033138345712263,
              -0.0037165779019244,
              -0.0067278848001846,
              -0.012126334959595,
              0.016166140992062
            ],
            [
              -0.020461817821641,
              -0.010154138321901,
              -0.0087633673539802,
              -0.0088012033155493,
              -0.001137814027317,
              -0.014096122447924,
              0.0062345819389763,
              -0.010946214362034,
              -0.011058176446729,
              -0.00079140501876997
            ],
            [
              0.0013117198941812,
              0.0088228569277014,
              -0.014721780675588,
              0.0038257284683873,
              -0.018807467130972,
              -0.0014820398248206,
              0.0023765739751121,
              -0.014282081352971,
              -0.0048601577604568,
              0.0056859756696264
            ],
            [
              -0.0072433085090264,
              0.0087296929641533,
              -0.02214670017157,
              -0.0097233216273475,
              -0.00029034216837519,
              -0.0055310880571414,
              -0.0040599260419661,
              -0.0061852719247612,
              -0.008069771993478,
              -0.00083662720704387
            ],
            [
              0.011392421222139,
              0.0062906701458914,
              -0.0071689657674793,
              0.023203580559012,
              0.0083188721815066,
              0.0001244767354978,
              -0.0018244287813376,
              0.020213776949368,
              0.012396912900464,
              -0.0014104112379132
            ],
            [
              -0.0084548356959547,
              -0.0069415495666672,
              -0.00095677229396593,
              0.0056089709752044,
              -0.0028451772060921,
              -0.0056788047303938,
              -0.0044648212703879,
              -0.001524658787863,
              -0.019500303835869,
              0.0094728002585206
            ],
            [
              -0.0021999967176195,
              -0.0048638729323851,
              -0.003643273055659,
              0.0050138993639144,
              0.021870552141884,
              0.017082205132398,
              0.00088433779872237,
              0.009724274479156,
              -0.010838973062793,
              -0.02617012841365
            ],
            [
              0.019125362297469,
              -0.019945887041695,
              0.010930230285012,
              -0.020640338305927,
              0.0027917445823854,
              -0.0054068479244091,
              -0.016612186723227,
              0.021326335853833,
              -0.0059263507050283,
              -0.01590575632775
            ],
            [
              0.010687539226357,
              0.0055129334213698,
              0.01414196916736,
              0.0070805002456445,
              -0.013565046290944,
              0.0087505042403486,
              -0.0082741376207271,
              -0.0036635114508591,
              0.0035779115392567,
              0.0044894860641882
            ],
            [
              0.018216471998401,
              -0.010374681221988,
              0.0090061940695808,
              0.0061078933888895,
              -0.0017822053388965,
              -0.009090186251225,
              0.0060723557405268,
              -0.0063289105748657,
              0.013612252769616,
              -0.0069197685840402
            ],
            [
              -0.015627374326324,
              0.005307413516361,
              -0.031357117038898,
              0.0073959932897124,
              -0.013248102479262,
              -0.012401136560235,
              0.0031904476584634,
              -0.011490239555209,
              -0.0013820365312108,
              0.0044195145137954
            ],
            [
              0.021298214206053,
              0.0040307349021529,
              0.016534401768348,
              0.018755339239567,
              0.0048413920015075,
              -0.0037323211021946,
              -0.003645798777002,
              -0.020589172739061,
              -0.0023083401785574,
              0.0010975487752967
            ],
            [
              -0.0046515458657016,
              -0.0024193515049956,
              -0.0007082162027055,
              0.0044010847981745,
              -0.02001291478703,
              -0.025742876457114,
              -0.013286864447619,
              -0.0059176934645364,
              0.016134811694212,
              -0.0059378059362804
            ],
            [
              0.0085043842268175,
              0.012225778737422,
              0.00042292247584463,
              -0.010776409335689,
              -0.013529563520714,
              0.0067650058100825,
              0.002699804078506,
              -0.0055056247518012,
              0.0012428309793714,
              -0.015101984043986
            ],
            [
              0.0044445474481708,
              -0.0021227371115416,
              -0.010984446045008,
              -0.00088236220654439,
              -0.0024538617219766,
              -0.0059398160316454,
              -0.0047204267604556,
              0.00044642944777389,
              0.013834212453435,
              -0.0073861035270265
            ],
            [
              0.011083123256493,
              0.0087905203442,
              -0.00090673083821798,
              0.0088034606505361,
              -0.011923565539622,
              -0.0093554990029486,
              -0.0029609909365302,
              0.00098728497965361,
              -0.012175047180003,
              0.00031588907441568
            ],
            [
              -0.016895219932061,
              0.00025685478175916,
              -0.005231893535258,
              -0.00051064062383346,
              0.0054851747615231,
              0.0068303292124049,
              0.0014880253625248,
              0.0073735914894671,
              -0.0061941879914573,
              0.013649152785485
            ],
            [
              0.0080815342126804,
              -0.0069608473682192,
              -0.014739604125606,
              0.0010758246179269,
              -0.0072556869243512,
              -0.0091879586738598,
              0.0077880457133268,
              -0.013447111064121,
              -0.0089964524565822,
              -0.012185207247363
            ],
            [
              -0.025594599255898,
              -0.0023862273156376,
              0.007070374084367,
              0.010624564693282,
              0.0093417617076915,
              -0.0011176164454812,
              0.0034210641988978,
              -0.0024832391352032,
              0.004056693439071,
              -0.0046207142004028
            ],
            [
              0.0094539641157011,
              -0.0059021409761399,
              0.0043932669259345,
              0.0055769309103855,
              0.0074174832893114,
              0.011392487203112,
              -0.003905479701894,
              -0.0069449493326124,
              -0.010214909854559,
              -0.0010397321064579
            ],
            [
              -0.0024508883014823,
              -0.0024866532062332,
              0.0010950110264588,
              0.01797212937502,
              0.0045788397046771,
              0.016010983742676,
              -0.0062022850741405,
              -0.01124723448318,
              0.0027802218327505,
              0.0034388205872282
            ],
            [
              0.0050322520232319,
              0.0035105351037432,
              -0.0067107971583994,
              -0.0130845883129,
              0.0046575059019765,
              -0.0082219094148685,
              0.0077682618157942,
              -0.0055099767849361,
              0.0046144733829408,
              0.014360364029658
            ],
            [
              -0.002127879826851,
              0.0011978461791587,
              -0.016761539873502,
              0.0032243124696086,
              -0.0025635746870595,
              -0.015098518277642,
              -0.00030703752664074,
              0.0020128717365674,
              -0.015523196117497,
              -0.00095032017060937
            ],
            [
              0.014968865551455,
              0.0044710636408147,
              -0.0035566644538936,
              0.003281348862996,
              -0.0016926150543856,
              0.016743310093277,
              -0.0014289130631153,
              -0.010064431215704,
              -0.010868446326017,
              0.0080847224794311
            ],
            [
              -0.0060619376047108,
              -0.0028680330888995,
              0.024227413210015,
              0.0090400615419503,
              0.0023829878511073,
              0.018519912554858,
              -0.015990985886893,
              0.011743778507969,
              0.0073805777660202,
              0.016309776869414
            ],
            [
              0.016861830116937,
              0.0025214546883221,
              0.0040000960717936,
              -0.012290789878106,
              -0.0020494902548124,
              -0.00010171324322218,
              0.0062596083198196,
              -0.017191695743254,
              0.0026738054796507,
              -0.0034010989372628
            ],
            [
              0.0084182429022239,
              0.0046195077044048,
              0.011920456704672,
              0.001138510826327,
              -0.01531471497281,
              -0.00059685986298056,
              -0.0065033372540588,
