{"model": {"layers": [{"type": "CONV", "activation": "RELU", "weights": [[[-0.03698414005954211, 0.08473998051080582, 0.06034448041685114], [-0.05013842416338858, -0.025572151020381018, 0.07433181080316884], [-0.01883982973342621, -0.06754869997463361, -0.03734311063071844]], [[0.04972650334634065, 0.03017091426118029, 0.006193376731869471], [0.06929641364307619, -0.00948864982959923, 0.06049570324322889], [-0.04875254325065528, 0.06400771160966141, -0.03229303389591903]], [[-0.058948735007014655, 0.0535117765549677, -0.06660942628572358], [0.08693360335996503, -0.051851642486235444, -0.014878821224288108], [-0.0193059615354135, 0.01892706732760379, -0.08522736924359219]], [[0.07162309889551004, 0.014988839597339204, 0.04757322957739197], [-0.04517640051802715, -0.051035753529623404, -0.03893397218195823], [0.008498272371496158, -0.061345470795187186, -0.04144465079452169]], [[-0.04558018363255341, 0.08748808719183981, -0.08796459345936099], [-0.017593822737902127, 0.05247766446333715, 0.046017772323298824], [0.05284847033743259, 0.03416784376621926, 0.0420053217374915]]], "biases": [[]], "convParams": {"stride": 1}},{"type": "CONV", "activation": "RELU", "weights": [[[0.02884601362708543, -0.013141571807733576, 0.015309812283071374], [-0.09437527931874484, -0.08344071987131543, -0.029226584916948333], [-0.0462440152837985, 0.07415643374550958, 0.07163999933952785]], [[0.06582914562746343, 0.06860667005761939, -0.08794239856491087], [-0.026506608700535103, 0.01521625554701741, -0.0449189267657236], [-0.06026719585913282, -0.014760682303176478, 0.022152028513960184]], [[-0.021781814311307858, -0.08930707874420911, -0.052090024702457646], [0.046226217260228096, 0.026434567516715916, -0.0363168863358698], [-0.017385704270361315, 0.012453926092049096, 0.02736440523487243]], [[0.08128203825553372, -0.013394513580820689, -0.09779437567170067], [-0.02939097082763619, 0.06612217777841581, 0.04838774315368042], [-0.008556505961265974, 0.07700300872783236, -0.04164783815319971]], [[-0.030645863686235217, 0.06794884124871019, -0.030142217077516787], [0.09974208114643733, 0.032340856071011316, -0.042700639316592036], [-0.06394909823223531, -0.028963734061251026, 0.007395699610096222]]], "biases": [[]], "convParams": {"stride": 1}},{"type": "POOLING", "activation": "NONE", "weights": [], "biases": null, "convParams": null},{"type": "FLAT", "activation": "NONE", "weights": [], "biases": null, "convParams": null},{"type": "HIDDEN", "activation": "NONE", "weights": [[[-0.009155673996981082], [-0.009930796393243081], [0.009987824690105233], [-0.014107614930831977], [-0.005849400000118775], [0.009019776260080653], [0.010050945794441287], [0.005142428799695098], [-0.012406443136847328], [0.007508200050633066], [0.008944399507924989], [0.010859666938414518], [0.003141627059728589], [-0.0067284666952989475], [-0.01007511222569346], [0.00017498617798188647], [0.015287607676082884], [-0.0031204415600580475], [0.0031695193600316863], [-0.01185702763788373], [0.008516827860616354], [-0.01099506553677341], [-0.017983651471630096], [0.0036874913474069793], [0.0063949016722931], [-0.010161724073728092], [0.006460200645875535], [0.00808759860479633], [0.02440759364835063], [-0.010384385961537379], [0.006032532952247913], [-0.0025219901660154353], [0.009343856417809715], [-0.00035961718744190353], [-0.0003562380500995301], [0.005893446270348212], [-0.015598313634388176], [-0.006376705673671989], [-0.005029285475015241], [0.011904908136081808], [0.010584495999977711], [-0.021254162574480703], [0.0014315616687808814], [-0.0014225728715530775], [-0.0007102445273270275], [-0.012186416742868958], [-0.009602774910522575], [0.010125920760023307], [-0.009689421055444455], [-0.001967497709849741], [0.0031634664918377565], [0.00030756495520074735], [0.005927513932488692], [-0.014961208658311749], [0.020208231938420355], [-0.017526279913104553], [0.0036504032778806555], [-0.008575543322835144], [-0.0023786317415430158], [0.005379376538507654], [0.019834572673937595], [-0.010391356631340784], [0.013511070171437076], [0.0228150892177681], [0.014803167610320436], [-0.010135588843867121], [-0.014163115548935104], [-8.36922009680158e-05], [0.0037482887257190194], [-0.0070947111674814845], [0.0005864381575866812], [0.003962495384134826], [0.003284160585390298], [-0.006997706352121952], [-0.0031208851236111004], [-0.006504492840010621], [0.0012179454122457883], [0.0004655600771992208], [0.01139763789667389], [-0.0175462318637844], [0.0074188196840527295], [0.0029864868838500747], [-0.015288523059704849], [0.005183889084113976], [-0.006452565942092725], [-0.0010462833961533064], [-0.00755194323310905], [-6.321773618483113e-06], [0.012384556503649953], [-0.0024059128433131655], [0.005404435326414625], [0.01248221113292713], [0.007346453225890325], [0.018418572089002088], [0.014520532648980192], [0.014781202918647882], [-0.008911035978361482], [0.0051532268426168005], [0.01392265440980996], [0.010904137156928824], [-0.00700480036520185], [0.00453716658860324], [0.005201198121201648], [0.009344503447296133], [-0.006184871055731869], [0.001791100201012677], [0.004589454598684478], [0.004538299174673467], [0.0028141508029655687], [0.0009661787687903071], [0.005838732884342481], [0.013008761655580556], [-0.011971695291107956], [0.0025960193084917445], [0.0020504893695318556], [0.0019014729128818747], [-0.018056519991474736], [-0.012975388666245464], [0.01612992472392442], [0.006098242899510288], [-0.00516084425725751], [0.002888027037560535], [-0.01742314227773583], [-0.005048095207604928], [-0.009414547199732616], [0.00317987292434914], [0.0011762313251642898], [0.018539232131104557], [-0.0013587584257967833], [0.001819692080505841], [-0.009239478852737692], [-0.0002560072522525599], [0.0027379527382521127], [-0.017128277097373152], [-0.0026704440273718545], [-0.017366422434369515], [0.009474772060817956], [-0.009532498193361504], [-0.014567115358776316], [-0.011032985644489547], [-0.015295305228111645], [-0.0030629349409754926], [0.008087736564964204], [-0.010403396706289312], [-0.0016560915102684255], [-0.01753436199353958], [0.0045748545399705845], [0.004658609567313227], [-0.0005542310579200438], [0.0033176795000572946], [0.005612798590933565], [0.010061682383220392], [0.00698201772214551], [-0.002325707614041624], [0.0004947238903153728], [0.00206292294329415], [0.001089357370025201], [0.011100267259008392], [0.0018073024482019749], [-0.0020881632593579462], [0.005069813663078588], [-0.015047309581864463], [-0.00570825035316898], [-0.006637949949061054], [-0.007025071303730805], [0.025036734783774814], [0.012940372601854072], [0.02823466203041471], [-0.014250782330820982], [-0.0025866026545149105], [0.001440520088238916], [0.0032897227810311674], [0.0035850380659798765], [0.01037622058057619], [0.006341414984085457], [-0.004079249958703337], [-0.006691834739705874], [0.011243053086810404], [-0.005634737258012142], [0.0016986599817593517], [-0.017658838247272667], [0.001691868327045233], [0.023953834881527487], [-0.010096335205740192], [8.705544117408533e-05], [-0.010804655974744264], [0.0007768613829214456], [0.017648106299764578], [-0.004822922663088956], [-0.0042348457744681225], [0.004176024520956803], [0.022307074772973702], [-0.01194170438443711], [0.0043058661467565975], [-0.009877204862805166], [-0.005803010591158529], [0.015136328060508568], [-0.006823361814850712], [-0.021069194717575918], [-0.005404431549168557], [0.005157741171364052], [-0.0026601278318945853], [-0.009251716767847916], [0.001247905595808007], [0.006237980335939763], [-0.01503251082099144], [-0.012756952807876818], [-0.02874103960639313], [-0.010787980961888353], [-0.00722275039193976], [0.0003132270084275407], [-0.007031404768302313], [-0.009365995185389326], [-0.00854241713967415], [-0.0029933328664498017], [0.0005746214067782443], [-0.009244789229837224], [0.016854809294252884], [-0.012074510201748047], [-0.014085913935336791], [0.0034315327279542244], [-0.015405887736688157], [-0.003235446693735038], [-0.010935515310210798], [-0.006359477314601991], [0.01762990543983493], [-0.013170348243219467], [0.0050182820336394035], [0.0007428205781607525], [-0.009910857481367216], [-0.006364209845320527], [-0.0022505608853495983], [-0.005435339389676705], [-0.003039879784298082], [0.00418339139435674], [0.008289321184842546], [-0.0034757087650763695], [-0.0023396410820463657], [-0.005559335431374517], [0.012026090528681798], [0.003312969854795718], [0.015815694234964574], [0.008759374484118586], [-0.00386228912836128], [-0.0034956548889043585], [0.006647537718092236], [-0.007848409975361067], [0.015491562743516447], [-0.01562649046442058], [-0.016096769455635478], [0.002322805295068709], [0.0020743989172343517], [-0.013974807107700445], [0.002122249109157238], [-0.013429218950760092], [-0.014906387897479556], [0.007213906519195956], [-0.010191875471412362], [0.014853857049638155], [0.006407515133152955], [-0.006546805928379266], [0.0017301581981511212], [-0.009194437638063456], [-0.016868544483671796], [-0.013078387573408543], [0.0007690867146971796], [0.0077828672346464635], [0.0157561066558598], [-0.010655264084823474], [-0.00155081009937254], [0.00725851580156905], [-0.01843803628907403], [-0.0029841442206911583], [-0.014827789428512069], [-0.0117129679114959], [0.002631429198711202], [0.002261958573701185], [0.002728271653755755], [0.002830163814798421], [-0.011284888132557904], [-0.00209139411432671], [-0.012039008520152786], [-0.0012065440476085735], [0.004764005755144869], [0.02622166212481309], [-0.008308116070820354], [-0.0028363806210185273], [-0.012256676663556714], [-0.0001197723813945517], [-0.012401379038498268], [0.0006780787053699024], [0.005957361946214525], [0.007945914282177429], [0.007148574258714502], [-0.001878100882859505], [0.003068275864347555], [-0.01550164087735586], [-0.006351891052724903], [0.009564829957862168], [-0.007268017269146716], [-0.013074829719514555], [-0.006746178555975381], [-0.0029517487298325105], [0.0017426999120310133], [-0.01682392187173085], [-0.00935920612978672], [-0.019576009215040137], [0.002156031748238667], [0.019457441747551745], [0.0051581756966211706], [0.005411849810296791], [0.004034373733896572], [0.00544330125289125], [-0.018450605465704952], [0.008437426272741777], [0.016185778037350985], [0.01931714230859521], [0.015306771364661825], [0.015504745035494032], [0.011699323187978615], [-0.0063934476544791966], [0.0031609083901321697], [0.0007877529578449649], [0.0055050827428931295], [0.0045007374307370965], [-0.0087924211933931], [0.013367027134902364], [-0.01005965286050863], [-0.005321587831367124], [-0.012434964227753835], [-0.008255502094274532], [0.008838987687408338], [-0.003906882078097034], [0.017982213501783417], [-0.007450716822030328], [0.004865057650110858], [0.007902674766997846], [0.01157733133136822], [-0.014079548562062751], [0.008219301241697924], [0.006390782942002458], [0.012361286779949673], [0.012170245780935007], [0.0023346094831359163], [0.004067153488329509], [-0.002779368323052279], [0.009336920845919227], [-0.004328262395206382], [0.0016441047125723383], [0.017932177864465076], [-0.0013785986040484237], [-0.01808208499438607], [-0.0012354851394526629], [-0.015918774991531676], [0.008367305581995445], [0.004206123614442813], [0.008294687911972333], [-0.005008247865666643], [-0.004970439190633637], [0.015631793291757103], [-0.001796366985299227], [-0.012186218801944648], [-0.008424865464269331], [-0.013990735859944259], [0.01679741159454527], [0.0050600738782093126], [-0.0033198685623700656], [0.0021040237317841676], [-0.007060224022670407], [-0.013343568330729685], [0.004169591717883257], [0.0018210397810951365], [0.007136282757354766], [-0.014299208986240293], [0.006149909033510737], [-0.007948196018002385], [-0.009782443412237354], [-0.000979463147564225], [-0.00839020426551793], [0.013135128283127474], [-0.002784564693620289], [-0.002445318506399629], [-0.009911046230150754], [0.010584730592992168], [0.012562068840076204], [-0.008054686830344115], [0.0022594301769838523], [0.0033723444869015033], [0.0094440971884647], [0.0027392949464016504], [0.01628854602888053], [-0.01609684772994012], [-0.007504066580893796], [0.009138577449963723], [0.020769701787696285], [0.003931890709057326], [-0.0011251950337743562], [0.0193837894947525], [-0.004193343152471561], [3.95699979837986e-07], [0.008465946435128312], [-0.003015604378325487], [-0.000993276356060398], [-0.012500064788384963], [0.009467628978772454], [0.014186008593182645], [-0.008470486991466691], [-0.0010245633534847404], [-0.003135108048359076], [-0.02772151079300593], [-0.020045585740086105], [-0.01325725124886688], [0.020650165945394046], [-0.0005237991719814889], [0.008820058682455877], [0.0024254583572153655], [-0.002372171892168194], [0.00393959699309478], [-0.004469870190988352], [0.00937235238218951], [0.0036380493301962883], [-0.0033868509554017025], [0.012038817121858851], [-0.003176123200364957], [-0.0025862840968217528], [-0.01070361257910343], [-0.014031537049966255], [-0.004003590206551255], [0.0016502023561030764], [0.00567243126494025], [-0.002376271820798105], [-0.029544843934198515], [-0.012353494276401445], [0.011064249214968763], [0.011749943004292078], [-0.01515301439449547], [-0.010647945143360874], [-0.0008445191545412065], [0.0025841250396161333], [-0.0024034047313753132], [-0.0013535105119171535], [-0.016588064098343465], [-0.01074617236060267], [0.004509588806768019], [0.0035974836950499476], [0.0027283559357807953], [0.004895026131590761], [0.020943949550038737], [-0.009482213109502691], [0.007685282222509871], [0.025400858956222253], [-0.009929232203013156], [-0.014894990474101472], [0.004189269250234194], [-0.010914393687547139], [-0.01876744606174486], [-0.008846825203136082], [-0.018411020796112794], [-0.002464257317386793], [0.004191850335132409], [0.0037154799943491298], [-0.0203220748143043], [0.004316512159171308], [-0.0037225577314895925], [-0.0018419199484526049], [-0.003453488285967229], [-0.0029849867096113656], [-0.0049061414323479866], [0.009261537867176775], [0.002671444994196516], [0.007461029417353386], [0.019113313996879985], [0.005104293581661456], [0.00718608297301027], [0.018877359413595977], [-0.006312746657533053], [-0.0046665994494673735], [0.010195567111011048], [0.0037132117253551537], [-0.014574746847052303], [0.0020451824449232783], [-0.0057513995971380325], [-0.020684150782105424], [0.0015073559853074957], [-0.012965772793350755], [0.007874375846373736], [0.005603552436371974], [-0.0011453313789815847], [-0.0055638678606069894], [-0.0018934323589728747], [-0.009099234924588818], [0.001466025789938114], [0.00829982534166245], [0.005935517333579594], [-0.0022304082584347646], [-0.005125567374349311], [0.00447131456712325], [-0.004667651134782085], [-0.01888319588694584], [-0.007313237759464189], [0.00555899305738861], [-0.002801538492808008], [0.011001207914839597], [0.01111933362268961], [0.008682814632686988], [-0.00970813386128483], [0.0016206098850240348], [-0.00436853470086076], [-0.005829728817962787], [0.007611701019296112], [-0.0053700223989966355], [0.001572480414012972], [-0.011637794645310926], [-0.022258970859851075], [0.013051989387815141], [0.013247041265164499], [0.0059294820245283705], [-0.010908967301445133], [0.005805876990932483], [0.00028087174058059736], [0.011992423585252827], [-0.014243927162232583], [0.0029476876071571644], [0.005267099301640048], [0.017024180046422286], [-0.006702513191614409], [0.001358447407988357], [0.01713027525383901], [0.0013025474796434949], [0.003955918814502279], [0.0071752807523071], [0.008566515736768063], [0.0011259818250235378], [-0.011763146375844843], [-0.01693972325653149], [0.00019346721104495659], [0.0006301820186354386], [0.020500020200297443], [0.005975802539015312], [0.008140997315590525], [0.02293108561885952], [0.0030722341114960763], [0.01873514767295595], [0.007809052784226383], [0.005630191018011624], [-0.001966360706526908], [0.005180650752278728], [0.022291085605198126], [0.0011882805388596534], [0.0026794391741294036], [-0.01638942471414938], [-0.013871570176202046], [-0.00044055209726642975], [-0.023246616239325408], [0.010738027056639857], [-0.0015796074271612988], [-0.006648836132385356], [-0.010355271063452671], [-0.0025884315571062097], [-0.005863008211334539], [-0.028002659098059834], [0.0024140711753660947], [-0.003491285553517625], [0.011485880909949795], [-0.002932933554558445], [0.012373148436858416], [0.005904329738324405], [0.008953291668285903], [-0.008982314136274289], [0.0022421349647026765], [-0.012479888074923066], [-0.001896522194156373], [-0.010230731262564354], [-0.01336069371248241], [0.004800145158266257], [-0.003082364439298984], [0.02331759335069248], [0.00020677409659650928], [-0.0025333080683932452], [-0.003623433234335212], [0.004235497658506825], [-0.0010427526074745811], [-0.009917538409332615], [0.009125230842170073], [-0.009799320444080403], [0.00685116888483845], [-0.008347011761979831], [0.0020593271881576072], [-0.018050635204030555], [0.007500121722069987], [-0.019328572740845002], [-0.019705586878964954], [0.001127796974285604], [-0.023403708627564645], [0.004162868633197799], [-0.004788243412925995], [0.007416475795203028], [-0.002991769536407261], [0.006948792285063646], [-0.00350777526629442], [0.006312075383643577], [-0.015059892655821572], [-0.006529751304525478], [0.002633483101699255], [0.009322316097861808], [-0.004524957286235779], [0.0027402579854879988], [-0.015161822196536747], [0.008848143212142282], [0.00015684216322672134], [-0.010175283282396122], [0.0020967068360367796], [-0.015290439194532577], [0.0025697869198332618], [0.0018716486116077732], [-0.006036738798594798], [-0.011375073352255911], [-0.013136706442814238], [-0.008541867620891212], [0.008828578615970232], [-0.00933433332759966], [-0.011986278586125144], [-0.015465739638968879], [0.005632471808823837], [0.01098062802946802], [-0.004070149768531289], [0.009905989510887857], [0.006632426883049844], [0.010308373609612741], [0.013782748812855145], [-0.006255131257272656], [0.013453532319162976], [0.01676458946215706], [-0.0005556999619163205], [-0.007282479743769898], [0.0034440226496630084], [-0.0046561955733128175], [0.0031538428539964586], [-0.006515059758930452], [0.006534377284512541], [0.0021169299447339127], [-0.011724582586573353], [-0.004626033401196396], [-0.02148967074889885], [0.005762113413078719], [0.003003005727509035], [-0.010583006411093363], [-0.000787584721878587], [-0.0026373332987987253], [-0.012915549806873034], [0.0035288906239487224], [0.0036427711032814463], [0.01117881026094287], [-0.009722833535883128], [-0.009577257115105561], [-0.0055486211931836385], [0.010462417253770727], [-0.01334880266849625], [0.004828965208042488], [0.006379722947949404], [-0.02239932651779567], [-0.014719079608305612], [0.012086695630059947], [0.015224099880778663], [0.008146054839489976], [-0.00494418755724946], [0.019703446944716187], [0.011553819187994911], [0.004043818673235415], [0.003862896187802912], [-0.009558489848861302], [-0.007300385652737962], [0.0021238201542817213], [-0.004102002280059584], [0.0021615688524114713], [0.01439341158465421], [0.00817025535593147], [-0.015857993021842452], [0.006956762001786395], [0.023061575198312482], [-0.003855782526599449], [-0.006206528953222683], [-0.007381169333045452], [0.013392564664476997], [0.005443637868845202], [0.012782163564423113], [0.0018447938179909373], [-0.004038211976506704], [0.018306730301870366], [0.011017587514935066], [-7.991894155108085e-05], [-0.015574641208790669], [-0.0012325676531154293], [0.012081766864772686], [-0.018326989312018333], [0.004277118803289893], [0.03778162098157225], [-0.010170078178331697], [-0.004301958686972486], [-0.01016846601044405], [-0.01321410154827614], [0.00840431918690861], [-0.008676435580165426], [0.01868882522983363], [-0.0070016436304335735], [0.0015110553500323916], [0.02529634736181311], [0.008344718180340634], [-0.014869173186301394], [0.006829540735907355], [0.015605881883360236], [-0.011887686226261112], [0.016735505324648285], [0.009958265217462459], [-0.0028726484546859983], [0.003981419878356894], [-0.006908835291916415], [-0.0017000616727571667], [-0.023689697149598978], [-0.0065148330398191664], [-0.016182634305284316], [0.0009646767335927607], [-0.008383527583560047], [-0.010653222517252866], [0.01186330828534365], [0.0011918513940239928], [-0.020933446642437636], [-0.0009472196611010774], [0.007564095317576659], [-0.00940862538543774], [0.003807222050388017], [-0.006036312395246005], [0.007255109029680526], [0.002173263540431308], [-0.0014852924015802992], [0.003987205475262569], [-0.00287373732370409], [0.009809175495419304], [0.006989636967291837], [0.0012227550726122147], [0.007775625236768023], [0.0046525342593787145], [-0.006195544073580681], [0.017338167206744852], [0.005066566036474856], [-0.0019952062050766026], [-0.004615725482554364], [0.011522829815543947], [0.007729475724257193], [0.00276614912488203], [-0.004340072771384458], [-0.005388701268387658], [0.003680469999045107], [-0.009541978842420112], [-0.01713750522708834], [-0.002112931654187635], [0.008900125753497813], [0.004228007921521099], [-0.015045111114170851], [0.0016944510419238765], [-0.009768318854174476], [0.0006003978825769814], [0.013317609644745175], [0.021987891762254262], [-0.007270229157440937], [0.003078266465189624], [0.016294847181665174], [0.0005271118307262582], [-0.00489048502168157], [0.007275540054132356], [-0.009398720473577569], [-0.0034063085479031563], [0.026996141530273302], [-0.015819360014411202], [-0.002883259057855874], [-3.514951011013701e-05], [-0.0011561223960073292], [0.003996405066880803], [0.015336818911257804], [0.00012292472808819908], [-0.011470496883622727], [-0.0006020671429487548], [0.00430155794489108], [0.0084514920996992], [-0.0017959605261872343], [-0.01259815069878665], [-0.009513970620809779], [-0.018762526260353428], [-0.0054143666989232685], [-0.006513320082871257], [0.004705238767432736], [0.0024280300137900007], [0.0020216679025219725], [0.0073579240997339885], [-0.0075561763012995985], [-0.007097682794904616], [0.005188034367701126], [-0.018840796753715597], [0.008293173850972911], [-0.017976549348336323], [-0.023745644322697504], [0.010233500828587622], [-0.009587677280870429], [0.0011195746921131295], [-0.007207794977654783], [-0.0068334338330106265], [-0.01582856302340446], [0.006076195203175027], [-0.02014079009198039], [-0.012613740768205558], [0.005560310580456604], [-0.009391715493620683], [0.013694549615466489], [0.002552388147415821], [0.011327492702022077], [-0.004925898167447611], [-0.009104973051289919], [0.010081035311599042], [0.0011858772829394827], [-0.024815540618630286], [0.0018196639913112883], [0.0054014791139274775], [-0.0004344472443851008], [0.005552033976821106], [-0.02077266881479803], [0.018960062866595354], [0.003983270037383809], [-0.029739372467099078], [0.01844502117137948], [-0.009202662716582011], [0.005676827756914581], [-0.009895906255770689], [0.008006314590947066], [0.009201121023490579], [0.0007715622108820117], [0.001957329165521353], [0.0038894472632439794], [-0.007855336507463626], [-0.00023206509625005677], [0.0008505737222966002], [-0.0016397644215550785], [0.009667823058961161], [0.005764322990899228], [-0.0025093561386913326], [-0.011024849067390369], [0.006300155107234052], [-0.008652187619552073], [0.004916881395054023], [-0.007839036887488644], [-0.0068797409649271985], [0.008341037983468927], [0.007381415094377431], [0.015746305614222515], [0.010325514536858722], [0.008113193692057477], [0.003088427829099246], [-0.0027072037444934327], [-0.017781825020540914], [-0.012679720872831543], [-0.007780650131295511], [-0.008963293443333404], [0.02236108735099741], [-0.012150406449998456], [-0.0031843533808426283], [0.008610365057009923], [0.0046256332341357296], [0.0053381461084634685], [0.004643075608151631], [0.009365151026287627], [0.0018468236513104852], [-0.020863279201212465], [0.0037159631394245735], [-0.0022307791281230235], [-0.01903876277337301], [-0.013490602914513213], [0.00978888219802529], [-0.007795196675301818], [0.002571974759861049], [0.002047463562921448], [-0.01197256039443652], [-0.0029651894157335925], [-0.0011936509887881296], [0.01742550539559476], [-0.0006906420423912018], [0.008220045322227039], [0.005725051611432725], [0.008637238029587685], [-0.0010547131637460186], [0.00326636807265495], [0.0013013503503283186], [0.003918385593313959], [-0.006128217750930683], [0.013350229789971428], [-0.011499880950839385], [0.002773298084014901], [0.0006087132862017961], [0.005786173346436009], [0.010790321458301158], [-0.012258381063862286], [-0.009669137333677066], [-0.01817700542151172], [-0.012393663611759984], [-0.003925233854309599], [0.005030250234273108], [0.012421543990493271], [-0.005913871015172931], [-0.015020911366228165], [0.00506960446403368], [-0.009653749886729268], [0.00808362525696329], [0.006408097851505141], [0.004037850846242429], [0.010546596100853647], [0.011291330002095817], [-0.00962251346995085], [0.004251071527969615], [0.001929988164395029], [0.012985269482606653], [0.009886443934741298], [0.014471403212221094], [0.00037931192156199654], [-0.0023209256530228877], [0.0014724312518909956], [0.0202427948409287], [-0.013188279202802687], [0.0007655193254147172], [0.0047678978654651935], [-0.0027287766817220616], [0.004828452161151834], [-0.010609236418141339], [0.00023268158711349518], [-0.001215483018382267], [0.001499401291225114], [0.009170884083612423], [-0.006455896783942208], [-0.0043115955033782025], [0.006547575372458773], [-0.008051011655896712], [0.005277123017111364], [0.007173936517049379], [0.0054960815034045965], [-0.023483010763498312], [0.002825119301653653], [-0.01687293392237218], [0.0062532860233847545], [0.012155412828000568], [0.031101514934785707], [0.002914485917535641], [0.0020883417152112046], [-0.013474661068724969], [-0.016809452383868287], [0.007040503342938607], [-0.005455586060865246], [-0.0004995466114140474], [0.001354611724081329], [0.013140517403684463], [0.008045495086728948], [-0.000426675367878497], [-0.010474074221430282], [-0.013217112541125677], [0.001842183803514811], [0.0033952587803465833], [0.008306481692213694], [-0.008416522992865607], [0.003025513736797382], [0.007502123123519384], [-0.00863745335734465], [-0.00817580664842616], [-0.022137544114235744], [-0.01321262473534492], [0.007621682715996013], [-0.01000339658064614], [0.0029490116920792143], [-0.008763427550593082], [-0.020457661340270224], [-0.02037078981834354], [0.006912057953912759], [0.002795739574371619], [0.005811995687874871], [0.007873874039423927], [-0.013339981993424134], [-0.011741638030805742], [-0.010129954996447596], [0.005456260929906432], [-0.002982451643507089], [-0.010672418092263602], [0.0028567711831965084], [-0.004020409368941738], [-0.004945075961762987], [-0.0010783711437148693], [0.035111132849817914], [-0.0036893210828271485], [0.0012361401814916914], [0.0005290056776631611], [-0.0014069408493336012], [0.0012840930766933386], [-0.003621478042898986], [0.003075274007342208], [0.007866050143388342], [0.004109933611678531], [0.019273177701446872], [-0.01088330637668323], [-0.0038797609556651593], [-0.0028638113329313825], [0.005337994262411583], [-0.004946545798684604], [-0.011318208479445627], [0.0037856865377826256], [0.012352097365576496], [-0.0062331189865078955], [0.016061120119568166], [-0.0026418645149586723], [0.013521345066677477], [0.004380905666852588], [0.018033552709463208], [0.002086288952036841], [-0.003549469654958671], [-0.011226404850317145], [0.003255145007610949], [-0.002231472069679121], [-0.0024983051460254935], [-0.020295453023597903], [0.0015577388797871517], [-0.007604522352671026], [0.011393825087815206], [0.003596613345183609], [0.0022386077299366286], [0.0062126472427810955], [0.0014884983465217022], [0.0027959439116842263], [0.012000119647746312], [-0.0013306576558178877], [-0.014004273060420172], [0.00855817464637459], [0.002204435213944946], [-0.0029991788946131756], [0.007178029936824554], [-0.0023926558468198755], [0.0016052706003793203], [0.006382429313353639], [-0.00449521072541006], [0.009383496053719218], [-0.004782297163900656], [0.0077696945960400755], [0.01272087302853678], [0.009809743229125121], [-0.01868728241311969], [-0.010236578064830977], [-0.006239565486656478], [5.765624645909479e-06], [0.011109813476649053], [-0.007136114916041051], [-0.010280078317600071], [0.0033498669989678485], [-0.00491012623015281], [0.0072599559931776116], [0.017852407702817083], [-0.005812689936620798], [0.006509049383769631], [-0.001237513221780162], [-0.011833414379120862], [0.02098099047985511], [0.005201368501910045], [0.013595722413011102], [0.021340219238644476], [-0.007636876043156203], [-0.010444988621666833], [-0.00023371738248088305], [-0.002641613544010072], [0.002736115767174202], [-0.0003232677230891137], [0.0008933475875627195], [0.011518021562887065], [-0.0038453601533493297], [-0.001671385382623796], [0.01664691518916255], [0.003669288209772811], [0.003356973380307163], [-0.011648987138074355], [0.012819200114120207], [-0.008494928618418433], [-0.02474570922251329], [0.0017744845337696199], [-0.0002693375328157393], [0.0016618639215454467], [-0.016034334339039367], [0.0020315877138791585], [-0.000675351076140432], [0.003132966214552858], [-0.008192222900308285], [-0.009779659044197453], [0.0033466047381835408], [-0.0029710995421107175], [-0.002361565820233328], [-0.003740666985161511], [0.02009646927373168], [-0.005896974582756058], [-0.006312766064254765], [-0.009891085780501527], [0.004952412336689582], [-0.0038791875319579712], [-0.007826586056086285], [-0.003652021519755234], [0.007048279724959055], [-0.001887592559123572], [0.003150841773392707], [-0.01660721325330932], [0.01772499259708528], [0.0002162025697726525], [0.008384778365521884], [0.01182724873848566], [-0.008734659934376734], [0.006004939996352741], [0.01547095855207059], [0.0068334601441373205], [0.0019968098625662567], [-0.0017215706013571747], [-0.01469711289814634], [0.01040240392443308], [-0.008104698974998608], [-7.52072044414827e-05], [0.010939215052186436], [0.012765577079826713], [-0.0017055100743385986], [-0.01039514971202109], [-0.008404516498886488], [-0.013776967539020154], [-0.0026628124516762126], [-0.010001868975728719], [-0.010394362106108545], [0.0012702337134770571], [0.006714395044205879], [0.0037731309821447292], [-0.010463072588808096], [0.012307410485024456], [0.01059472825001979], [0.005899167337669304], [-0.0016210823745381644], [0.008597997075302132], [-0.0023397827138830238], [0.008869650314475161], [-0.0007487197803825241], [0.009126840707018264], [-0.005010007872852502], [-0.018642491617402775], [0.002767283291477429], [-0.0014196206724249893], [-0.0026182673803248437], [-0.014400968486146809], [0.0041564493720292915], [0.001099131735046983], [-0.00600529974737708], [0.0006356759059036786], [-0.016464870193571107], [-0.017496925831732738], [0.0024280894238488215], [0.004563646262921349], [-0.0022967925604050346], [0.0019146049155132304], [-0.004937341898294215], [-0.009203493769175513], [0.00025370940734875745], [-0.019500497584533726], [-0.0119688257808951], [0.003504164347299965], [0.0095541573399345], [0.007900535800298406], [-0.003992467560204372], [-0.0020254758535570823], [-0.018154912076849414], [0.00597094464435571], [-0.0030814734961692363], [0.010334367264580816], [0.0027783389066918505], [-0.0013741857053672318], [-0.004770600588461672], [0.006761277662636287], [0.005257574334845481], [-0.018235438435145086], [0.014255046196072213], [0.0040053960678618885], [-0.0009240291455717846], [-0.008729501664027722], [-0.010343251129196616], [-0.011168407013000843], [-0.002612899543368959], [0.02015451101606339], [0.0008015223994123006], [0.015010631009179678], [0.01647849714076265], [0.003792600102929162], [0.0009325896267419638], [0.007644237093673978], [0.0029934414911420965], [0.0035872119798780826], [-0.008781953493013075], [-0.010915317827505922], [-0.012897336674733584], [0.011632843153617579], [0.028610527385537144], [-0.0033626276569332153], [-0.0047058430832648875], [-0.00799716624809242], [-0.013212117101963988], [-0.0067700615672895235], [-0.004645535981113674], [0.0002774180482319809], [-0.006184555611576625], [-0.0007417086529270509], [-0.002263632956733762], [-0.0018965089614581161], [-0.005829628864934813], [-0.010267183261363841], [-0.006852229324236534], [0.0010704384729996255], [0.007701457612776183], [0.0028561026578329814], [0.010819562651383395], [-0.025630484777100077], [-0.0121366652090835], [0.00677968051394771], [0.006954014215152376], [-0.011501618930971413], [0.01153597792453257], [0.001785188969488414], [-0.012374247115564518], [-0.007812617377468956], [0.0016269862634744143], [0.004347028775497574], [-0.01727534777722258], [0.0027064049684781826], [-0.005997735385528205], [-0.00044152093970694793], [-0.003099198572291709], [-0.009456002187494508], [0.001131262269405607], [-0.006742277735310278], [0.003972404535062005], [-0.0005549275547115368], [-0.02047888197260453], [0.003935877440923888], [-0.001048980099368926], [0.018395531181801584], [-0.019073577407410378], [-0.008019537223766322], [0.003660073819627277], [-0.00021551063058942722], [0.0013596548709041956], [0.005963458606684774], [0.00600232071059176], [0.008908364987832746], [0.009099673926881597], [0.014153726196138191], [-0.001737992434801821], [0.011057514681263605], [0.014426254410562722], [0.005891975881484979], [-0.01534510936913371], [-0.003365122244165025], [-0.012619445884934287], [-0.004287591865415855], [-0.012427043725925456], [-0.00011640403525550288], [-0.0004942264973072777], [-0.0009798730033693099], [0.025548047790571734], [0.004874587900670397], [0.009220221967396401], [-0.011278991452646592], [-0.0050223929540898216], [-0.0031749054800147736], [-0.008724548971208312], [0.0015317646768990042], [0.0015624185851206788], [0.005128495840587947], [0.013206311982732956], [0.00678497652323874], [-0.008522544857283525], [-0.018399833943585717], [-0.008578968468660773], [-0.020607522932542005], [0.003985756097748707], [0.0015184278440044299], [-0.0003388983278800208], [0.005963158001189896], [-0.006623164669359031], [-0.010627178089786813], [-0.009950666536494193], [0.005248594467053716], [0.005733628665155075], [0.014543038887307291], [0.00414130159018283], [-0.006514104188251954], [0.015935224285697873], [-0.007927577680640632], [-0.0018705827565504637], [0.0028792074952251564], [0.00041862051953740737], [-0.007904183918718348], [-0.01068987446867379], [-0.007654592988896204], [0.0018551506287953056], [-0.012132139007975965], [0.004181658756260379], [0.017980889563315408], [0.0001135183929186727], [-0.00342442545129629], [-0.01839068040325874], [-0.005706846410704307], [-0.007662430888075748], [-0.008559317743861755], [-0.0066669784008681985], [-0.00715747745143601], [-0.017505144812183928], [0.0036536409053485705], [-0.006962074856615458], [-0.005068696159344521], [-0.014147857579664254], [-0.007175935673390818], [-0.001481654396159186], [-0.027789410239906387], [-0.003311010800460665], [0.0004812607476507402], [0.0092240589312129], [-0.0044234538674233085], [-0.008953535499770056], [-0.0215479809251532], [-0.022237129446977956], [-0.008588485072960077], [-0.0022952352488202917], [0.0013339759057699367], [-0.005448611279284452], [0.005193816969827051], [0.0014008315941599569], [0.008417138910502164], [0.013445488756032868], [-0.011828716140626975], [-0.008304795516673706], [0.0010921465791380637], [-0.01990238868360152], [0.011611141993658362], [-0.0124813121873883], [0.012722202626470608], [-0.004350235944730971], [0.00263413296301519], [0.010677313752672985], [0.009039779242544885], [0.013312802795804183], [-0.0036169404251949837], [0.005084495949372015], [0.0069276918800335935], [-5.831939890556864e-05], [-0.0019610551030518233], [-0.00678372392364313], [0.007740220164334894], [-0.004717380333071664], [-0.004336546184161292], [0.00159892606357545], [0.014497864191943176], [0.0019134001989051432], [0.0007225110819424879], [0.0008015793366768581], [-0.010521800818455138], [0.020598513906012503], [0.002515193296652814], [0.01370308533690506], [-0.0005365340850653492], [-0.0077231923778451885], [0.016483641669620408], [0.009150698087097732], [-0.009044856816772674], [0.011450974022742155], [0.007104020261132593], [0.003963769279332895], [0.012912899558007887], [0.010841394295443152], [0.0020323523822052044], [-0.0006717860280283811], [-0.005583817069311122], [-0.0017032264100461383], [-0.004533545329045324], [0.014818578581676222], [-0.012109530872579311], [-0.00031064212183784626], [0.003926430006010765], [-0.006207497894268485], [-0.00015012332988227292], [-0.009742119673175944], [0.011440958374969858], [0.0015226573792629572], [-0.008740312269598913], [-0.01475548664482632], [-0.0016666810108032504], [-0.011604376430118333], [0.0039485879479855], [-0.008975052120492493], [0.0046905060966922025], [-0.011082642326583438], [0.002018682550336562], [0.009086782715301871], [-0.018606115594938594], [-0.007338869746551924], [-0.023039399652857655], [0.002624243725987576], [0.0011354564225017], [-0.013044561233106171], [0.0005568515898242012], [-0.007357530432997367], [0.009747384599843248], [-0.015365891776641015], [2.464059505320147e-05], [-0.004136882601479959], [-0.009055690552725731], [0.0101509817542261], [-0.006399015239494215], [-0.013579582437747453], [-0.02550792274547924], [0.010127822998784475], [0.00834097388592894], [0.008231734691393336], [-0.004837719971085727], [-0.0025483123994286157], [0.013454069435122023], [0.011340904816285698], [-0.013069899030512193], [0.00017257046215826729], [0.011981782781889605], [0.0015364821796913675], [0.004930549400529763], [-0.002457420736879929], [0.0010300503579472688], [-0.006277800797573944], [0.020069162425290277], [0.00306997162364498], [0.004130720339053079], [-0.011765327691415075], [-0.02390994444510933], [-0.0005720286183354703], [-0.0083902473892299], [-0.014784164504865761], [-0.008629991837504207], [0.0014748489880744991], [-0.0027253322922851093], [0.010601462313874812], [0.012472267896548504], [0.003725521146253183], [-0.012272573450218892], [-0.01629174154098307], [-0.013840924583378085], [-0.0013827450954827496], [-0.009604427747102701], [0.00258425162151585], [-0.008730716188742521], [-0.014448166725789387], [-0.002944107425701473], [-0.0033058348937011098], [0.0017765743555989253], [0.009204767461886873], [0.0010373558947505183], [-0.011259371929339419], [-0.0015085055175701322], [-0.005574859360024621], [-0.008036920496083583], [0.0043155994767539235], [-0.0088646648158754], [-0.013000145216741107], [0.01658772391291126], [-0.011030804846444987], [0.0017548372882378947], [-0.004481938986860998], [-0.003492957057319165], [0.0032825711854052864], [-0.0008873762452194164], [0.008057360352625574], [-0.006766533155603908], [0.002004169759713566], [-0.01183823851632719], [-0.003872763075563473], [-0.014895004481879033], [0.018703976017365835], [-0.01169346405047677], [0.005180034655585801], [0.005764330058815408], [-0.009036902521227928], [-0.00819678330478577], [0.00820772595426754], [0.005263278929559374], [0.01365816877393134], [0.01037849755945947], [-0.007579093101746558], [0.003332248200454867], [-0.001579319171711133], [-0.011540080455739728], [-0.004183472322868023], [-0.004173500090078936], [-0.0007222364911071492], [0.013576123948582642], [0.008173949135010954], [-0.009909831235475147], [0.0075554780284439885], [-0.011674837073834349], [-0.0008343796716707828], [-0.006219391002452534], [-0.018510911809330097], [-0.01151241513646399], [0.0033703215464972428], [0.00859870874244199], [0.007714518978927767], [0.0025856661080063395], [-0.0034158773247013113], [-0.001977052664155098], [0.011027068320054212], [-0.0016725226691242082], [-0.011132784823717799], [0.0036967434412196604], [0.003851694037428863], [0.004140625641528576], [0.007160921708348561], [0.0040967075745625085], [-0.011485407844242658], [0.0016619871826428385], [-0.0015216350815012321], [0.00786508619093092], [0.007505702579431949], [-0.005271737306224721], [-0.004791708547319873], [-0.0064187591614507196], [-0.007008329623878791], [-0.0032740021148185638], [0.02514740677913089], [-0.003702505488281389], [-0.009838561608723756], [-0.000710633537621109], [-0.033015180096805985], [0.012433702130974071], [-0.017707683048251686], [0.004318726035006983], [-0.0002337045362867908], [-0.001458279697278861], [-0.01617681451458832], [0.007726791387166714], [-0.004632375656870606], [0.015786155060453545], [0.010773971093570945], [0.02724833625358281], [0.0014936389014115568], [0.012839681545697701], [-0.004764506367852914], [0.0013950488734834573], [-0.01701491404321187], [0.0030443976851977617], [0.006321467961904836], [-0.014919782605065017], [-0.006890556959901245], [0.0024224905391602874], [-0.0013277082415719243], [0.0032589984150582494], [0.011342465766846417], [-0.008721465753947097], [-0.0005228090945366624], [-0.0044066953095163236], [-0.0013911769678982909], [-0.0005909540888019745], [-0.012786448452641347], [-0.02167608874215817], [-0.0048100881157198605], [0.022771189752074435], [0.008210610842582186], [0.008129582046276495], [-0.0038939971800170817], [-0.004129790008510293], [0.004212511775014798], [0.004898021794623791], [1.6757787140994043e-05], [0.004409472122589993], [0.009527577292047238], [0.0005102115182124854], [-0.0059138984481323376], [0.009191857161420357], [-0.021939112722247744], [0.009460153466200686], [-0.01204474227990749], [-0.003026798713507704], [0.0041328590316556755], [-0.0032230858333290144], [-0.0027346783646577367], [-0.01127372018908574], [0.006487578615049055], [0.0007162265381220682], [0.010926924539983254], [-0.012126724587518184], [-0.012279088796505298], [-0.005886128198405223], [-0.009575587121255693], [0.0022462344420016173], [0.005865764101030244], [0.0028719537400205054], [0.011034568223704758], [0.001092912194823062], [-0.006066206801287991], [-0.00927434283586889], [0.0020336527996107317], [-6.097390613248523e-05], [0.010329094090020275], [-0.0002821145209648122], [-0.007412782259065954], [0.01899746744579434], [0.015243379992285394], [0.020467641856864068], [0.013622218232359259], [3.984348480181478e-05], [0.014641958251126947], [0.003843462119750531], [0.0035630052441536085], [0.006513446681829911], [-0.015201844845438956], [0.006560512714190438], [-0.016136268022390394], [0.0017134561529547991], [-0.011796739072711351], [0.006977786369393029], [-0.0016681841155141344], [0.006536459838312013], [0.008740798368347473], [-0.00454480447004351], [-0.011525445415732501], [-0.0038536158599274607], [0.0061679012202198215], [0.006516090765889989], [0.006049342092708265], [-0.006657095460750035], [0.00622512961296763], [-0.00676346774316941], [0.006402982375718266], [-0.008860408983818513], [-0.010454710487501417], [0.0037144981517884144], [-0.0003559822304428106], [0.008530113594012921], [0.008556805945628973], [0.013162243128100378], [0.010796223154540109], [-0.010870805650436965], [-0.0032335463403934724], [-0.018889122344831134], [0.005864185961460129], [-0.010847829295508161], [0.013315497857730466], [-0.011951737074898773], [-0.00039367481424846135], [-0.006030268718279155], [0.0020751575415143613], [0.0020216815594171923], [-0.0014678623920498714], [-0.001052998746353098], [0.004306389216651507], [-0.01534841298179612], [-0.006814821943573683], [0.0038943641336021597], [0.004367348720623395], [-0.014455211290797508], [0.005103243871509791], [0.009789998102162877], [0.013261043582159408], [-0.005158771014344821], [0.004200904035427063], [-0.005232451828458859], [0.01452706036161753], [0.0001767580911740424], [-0.00788298438360378], [-0.012074246421106], [-0.008217058921827104], [0.0067637223775097585], [-0.010265877491758457], [0.0012406600461386931], [0.010488211213477526], [-0.0018113896833974947], [-0.003526256507215874], [-0.001239211024705593], [-0.0003989174492828032], [0.006441100455233068], [-0.007102946419357095], [-0.0070866131457596035], [-0.016708314088054493], [0.005120725415956973], [-0.01610413549366634], [0.004438078878280228], [0.017834659834883956], [-0.011070686632211118], [-0.005105830428339162], [0.0010734511222396396], [-0.002605197343451082], [0.0023795003118001626], [-0.011725933344738641], [-0.010252472877866143], [0.013338241680455009], [-0.01913228094875934], [-0.0079707257955363], [-0.0037542017434033436], [-0.0009344722034157325], [0.00790351592507308], [9.033986964264937e-05], [0.0035370860663572748], [-0.0031298758270568777], [0.0010857413470909856], [-0.006657189748588314], [0.009345063615464127], [0.004092828180840603], [0.025756848287115067], [-0.0025304155416133126], [0.035166320168073674], [0.011459832634694347], [0.02080173908195561], [0.010324447761667611], [0.008206684886154251], [0.002190490537045329], [0.005820243408640312], [0.004340463517412517], [-0.019879260323581158], [0.01765905666655732], [-0.012618292827558981], [-0.009288120996562833], [-0.009519476233578485], [0.0041868483276537825], [-0.005167865206547518], [-0.0009243838530000053], [0.021831865996249745], [-0.0004198386717020681], [-0.009773847051686864], [0.004269209794892249], [0.022740072020458288], [0.016326848179206516], [-0.010592731756988823], [0.007411375807247371], [0.013177381395841072], [0.01036970181931251], [-0.0038342253367416603], [0.007204920725914782], [0.010804313599791901], [-0.017537272795170606], [0.013938681168835038], [-0.0007705216802440564], [-0.013757373556526564], [-0.014655631216860018], [0.007847398877282233], [-0.0031682692432943096], [0.005560836768667608], [-0.01167415735121947], [0.0027746748487138596], [0.0027075215707101532], [0.0037222315614375205], [-0.0033143820012610384], [0.009536469271046625], [-0.0108285737209711], [-0.010420607371914753], [-0.027934316697272414], [-0.008006903186728951], [0.006324556868850757], [0.009630630105123075], [0.008050356649265], [-0.018499266395727125], [-0.005368888257861662], [0.0008214985434337964], [-0.001337055662211647], [0.0005670353390039264], [-0.005651096534873972], [0.004760470256062548], [-0.00834842093472004], [0.016324527761411203], [-0.0027776493093336395], [0.004754438905846356], [0.014440968162007028], [-0.000940895829283313], [0.007583842293918607], [-0.009127853561717147], [0.006491859223365784], [-0.004488823687446935], [-0.0009333502844092077], [0.0015614578340403184], [-0.0012771147306148674], [-0.00340042961310868], [-0.00047268798258552093], [-0.006431573468988592], [0.002161045783796193], [-0.003977334574191567], [-0.0003668648490447342], [-0.006154072744379621], [0.007729975239806521], [-0.013602091069232266], [-0.007265122815582943], [-0.0019657302214327673], [-0.010524309472228334], [-0.001727367332176844], [-0.003132647037884328], [0.01460594303281532], [0.009182216589868116], [-0.00033920138830827835], [-0.00913794221564803], [0.01249492297678031], [-0.0007808141037684317], [0.004055220406625587], [-0.000604156706660248], [0.012277589774780053], [0.00833247299952871], [-0.0010027889935017241], [0.013606641952085784], [-0.0050125495936941145], [-0.0020308629248078965], [-0.003531467026993375], [0.001630813886086617], [-0.015172108560371421], [0.005240239283901859], [0.01051361188834253], [-0.005692147444893489], [-0.015890410083823123], [0.0016509458937117713], [-0.0005898126867571323], [-0.0140947661876345], [-0.0023968906374965473], [-0.020017322345551435], [0.004794251217106584], [-0.00735793015377151], [0.005877485486031524], [0.002942085382216555], [-0.016184828249583668], [0.010593716306046538], [-0.0019627500016113613], [-0.0209884165020576], [0.008397548297630762], [-0.0011117824927881865], [-0.013016609045314122], [-0.0064894020960792375], [0.0018244247989967213], [-0.0021251233297605657], [-0.003144326088539444], [0.019316724879532735], [0.014320192425074959], [-0.004367398865214163], [0.008920555708991104], [0.005377325508710587], [-0.002005148246383109], [-0.020651264192942522], [-0.02619883234302141], [0.009806669672844675], [0.01407195712349726], [0.0020818351800646665], [0.004928224329388081], [0.003667416115648516], [-0.014373118037970426], [-0.005225404710758416], [0.01339395826667787], [0.007405638377261049], [0.0021388606498224934], [0.009276247971809684], [-0.006363587767976103], [-0.0012613562392818863], [0.0004108220067345781], [0.0005404255033675335], [0.015879817638218045], [-0.021799600160796212], [-0.0040743440941082764], [-0.012945703624530534], [-0.015730231109416758], [0.010875825391764368], [0.018969095368563452], [0.010297396393347924], [-0.006518758212073947], [0.001584922538421715], [0.02417709484487276], [0.008921619363956523], [0.0006662792986754475], [-0.007508381214870527], [-0.010495176352052117], [-0.004939110176864854], [0.005105545488242543], [-0.0029002507493012023], [0.005364280036418674], [-0.01958297904946776], [0.01054755087647553], [-0.004919939794777691], [-0.008929035079781983], [-0.005446837385056859], [0.006864335302455837], [-0.001391988798435031], [0.005086831655282496], [-0.002891321395350744], [-0.00815560984143698], [0.013164040858305314], [-0.004316923651732779], [0.024315844206031553], [0.003342697397829532], [-0.011576570501340956], [0.0018192641224170406], [0.007866230505080117], [0.012112188265694771], [0.004039818050352513], [0.0016515972306196062], [0.009809702489864947], [-0.011496045508859304], [0.006573578414233893], [-0.0009893124848419212], [0.009087582786951173], [-0.007889285830078122], [0.0005497283727813948], [-0.011334304773474179], [0.0021560976999021623], [-0.0033956495810359318], [0.00021189933406966124], [-0.007801296275442103], [0.002703750486228316], [-0.015204997226824599], [0.022564653223984654], [0.001267336798697618], [-0.00931247834639191], [0.02191286427096615], [0.007269987043913794], [-0.008099436714398844], [0.002278945199273709], [-0.006270864979930095], [-0.011570444936729042], [0.0029809773366283776], [-0.019124924912363825], [-0.0004228819058947925], [0.018032157147122665], [-0.010528937731493805], [-0.0030372496191946536], [0.0022244114924395856], [-0.00033642100032357493], [0.009929135454565023], [-0.001020698721816753], [0.008527867528375761], [0.008235435238027337], [-0.01680282092930491], [-0.008821542969392814], [-0.010485946160935577], [-0.008126432959297382], [0.007692360547247915], [-0.0037206331916090677], [0.0055649264536156845], [-0.0007020052879117791], [-0.007935768431281059], [0.016427422681646847], [-0.003173765447890237], [0.0033318019517173734], [-0.005412436471539323], [-0.008804723466728398], [-0.006334561100607399], [0.0017952518261437], [-0.0035596995612350896], [-0.0013034047378649102], [-0.006916368314096712], [0.014261627419842476], [-0.010074434272927401], [-0.00392498899401786], [0.005839318954060747], [-0.006555033391736018], [-0.011326609895299494], [-0.012373373080034491], [-0.007387666113487754], [-0.0009111690267731373], [0.013376964706380823], [-0.0037372302976693486], [0.010369903004090679], [0.004374731724463545], [-0.0034381999247905027], [-0.008877405924821785], [0.026250447826425688], [0.013284144243596842], [0.005407944120696775], [0.006953721504340286], [0.0093365757434458], [0.01782461222721187], [-0.008296716391065084], [0.00016951097765743797], [-0.020640456031701847], [-0.01688596740052156], [0.014394191526069772], [0.0038067335131115702], [-0.005871567944634357], [0.017479803584580407], [-0.00396804108306738], [-0.013837324408797319], [0.011610147774359576], [0.008482925820875802], [0.01068167979360558], [-0.0010275266880045712], [-0.001555911824799856], [-0.0027206370310955447], [-0.005923568092412949], [-0.012591413820422757], [-0.00634290161116449], [-0.0023601658589197643], [0.0009477560040787521], [0.01135863132937088], [0.0036395660959830673], [0.0050407996815390824], [-0.0022836266608270202], [-0.012716255616241292], [0.012530496331296881], [0.0067334283505787506], [0.0044192925840522215], [-0.017152561393680616], [-0.003126937816817549], [0.003291785342025389], [0.008929867161196094], [-0.004036536762577781], [0.011581384857613097], [0.005891817557401261], [-0.004519954836234653], [0.016456858915639846], [-0.0029513738091391704], [-0.01214647764117485], [-0.0040558649276613845], [-0.01071971460428267], [0.010079292454483017], [-0.0034912661697286992], [-0.008821126478756193], [-0.0004240325552643101], [-0.0037426190633792567], [0.005720315748579246], [0.016861137228368912], [-0.021213769633350265], [-0.010656214057843323], [-0.00882822465537321], [-0.018787760099067016], [-0.02386146371792651], [-0.009768131826680149], [0.003340727954388603], [0.001890804626218555], [-0.007206237506941874], [-0.00487132158910954], [0.001899128820193265], [-0.009396568174302436], [-0.0014868729878770484], [-0.00886154502277286], [-0.014971371544701118], [-0.026993240892573257], [0.007145908862329788], [0.004559265793679361], [-0.01454431431578473], [-0.006038813914429589], [0.006043539601711825], [-0.006630047944504786], [0.00905168476872968], [0.006868657887044654], [-0.0058544000166683655], [0.0027368347301575976], [-0.002813615410214582], [0.005034259793908308], [0.0031016918503897696], [0.0047073186857427745], [-0.022306594951961727], [0.01858442505679102], [-0.007470203233765047], [-0.003934969489979878], [-0.007492584056779812], [-0.007782179921036104], [-0.004325149282779674], [0.010582134204663203], [0.004007992037713293], [-0.0002740477345185159], [-0.005838799296455467], [0.021648456479429843], [0.018810318340396197], [0.011240129387780682], [-0.011004566714380458], [0.003914608704328425], [-0.0005637191297374635], [-0.006572006069714266], [-0.0024069949782581654], [0.0006219479027752461], [0.00796262307295096], [-0.003665243309996947], [-0.008528692473291305], [-0.014613019150259195], [-0.008751299866876963], [0.0033879861903430386], [0.0017925696367392396], [0.0018381993769016707], [1.1062315687344142e-05], [-0.015679530930606065], [-0.016124691335210526], [-0.006387658654826604], [0.002243606372540328], [0.011377811887002424], [-0.007593986347361635], [-0.01217746550824141], [0.017778509732231114], [-0.014507577373436557], [0.015524922375204158], [-0.018323657607315826], [0.01075972065965727], [-0.013034874349748012], [-0.01619867906681798], [0.0022963067024777645], [-0.013509567328516407], [0.007269099427716133], [-0.007307504228827642], [0.007669935130979133], [0.0010292564982614895], [-0.0002011691515823869], [-0.014464247174947533], [-0.0011556665697867621], [0.002108863608537713], [0.00321498710944454], [-0.0028009861870250674], [0.0007132090510813233], [0.0007700920616786424], [0.003300713326323353], [-0.006901063586789994], [0.006194067656817626], [-0.0057615483294796615], [-0.014495883016010219], [-0.014330996424556016], [-0.004005435705398371], [-0.002493904524152246], [-0.011565689302993988], [0.004133043675266184], [-0.0002152919865329415], [0.0028048606352624747], [0.0007007410611646521], [0.005064220438598536], [-0.010268092734258917], [-0.00040712226533306416], [0.004689817998087395], [0.003280525714411831], [-0.0008358081584293143], [0.004050130563155079], [-0.00716905151889505], [-0.019353385155446157], [0.020301758114363713], [-0.0014641675966741228], [-0.011403768454446845], [-0.006209634245080791], [-0.002162754316879868], [0.01403231270552173], [-0.016503377443884852], [-0.004063256762013661], [-0.0011595483015841457], [0.009326456365024714], [-0.008673537355711936], [0.00033469125880577675], [-0.002144370693753091], [0.004583295177232706], [-0.015390031767332134], [0.014734342894329986], [0.0016903975834117642], [-0.0035084375558093583], [-0.004191854375268181], [0.0091909047764255], [-0.012842621342728323], [-0.01967783304963374], [0.007796262156676946], [0.0048944386569224835], [-0.0012050236648303036], [0.020140219701730987], [-0.008637849176176672], [-0.007158937126707097], [-0.015135171224493822], [-0.004354479737030206], [-0.0053936874187402095], [-0.016447276891728327], [0.01359170408460423], [0.00752226334813439], [-0.008149989778246769], [0.012521640318861915], [0.006568075572260263], [-1.0515515895427255e-05], [-0.00041308953913424544], [0.001187944261309265], [-0.005258105623432702], [-0.005228488334917757], [0.004070349050539556], [-0.0020180316190161044], [0.005226066331407714], [0.012787796784588922], [-0.005750308717985357], [-0.0021612082558139386], [0.002245977432127034], [-0.0025680145370216598], [-0.0034665186871401274], [-0.0062713138554789695], [-0.004988244331216497], [0.006132324879533198], [0.004890071349071447], [-0.00047597090738228615], [0.01106585967228588], [-0.0008330968144933238], [0.0007340343637405977], [0.0005983100840728038], [0.014808908640060424], [-0.0026812402530518], [0.001036310142379512], [0.007304189712707441], [0.0038299136540660785], [0.013431332080773281], [-0.004524568128988938], [-0.010017779082090951], [-0.006739419400520179], [-0.004433988754681369], [-0.00881355166165442], [0.015323701059415428], [0.011216238647953871], [-6.648368079300371e-05], [-0.0043133602802083535], [0.010783317954984882], [-0.006077770964720936], [0.004664117139786993], [-0.0011798658661856243], [-0.0100469841151293], [-0.016098296816926396], [0.003238135089203561], [-0.01108004314276879], [-0.032153131691584305], [0.000625451342432313], [0.002703368412527186], [0.012466445063683607], [-0.009426277423330867], [0.016913473508312706], [-0.016751100075610554], [0.007464664321082674], [-0.012784930286688619], [0.009738334413898632], [0.01772331450799357], [-0.013055965405464451], [0.010536232609918959], [0.0004737388098651663], [0.00330035413585892], [-0.005959843788704496], [0.007792862421410415], [0.003338473204123891], [0.00827311620533002], [0.011155924981948718], [0.003926516088830162], [0.006159296860151149], [0.001860996339839495], [-0.0020378451879272054], [0.0037677579484406715], [-0.0024296155950068697], [0.0032161515646402477], [0.018772798836133652], [0.0011411156120387008], [-0.01997224890513025], [-0.00284004105382568], [-0.004669450080734359], [0.0004924882523180531], [-0.006654037087011442], [-0.012888774784056737], [0.006989065680689371], [0.005073673585920642], [0.008223925126669205], [-0.005443640530273418], [-0.02047682359802809], [0.010281603354869825], [-0.005807145200164783], [0.015678810319377675], [0.012895966953183834], [-0.004587317794669266], [-0.009360527486120807], [-0.012575317498995616], [-0.009767479078946796], [-0.011831245594397114], [0.005830915398468428], [-0.011418184047087764], [-0.0024880333810083487], [0.0012565564215465622], [0.0025429769626778], [0.009049447064424367], [-0.004933968477219069], [-0.009693234880270525], [-0.012126657111112672], [-0.01799046723145613], [0.0013250630722206685], [0.0004834936763795931], [0.021251530735235155], [-0.011247253521824934], [-0.005250284833514444], [-0.007696809720383123], [0.001645239992058334], [-0.007412547164002742], [0.00707179574572984], [0.01598769914611619], [-0.011856560020213954], [-0.013018810438550537], [-0.007083114104672534], [-0.006778185946338576], [0.002361807694590737], [0.014603239359832923], [-0.013188892683403236], [0.010346994200985522], [-0.010730559517830926], [0.008559634159041344], [0.001908708275769707], [0.014026548017196994], [0.008423671627705149], [-0.0031743452245985553], [-0.0026617649171009213], [-0.005016302763428183], [0.008922452301645576], [-0.012456568967861183], [-0.009161605472810674], [0.011217436771628241], [0.003116397120326696], [0.004667196921774572], [-0.006490662826607155], [0.005397697352779076], [0.006864451414726735], [-0.00546564934561297], [-0.00474088266804946], [-0.006973095536578669], [0.00748821997032117], [0.0011581069172626646], [0.004136209904335442], [0.006806917005707161], [-0.016684794747256263], [0.0018210701032813077], [-0.004904516585784773], [0.012025877057844064], [0.0183495003103553], [-0.00507733440935514], [-0.002791867620213921], [0.000628420639518219], [0.02038273829890117], [-0.0037421332757901975], [0.014116103555524364], [-0.01083828305904236], [-0.021551719066939184], [-0.025917253693318026], [0.00297940718561877], [0.0023263975320578197], [-0.001982914413623665], [-0.008876861739186125], [-0.0060140421551828005], [-0.018168509982556282], [-0.001927920671774899], [0.0017549320396840254], [-0.00559948136109556], [0.003128454692251444], [-0.0018963047625493964], [0.008571422725479975], [-0.007361665001673256], [0.008192226426047501], [-0.006458412425523499], [0.0012669712411864382], [-0.016291998185095333], [0.007311455211079073], [0.014822431993098392], [-0.016282057287085802], [0.00489923663447351], [-0.0013284343501522352], [0.011056149821014334], [0.0005170612035989442], [-0.007927691805186696], [0.0028764365937279032], [0.019834579104731853], [-0.022499897353694696], [-0.006290486092966425], [0.015387879262453224], [-0.012347990105170079], [0.016021457819980517], [-0.010096312716843194], [-0.005205465505929748], [0.006728649754216324], [-0.005076631187383601], [0.008389228098632798], [-0.021301960047464763], [0.022915453364193535], [0.0006654284523495605], [-0.002453321100989013], [-0.01401663272944954], [-0.0015243933843573098], [0.01996748061103769], [-0.019956391409637838], [0.006375980372304257], [0.009512881924462153], [-0.00550234420952272], [-0.004192377843482258], [0.0270244570530014], [6.070392515587044e-05], [-9.224878690000799e-05], [-0.018811688422586074], [-0.0007904605528985501], [-0.002311308725571122], [-0.008111774768257553], [-0.00476263837683219], [0.0019756814755133435], [0.0066277990419826545], [-0.010104185045080474], [-0.01082636596433169], [0.004833373610689381], [-0.0017755009209926788], [-0.006118330381184266], [-0.024814636226764514], [-0.0111635216087494], [-0.0071821346431702356], [0.0012001682535961362], [-0.00011069856063454887], [0.007418760449706313], [0.009064029656206037], [0.000907137446723241], [-0.006359270595404181], [0.001127772664305491], [0.007487949624516981], [0.004499675831329699], [0.017413613024869525], [-0.005001759560285708], [-0.004990960216738011], [-0.005289691389172199], [-0.003548196257343611], [0.00481591804353214], [-0.021491865146708273], [0.00689711613970787], [0.005019882507613273], [-0.006329670319088672], [0.006207162259097445], [0.0005533882186376718], [0.005778570403807682], [-0.0033472463044328096], [0.0007135094561711217], [0.001020552749185398], [0.018800751391635943], [-0.008060462481924519], [0.0022383753206827515], [0.010974966586581935], [0.0021988892536636408], [0.008794944949328932], [0.007938277776526812], [-0.014149407626383455], [0.004476662202054907], [-0.01011560280648559], [-0.004132510957157948], [-0.0006607837571603849], [0.014094611217417128], [-0.00898881343074146], [-0.012537422150478292], [-0.013894560536690645], [0.018763093372184344], [0.007823506181323868], [0.009999615521381136], [0.0071697092480113266], [0.002406894038325645], [0.0008938155795236382], [0.019584361960815533], [0.003265439476147726], [0.014534597648414185], [-0.0006286890045018104], [-0.0008604744350429504], [0.005442598052648045], [0.002830875288508007], [0.013958752971812888], [-0.0163365552140761], [0.010822139477063812], [-0.0008079070973107472], [-0.008232139286647172], [-0.0038420400544128376], [0.00594104378999139], [-0.008047927476221801], [-0.005297209830806632], [-0.011846548863793023], [-0.009766547618714864], [0.006434620871824688], [-0.0035156779291007087], [0.012028325822997806], [0.00789720637462459], [0.010293135636962403], [-0.0047275905968070546], [-0.0002999665101692068], [-0.010354786670098228], [-0.02557095107157816], [-0.004990113024685559], [-0.006725729001447273], [-0.002039118620001411], [0.0029558349168657704], [0.006275549435543724], [-0.0019169226883341771], [-0.010899975467658632], [0.0034976293122618357], [-0.004513216859609211], [0.004100577014371731], [0.0009505465463288666], [0.0066330729797687655], [-0.005180248953865739], [0.007416746437504602], [-0.019452651683475687], [-0.004975339941878953], [0.007093842555847436], [-0.008153648819044401], [0.0055647707348995615], [0.008420325213659161], [0.02733188417757094], [0.017616370320217813], [0.009445689198794755], [-0.01024582432418414], [0.006780705138061311], [0.0003975496039127456], [0.010581383699635117], [-0.015017755687653268], [0.003769646386304922], [0.0056849983792923095], [-0.0066822609441696355], [-0.011083823990214955], [-0.018748294029073333], [-0.004094235408159724], [0.009406585380899793], [0.008107947932517906], [0.0010833677285321675], [-2.3741012668872982e-05], [0.0020329447765336287], [-0.009219843698335674], [-0.0006718663642232586], [-0.0012726515383055755], [-0.0001724082473045], [-0.0011068695911704053], [-0.01055709704767689], [0.015951943103470596], [-0.011824279180830961], [-0.002900332671009586], [-0.009995304386343242], [0.009330014476182326], [-0.010765571754796222], [-0.007627558931661749], [-0.004920795955228274], [-0.010637289104350658], [-0.003180630402241651], [-0.013738051007427914], [0.01193033870955485], [0.00965182929074825], [-0.018938232565418267], [-0.003559744507616967], [-0.00656722054842598], [0.0012251765311326785], [0.012280713253203485], [-0.007252379528309719], [0.007201477703225296], [0.0027575776966783892], [-0.02268299241695068], [0.012637678662625357], [0.001531623615246594], [0.004433559793815143], [-0.008616511086604054], [-0.01369271395503849], [0.012656801658631436], [-0.0044328496568772895], [-0.011068233456842507], [0.009318531867341415], [-0.007355914852766172], [0.01161267612665206], [-0.0003415481577157947], [-0.010158007124051575], [-0.006753677701465379], [-0.01242817119468751], [0.00047371061307928516], [-0.004317620649486805], [0.017688638871788582], [-0.00655397391110885], [0.002930847442967487], [-0.00688069745964904], [-0.007554947460716515], [-0.016552211267750097], [0.004183076088815035], [0.010473280851319117], [0.0002201264840976821], [0.006479400377589169], [0.006873755836735428], [0.015392137425552616], [-0.002120356204137399], [0.003855540947466833], [-0.010004974826272288], [-0.002701546922112226], [-0.0038285412906761246], [-0.01251034766044733], [-0.007691187176932762], [0.019944052903720002], [-0.004486162678412111], [0.0012703280073915674], [0.0023822404708942896], [0.016688124033351064], [-0.006869771391845374], [-0.009028561649946714], [-0.00982984561339545], [0.014444941571622693], [-1.804149603421535e-05], [-0.005356714736492194], [0.0020933297911599346], [-0.025197032936849145], [-0.00252342984166977], [-0.008194495153371315], [0.00962876318703543], [0.005595752544798671], [-0.008155197742084994], [-0.004206402483927052], [-0.018492021520932447], [0.005199228745599834], [-0.003539063668194392], [-0.021046606791462027], [-0.01475289390938607], [-0.010162238584698752], [0.004024832513394115], [-0.00015785433278512487], [-0.0008849405135618454], [-0.0006408509882461026], [0.00014748639108533022], [0.007250222544131238], [-0.00819926897336068], [-0.020504439344966423], [0.003848388405770567], [0.0030086470633854966], [-0.013354915217546753], [0.0103246649942268], [-0.0014567841494418537], [-0.0057282466056079815], [0.01729075921489336], [0.0038884548876140365], [0.003091723465508319], [-0.008734625750191183], [-0.016500926477670454], [0.006004364223559499], [-0.0013534904925237925], [-0.010168045181088837], [0.006468783057102872], [0.009169042085372048], [-0.00010324192817344668], [-0.011118913232902754], [-0.0019481068628083968], [-0.0072011820639204275], [0.006519380995769011], [-0.016615078297167934], [0.016142269105071588], [-0.0025734077005816094], [0.008559269279165631], [0.00742799916653612], [0.01007167365736899], [0.0015075551580026464], [0.00989430960908346], [-0.0008200838035663144], [-0.0017270395144640546], [-0.0110344732134371], [0.001755991948194742], [0.008759065954450152], [-0.00991239609121096], [0.0039531034145449], [-0.012866568115674899], [0.0012904915632072657], [-0.008461255841742633], [-0.006015477657583375], [-0.008380066744200762], [0.008897055369087983], [0.001534540005001663], [-0.00016543291394119011], [-0.0034871407187836673], [-0.00023778201131252364], [-0.006447355866095716], [-0.001108591063570133], [0.003565595087144176], [-0.01718065826347817], [-0.008822520943726566], [0.02312560061164184], [0.017922055961649565], [0.0025231439649499496], [-0.004983197655291346], [0.007874677160589582], [0.007853432765339905], [-0.023361071961868353], [0.011149015990624154], [0.008442862936812448], [-0.012021605811299617], [-0.005891607973313874], [-0.00045785207447542357], [0.005591687393635052], [-0.011592593413590131], [0.0033128544325157325], [-0.029929725722203582], [-0.003920295822068665], [0.00526864765108092], [-0.012497569911601124], [-0.006608702683382409], [0.003836544310282532], [0.016811031539249784], [-0.0016716303962591344], [0.006950063867028218], [-0.009643643407939356], [0.007248884852464026], [0.006612032598702183], [0.006774011242792622], [0.0010494678121898023], [-0.009262331882353519], [-0.012594320798085631], [-0.003107778970260631], [0.0030206692827031527], [-0.015842858946274394], [-0.006007471917269324], [0.00337412610019151], [0.0030916332456825545], [-0.004942605269992125], [-0.011118078446263441], [0.010204375449485794], [-0.005186541978374269], [0.0125373751475447], [-0.004855923384125964], [-0.004468933956683709], [-1.019577712545624e-05], [-0.016304220981892704], [0.004350092181730579], [-0.0057300804182804], [-0.01304184711639313], [-0.004615500067724029], [-0.009807080551384096], [0.0026054878177867416], [-0.011330830967763767], [-0.00394063862619499], [-0.007011065951573598], [-0.021916266188186838], [-1.7474010804277255e-05], [0.015633699060431286], [0.007319054607778768], [-0.006108799944820876], [-0.004092760582144892], [0.0032815374841964813], [0.00011965981258767876], [0.007812782679386402], [0.0034217500416738995], [-0.0026974581138877224], [0.004718985421331379], [0.010104761731693657], [-0.0142885923153228], [-0.0037442563528422073], [0.0058279542703036985], [-0.010631283097499958], [-0.019152742847869574], [-0.01591432600882065], [-0.005259458808212237], [-0.012650621231350212], [0.010965472590148665], [0.022344757604231918], [0.013489021223018741], [-0.015358518373711726], [0.005473655332944262], [-0.014336021747999595], [-0.0030146601841841317], [0.007689529193993895], [0.007098837169706367], [-0.005841277185342586], [-0.015304992316805079], [-0.001393105261261123], [0.001486298180892677], [0.0004369708238231028], [-0.0014391903744570948], [0.001941893328237838], [0.009057918191086999], [0.014869681183956684], [-0.013602076091531459], [0.01407817672159265], [0.005375748302937327], [0.008560260902762297], [-0.005439926449304205], [-0.016179341281773143], [-0.0007941701637801647], [-0.019824981218582574], [0.004762037740916806], [0.008146552531363297], [-0.0005273210013724884], [-0.00701172847105673], [0.0020134256152431616], [0.0016683435941962682], [0.006329333357481206], [-0.00284212402170587], [0.01907207013514409], [0.011371836473501212], [-0.00697836916079943], [-0.0009324797470759626], [0.0051393457464242055], [0.005983701141600203], [0.005773237573057944], [-2.8357722205838963e-06], [0.0022346851601256668], [-0.011448084791532195], [-0.0012479873424344058], [-0.0017865884866421389], [0.0022453633768572396], [-0.018513241127000295], [-0.011666902198211333], [-0.0009035483383742618], [0.006241881338897338], [0.01733816860907582], [-0.018889293271750277], [-0.01270240745154983], [0.011894270354236023], [-0.0023384198783964927], [-0.02171881175736445], [0.016194955047798772], [0.0022622496014936236], [0.0016652444565988297], [0.011170358223856898], [-0.0053276037090821005], [-0.008521957973149056], [-0.01694094264950976], [0.009727322070309253], [0.010857206230073113], [0.0033824491124556325], [-0.005315286322747792], [-0.014947641941228582], [2.4828389614089015e-05], [0.013288405794569096], [-0.008044236879615696], [-0.01240853594663062], [0.00519883636099309], [0.01029937628815086], [-0.00787602458597973], [0.008721355270200957], [-0.0041212175024817835], [0.009274407187710797], [-0.0037793125161086254], [0.004504734230661985], [0.0034592826677149377], [-0.0011923097218616268], [-0.006041421544841951], [0.007636893424748256], [-0.004765320367304294], [0.003892747193484749], [0.004940209048875511], [-0.005122054588816234], [0.010163298179324941], [0.014559941480171881], [0.001686822110466396], [-0.0006997174409608271], [0.009787017252137578], [-0.0009063461517447583], [-0.00030219871484918375], [-0.010687893271455558], [0.00748112676848038], [-0.012441359292581075], [0.00564609618681158], [-0.001218468176128285], [0.007093246930400726], [-0.013867014823905177], [0.004986894744777353], [-0.00444948389136738], [0.002493898149987204], [-0.0016772907078680926], [-0.0008559021147220683], [-0.007505287872736439], [-0.0019791222749952386], [-0.007543103414031086], [0.0015773603171932422], [0.007787328573215998], [-0.01067309095241651], [0.012137556830729056], [0.015646542450719548], [-0.008378255806969562], [-0.004644200011288584], [0.018292855041457036], [0.012624957033427003], [0.011628111483758034], [-0.0012892662440633189], [-0.009825243854632423], [0.0009929517852901469], [0.006983864059982636], [-0.01174420298499084], [-0.006730638461286375], [-0.0008062409639302852], [0.013550222759610656], [-0.006291467701764084], [0.003972762177076102], [0.0051335109374805845], [0.001157066496022028], [0.007588225235248786], [0.0012149030084165214], [-0.00305646514439255], [0.006970501605433619], [-0.01267022671874335], [0.007704165112073034], [-0.005389764276771061], [-0.00919859665966711], [0.000581702063111176], [-0.0153288847328389], [-0.006930849348903495], [0.0011280210159456026], [0.00661767578205873], [-0.019875256834666257], [-0.012011427468874321], [-0.009073572970669427], [0.0196148745767127], [0.0031676878044351307], [0.0054270223955551625], [0.003191592207271101], [-0.028432356625814417], [0.011123545715890432], [0.011439927771725178], [0.012451342901712601], [-0.011655949195014349], [-0.016898914298963133], [0.007587662973906785], [-0.014974632956256336], [0.005666565896369835], [0.014811699521188833], [-0.004921094806735385], [0.011743676901140402], [-0.00904468745553468], [0.005056717092009609], [-0.011126287142383826], [0.004558217326211135], [0.003319933533872357], [-0.01244115880435092], [-0.012494576922039433], [0.021477557593831728], [0.011255069251961607], [-0.014527100529583645], [0.017463083644305193], [0.00037740892692600565], [0.0015510649495365948], [-0.0046811823337318155], [-0.0034974548508422717], [0.007126646820652311], [-0.010065732580173825], [0.0030285793140880867], [-0.01402384471770084], [0.014665975017366203], [0.007572816204520125], [0.007375700699298512], [0.0029675216948081835], [0.005779172966244725], [0.0060019343342235364], [0.0006306480301026631], [0.0015431726491588894], [0.011070118666278751], [-0.013362727148825783], [0.0010299676122780168], [0.006489449093913313], [0.0008820088656036941], [-0.0004410461149326884], [0.003310745063564297], [0.0059110056682083025], [0.01554673650863282], [0.0024348447896934875], [0.002026135856832003], [0.007342714054550511], [0.012625584946216116], [0.020125401855230058], [0.0006972417847003147], [-0.013167383181732294], [0.0007706226609604033], [0.00025502831587781297], [-0.008054790432699115], [-0.006549978372019324], [0.012010986404933562], [0.005391311822357128], [0.010412040553389821], [-0.013365610970960081], [-0.007023943425570005], [-0.007401233767687658], [0.01986349000746524], [0.0007618793224395861], [-0.010149881897274384], [-0.016349835800816365], [-0.01812519298138674], [-0.003670571866904848], [0.0001859016445953279], [0.00875286499336122], [0.00014296800580714913], [-0.01942574571697232], [-0.004307524382899266], [0.012913790483778323], [-0.0007041547760009584], [-0.0057766631768529945], [-0.006519339466140679], [-0.012312365300000423], [0.006543677937912562], [-0.010263361727460844], [0.005112466859975666], [-0.0009027444346599905], [0.0012850504715099964], [0.005137957869983193], [0.0004693062140488113], [-0.014733286746604705], [0.016522162270978333], [-0.0036255913469537228], [0.01154588113472393], [0.020043820469756064], [-0.012715673825745403], [0.011393870932752074], [-0.002652886536045369], [-0.023250731653502468], [-0.0061376773828704404], [-0.0009257527922673158], [0.011390366818754185], [0.008194355330063584], [0.010281912888216291], [0.010430085905137472], [-0.006027112730247623], [0.02295082131516288], [0.010629275133115812], [-0.03233116089371663], [0.01292714864564415], [-0.012480766690236678], [0.009668201883604361], [-0.007875748378752422], [-0.019316847105251056], [0.010491118156815015], [-0.01577610114773344], [-0.01303103563389934], [0.0060800477175615665], [0.006827758685790476], [-0.009921004530259254], [0.001987764371412052], [0.0008927557605171544], [0.0027498084233952965], [0.006734782975151615], [-0.0214027799761556], [0.0038177510513455228], [0.006967072608795187], [0.00021946390399745253], [0.01443919262750676], [-0.0055671937437416705], [-0.009556059569543075], [0.00373151139268316], [-0.009795774110191037], [-0.0038332329019442517], [0.005501049783833437], [0.001797736042105498], [0.0064993005228569396], [0.006110680814207424], [0.004279400131889409], [-0.006522144456398679], [0.012702629098691914], [0.0030607354723102558], [-0.004375115882924093], [-0.004022300954596227], [-0.0016662113101006462], [-0.016188798824401832], [-0.0006525233928637612], [0.014958118574983342], [-0.006047557372555878], [-0.008189496259886414], [0.0010349221349690134], [0.006116448494808501], [-0.0026524276942146174], [0.014104919960303015], [-0.005625851493878209], [0.002037014928924847], [-0.016982950058272592], [0.015190793147868692], [-0.00029109541011380197], [0.007983761758481936], [-0.013367972033543264], [0.0017676967885864885], [-0.0058443374215274], [0.00050060188691442], [-0.01320904442992398], [-0.0018550789372615026], [0.012065506955348838], [-0.011410860050145804], [-0.01865904334486491], [0.008891062024138564], [-0.00886994511868424], [-0.019535076328652243], [0.0076847100024329176], [0.012384502542481962], [0.0001879868526212066], [-0.01069488212417225], [-0.013043958943142588], [-0.008381430554673365], [0.003877284095584879], [0.025929369473237717], [-0.003461099447192399], [0.010250928665978832], [0.017584683768042134], [-0.022224606738439765], [0.00032151999701145206], [-0.004417061222768073], [0.003848433692238907], [-0.013299197078218543], [0.0015355386740863427], [0.013107014613868297], [0.0046478327410911895], [0.0019930326016459644], [-0.016083485519675825], [0.028684408470261765], [-0.02011541141725481], [0.002730764675370864], [-0.01577882088887319], [0.014754009707665276], [0.016126543607989048], [0.01748513818550268], [-0.007035578372749207], [0.004282469995158011], [-0.01191285896347088], [0.008063632953554343], [0.01597878284547823], [-0.0008502220234942891], [0.02688532540746986], [-0.001244979005174421], [-0.011572383280116415], [-0.0013882235812949226], [0.00016737125472651148], [0.003362315806815768], [0.004500871230305896], [0.016551406925034245], [0.01206637346752956], [0.00013928548540019273], [-0.003709736016954188], [-0.015703458448046426], [0.007457098306393729], [-0.015697460614970196], [0.013397607883350447], [0.004446140627130438], [0.008100715877691634], [0.0007772145724315331], [-0.00621834157868207], [0.008588863759191418], [-0.004924083613051504], [0.0018711480559085911], [-0.014464274594750172], [0.002933705032276198], [-0.0017339115662038133], [0.002069515742355483], [-0.019621550049058103], [-0.009960143367660518], [0.0010493432443502131], [0.0009399384509496363], [0.008948760860120836], [0.0029379375182984353], [-5.518789040071723e-05], [0.013532151534406742], [-0.0012974316438007145], [0.009307677044153658], [0.008134283448494031], [0.008795602045642123], [-0.004682166887131975], [-0.007596295974546992], [-0.00229524170842368], [-0.007716518215670261], [0.003878924621851279], [-0.006981412948137565], [-0.004369759856799231], [-0.0005620596111813453], [-0.0016271191351805332], [0.0072163193607851705], [-0.0051195566320240546], [0.0027016829713617436], [-0.014790507127597797], [0.005633634504651083], [-0.002117285792694145], [0.005258244894979043], [-0.004291544984150209], [0.0009211824889314259], [-0.004730464354357725], [0.00835964412908546], [-0.0173701071402283], [0.0106984417711837], [-0.014295369012560307], [0.0006382947971368036], [0.009153248827667285], [-0.014941340310687218], [0.01663366292511557], [-0.007396145610425714], [-0.018904086642201487], [-0.007246811440116351], [0.014018337328664508], [-0.0024021822389089704], [0.010610985862482833], [-0.02813860518425339], [-0.02357416181162684], [-0.0026604710443206324], [-0.014334897152330205], [-0.01970023876834111], [-0.0025345944693133957], [-0.0059924489404428], [-0.006102829740618113], [0.004167413888986659], [0.0015194241940994883], [0.014192240170981581], [0.00871880246244109], [0.0008931992982282278], [0.003395655085044417], [0.011345711359947885], [0.009716230332417718], [-0.004773650264300696], [-0.005155634206197778], [-0.01306265837493749], [0.00030916993387585954], [-0.0053476228661157805], [0.0026965977404573302], [0.014267454095249169], [0.009951677139012202], [0.0027188942776533442], [0.012474830652765877], [0.0069463551587615946], [-0.011272320729614616], [-0.005336168482726256], [0.007776298412468489], [-0.019409274281663415], [-0.007390738227273742], [0.0003250418604451714], [0.007586460880008949], [0.002133616847996953], [-0.012100650225727752], [-0.011385487405787511], [-0.011494008776128552], [0.007209691544391664], [0.0009332422324114424], [0.001374253316297423], [-0.020122772958871223], [0.01469909856905281], [-0.001863334381164334], [-0.008055571450654803], [-0.00302040515835446], [0.012922288522541398], [-0.005448171708987449], [0.006642259412898303], [0.01023638958951024], [-0.016839166113549114], [-0.025383820503575495], [0.0010124363969041695], [0.011093886597604736], [-0.01221898399936677], [0.01219942775812872], [-0.016246953390071223], [-0.015903546702897963], [-0.001117655743707528], [-0.0007667665843496721], [0.012474961746208397], [0.0011035479887800408], [0.0023411661883268515], [-0.0073608670017023875], [0.009847030680002812], [-0.01255508460776523], [-0.0012089105891008756], [-0.009974419794187306], [0.0050057305054621425], [-0.0010029625798825428], [0.00893198411822105], [-0.005019571173847441], [-0.012598399443155429], [-0.01956646764025176], [-0.02070667271759942], [-0.017234790231870443], [0.006477605964147859], [0.010166876956641584], [0.012940045169830841], [-0.014278384873167715], [0.0010433461635309229], [0.011327833029607536], [0.005091092520083619], [-0.0037523340185605077], [0.020686184176375622], [-0.011144702027688419], [0.0031973013668602722], [0.014131686262363911], [0.008514981424671532], [-0.0021058949775028995], [-0.008387944031383222], [-0.0038827546435215307], [0.005175023640508049], [-0.005133087104770766], [-0.0019180978897137173], [0.008522412712870442], [0.005734578628086939], [-0.015183387412286272], [-0.017404080815224904], [0.0009525701718016187], [0.005365488719892472], [0.0018922519797582844], [-0.008890713098166098], [0.006565988687062471], [-0.0074127336190864075], [-0.002105051158386289], [0.0016471482589336054], [-0.002534781893908359], [0.016771616460704034], [-0.006685866443791456], [0.0033938766624317077], [-0.009271667800681208], [0.016756518670367447], [-0.0005662422060147156], [0.005792799982060442], [-0.005759306180376041], [0.011583147617727206], [0.009290966482049301], [0.009752088194274897], [-0.009083101140798671], [0.019357384199029846], [-0.002980636686833603], [-0.00904674165810807], [0.0032357473835722857], [0.004088286630209664], [-0.003352050559325412], [-0.012425739783900394], [7.859102623637326e-05], [0.008480234635598388], [0.015493186747105423], [-0.0084772970029863], [-0.015535994191750637], [-0.010966515103556135], [0.013718603436603541], [-0.006651847548576366], [0.012735978387881595], [-0.003878824466546174], [-0.01639421416065901], [0.010044838987054307], [0.005641459988961004], [0.004423297540660589], [-0.011241785573161075], [0.007256355805019169], [-0.000823198175459458], [-0.012061516661263027], [-0.008725815210593619], [0.012033224772322224], [0.0016184209255164124], [0.005486145433993891], [-0.0031827881651558055], [-0.01633535958145218], [-0.005732150554455604], [0.012907653696352057], [-0.00634931138356757], [0.0012283098555621278], [0.013435600825792274], [-0.00928246660876942], [0.002483195146663101], [-0.01180893679566026], [-0.0036267870478634296], [-0.0014258227886869343], [0.018080812896218306], [-0.011088088587418507], [0.004743321015739508], [0.017367623762552287], [-0.014602559779527813], [0.004231095422453737], [0.008791020062569063], [-0.0038380508498598864], [0.017828656537664973], [0.007800510923784844], [0.012643436138140738], [-0.004824231389734449], [-0.02005375356029801], [-0.0015262344001710927], [-0.0029537068420962933], [-0.0017744038352084796], [-0.0017480121750768325], [-0.0006464496581638942], [0.009304636942627868], [0.0041218375519267245], [-0.004061178702040826], [-0.003949448893159024], [0.0015374298142770842], [0.009260909785759663], [0.0035689843442885667], [-0.0013422702495102308], [-0.007983940053845754], [-0.007658949590914599], [0.01875233619932841], [-0.00642023083893352], [0.004334083618195698], [-0.004301317165449305], [-0.005061004711027948], [-0.006213312247126792], [0.011696252012673717], [0.009200970521799027], [-0.013842749415625273], [-0.02340020728963953], [0.0031867095966604635], [0.004933477777468915], [-0.01599752823993204], [-0.010491734581799982], [-0.007395753613087567], [0.005282813332548444], [-0.006349601961312127], [0.012800816295455823], [-0.01064407752311937], [-0.0004518194348911443], [-0.022188299576989836], [0.008321678433853275], [0.00889851001734406], [-0.009834094804723817], [-0.006530240172614691], [-0.0082802386673354], [0.0002109727785135538], [-0.013491760896266539], [0.006345190129672539], [0.0019458760810187664], [0.0028810146442914447], [0.006775518879967376], [-0.018858827920811328], [-0.002986816676536018], [-0.00783416930311062], [0.0021149674433450076], [0.004570303642132373], [0.007728861818669482], [-0.013832751908127851], [-0.005184637495850393], [0.004460155132148861], [0.005405363595295831], [-0.0029841735613955747], [0.007868436023940491], [0.01381203535288079], [0.01856493808227579], [-0.005549204044271977], [0.005094992114979676], [-0.007855344301162416], [-0.012491675911086958], [-0.0012413221454951055], [-0.004091778376200159], [-0.005342210831107026], [0.004155046946157304], [-0.001744779278366381], [-0.002620570093542442], [-0.0020968975922302396], [-0.0014957594634895908], [-0.005285162234247545], [0.0016417640653595693], [0.002751045866340671], [-0.004367580782013467], [-0.0069904753148543435], [-0.03455626966635985], [0.011252062384367958], [0.003647158490762518], [0.0048113846374888344], [-0.001104111306078816], [-0.003381237214250322], [0.006539000974908367], [-0.012349175377282128], [-0.009872090130051784], [-0.008148019039324259], [-0.002277627057102695], [0.001889097460406255], [-0.015733632210126625], [0.0033628468746015384], [-0.011698895351519849], [0.003450621472617181], [0.009872984713403875], [0.010638682274135159], [0.01804305972389907], [-0.025301524449441445], [0.004960105587157988], [0.0014875322902918918], [-0.0037761898104212545], [-0.009524753171419814], [-0.009629104327440088], [-0.008248745361792624], [-0.0047716404910632055], [0.011073123646540525], [0.0028095993600037346], [-0.012583821296581522], [0.005562163355677353], [-0.0038557648836898134], [0.011058650166711311], [-0.013420859318393768], [-0.0004382130689101823], [0.0010687743088536655], [-0.003990080591838369], [-0.013062180522805012], [-0.0038694178976554417], [0.0046874591545740425], [0.00211768237235918], [0.011783269343568641], [0.0034582127667522997], [-0.003568146989079921], [-0.004902443782701641], [-0.007877306992150581], [0.00515525257150271], [-0.00693738822657021], [0.013528650300900521], [-0.012780738484051356], [0.023556541347324902], [0.008317442206632056], [0.002036969950630996], [-0.007631828987125408], [-0.02812722905416486], [0.007704056611456783], [-0.0017824153638540763], [0.0010269647009188126], [-0.026303704310823448], [0.007271819841290413], [-0.006392774020075628], [-0.003130369323221486], [-0.010561223614937448], [0.0018476999149482764], [-0.016451294695404985], [0.004763923777281985], [0.001698520822144726], [0.01012968921027965], [-0.014045543605648298], [0.018741258144780774], [-0.005510223798113657], [-0.0155268403564116], [0.005842723898028787], [0.01039749480275992], [0.01342974725451134], [0.003523451424326619], [0.01568671525698805], [0.008789110142618168], [0.0026859474983837277], [0.007309722640523482], [0.0056728642378273035], [0.008202379956541425], [0.01836139556790992], [-0.002613214706842385], [0.007249138165130448], [0.01042688636845251], [0.010841590673170335], [-0.0018093207511407105], [0.006359262373002265], [0.009655873559741178], [0.011814876605405656], [0.007114744604832848], [0.005583965363785275], [-0.0205734477337289], [0.0054564323018027145], [-0.0007332138856733447], [0.004620020967514458], [0.01122511117149082], [0.0072078424447718035], [-0.013093861903790657], [0.002092406340385125], [-0.003004119119903502], [-0.006614098697309277], [-0.0052312439517372316], [-0.010006303169278103], [0.003826857207061984], [-0.006132729810566792], [-0.0033184031195504084], [-0.0017034132420003921], [-0.007527111160114161], [-0.01155655127494159], [-0.01004717991768091], [-0.006084662939603633], [-0.006644691857053837], [0.001214687322752156], [-0.007114003927668005], [-0.019259900471343724], [-0.0061142643644684315], [0.008122735329989058], [0.022629972180418758], [0.004183006441566547], [-0.0005250917584262461], [-0.009032684049175805], [-0.004024542236288415], [-0.005403256204747916], [-0.007541751860640822], [0.002459302417926431], [-0.0006807091026527452], [-0.011710407873765634], [-0.010562712418795023], [0.016573679530702868], [0.004826350656967414], [0.0031557943412923225], [0.014531737688352924], [-0.017265490776751494], [0.006780531331407381], [0.004167095022053631], [0.003149038326093059], [0.002408245678434207], [0.005540179181092145], [-0.011982831200812876], [0.004035857238308724], [-0.0013912089050497282], [-0.0011270571445199209], [0.010617879925752211], [0.005228111563484968], [0.016819530632430746], [0.011524300548058163], [-0.00014077638733757557], [-0.01029802261837211], [0.0026335705239831243], [-0.000451448295621215], [-0.007970959880825652], [-0.013439609481685214], [0.008224462939610636], [0.004259401306750024], [-0.0035897477784328394], [0.001093639143641648], [-0.02267154849825792], [0.00789296695627116], [0.0037741229405607573], [-0.01541635989477144], [0.013923754165569725], [0.01326575963671259], [0.0066801315638468795], [0.0067265932709581686], [0.0072304279850345975], [0.003591134428773464], [0.005657757329417266], [0.0018829471028265936], [-0.01337755977485361], [0.016507227733362023], [0.009858064048762183], [0.0026193538592393243], [0.0017857140760408393], [-0.011979036603595514], [-0.003194220738872672], [-0.021719014271800664], [0.007581905369240637], [-0.01025086830696281], [-0.008207741604445195], [-0.00033146639156661907], [0.0058678745408360785], [0.002813367457291086], [0.0008815726773565826], [0.007336339652946576], [0.0032446438293717295], [-0.015678489298304604], [0.005740303987755048], [0.004411658589687709], [0.0064433481102436005], [-0.018659564469562913], [3.211734262103007e-05], [0.01155276342440759], [-0.012208651391075088], [0.00802373494274927], [-0.009540599656310872], [-0.011462709225897878], [-0.011577851213554605], [-0.012230812815098729], [0.0076868830860634795], [-0.0007283693738766411], [-0.01171489118064732], [-0.002746739099825458], [-0.024252343857115936], [0.010296557225061608], [-0.01174912666101133], [-0.009418351025504713], [0.009017824797407877], [0.004808434252866018], [0.009189291468988321], [-0.01085269324348653], [-0.008234652954468838], [-0.007498488788332135], [-0.011590438308845232], [0.00668557601410347], [-0.009462028724604669], [0.0019515245911387177], [0.012064093546112493], [-0.01110802274973534], [0.0031877954338778765], [0.007699347722370973], [-0.007298852915669439], [0.0005882483332061238], [-0.004260217748200249], [-0.007568179475866551], [0.01479435587221514], [0.012696049249320296], [0.018094610286577047], [-0.006359565920938321], [0.02496772228739823], [-0.0036203636450153885], [-0.005654970781295804], [-0.0007374209618649516], [0.012636510773918874], [-0.004255856025118429], [0.01848162376224911], [0.0008869923951856438], [-0.004634545904368009], [-0.014423945006385866], [0.0006990301720618205], [-0.003941171689460892], [0.006934549616769926], [0.009417561339378726], [0.018620027121521457], [-0.0004214229008713447], [0.01292029529544499], [-0.005523421607762556], [0.0006367954931046866], [-0.008089747822575172], [0.010924007050229334], [-0.002387397519316473], [-5.822074636522635e-05], [-0.017363055015682836], [-0.004226838131460161], [0.0020932389332971885], [-0.001921711796387099], [-0.0011461764701312764], [-0.00846958499192074], [-0.0014469764077621133], [0.007028156571853308], [0.013776666827996652], [0.0019948603818130684], [0.020079886005840375], [0.0028422784198548403], [-0.00414912715423418], [-0.005738632715227778], [0.0017052463149328312], [0.0036909483761350574], [-0.0052417525539953085], [0.00218549604324701], [0.0022424142156204857], [-0.001372372193265024], [0.00992192627227768], [0.0033174359364561614], [0.012902022425797193], [0.021239686259184116], [-0.003250668894355472], [0.008986262287153289], [0.00565166972115748], [-1.7049016407886882e-05], [0.0015878420081447313], [-0.012661328157867963], [-0.02746070472066692], [-0.010184099016406515], [-0.010711809954682846], [-0.0062645860686022774], [0.0075384601907039755], [0.011188802032376793], [-0.00617548140355286], [0.001121659861191728], [-0.005763669849756056], [0.0024898916588795635], [-0.018041444087651366], [-0.019911581033080588], [0.005018646749134947], [-0.0009823100647867958], [0.0030404410374410815], [-0.013540497028712442], [-0.002532466868835891], [-0.018435029687823845], [-0.0001651017430177048], [0.0052768177138953504], [0.012035563883230948], [0.004842562140118444], [0.005549433154568816], [0.005820121338208401], [-0.004222988488190587], [0.00595462847994814], [0.007217782266598844], [0.00620113790777432], [-0.003228048354255152], [-0.004181873175265273], [0.008613404823089364], [-0.0026045768249922914], [-0.0016503180558943946], [0.021826290319511644], [0.0009689116467737616], [0.011037105876399597], [-0.001129507037970001], [-0.01163968203350579], [0.003112277124450237], [-0.012627662623737974], [0.019645390848840004], [0.008525735342267821], [-0.01564538555326464], [-0.003264527815346655], [-0.012739376931448821], [0.024768921108280554], [-0.011831243444131292], [-0.01776125385378374], [-0.011346328262500368], [-0.006272049860230302], [-0.001356078428463689], [-0.009069668794303305], [0.010739097097853187], [-0.001197475062583387], [0.0056134069255441175], [0.0005599201783010494], [0.02465609965212739], [0.00481855571488321], [0.009120095493253573], [0.0021615508508227256], [0.0026210603082270066], [0.011184681816156502], [-0.010028569973154159], [-0.007542844255671657], [0.004674189453776831], [0.0056948742175971035], [-0.0027964788749230557], [-0.012855894622631847], [-0.015733591686267832], [-0.013105770752533647], [-0.014355030096375065], [0.00958317972127962], [-0.0010923925593980086], [-0.01001387937096425], [-0.006619659377733843], [-0.0007730947400884342], [-0.018780077028205177], [-0.002513225795773528], [0.0007478694059772057], [-0.010365098157134212], [0.0014206440743335634], [-0.005600171954142062], [0.00131861975992382], [-0.010750438903542294], [0.003924962933264603], [-0.011883893650561243], [-0.0022866855362749256], [-0.003207259191682525], [-0.000501045717060319], [0.006991266393355667], [0.008132778315667505], [-0.0035039739818992994], [0.0009312038650022216], [-0.0066572813700782425], [0.005236226779386114], [0.009032016712931327], [0.007901556922077236], [-4.643834807512294e-05], [0.014148653737296221], [-0.012068637530716976], [-0.006283787584899974], [-0.004992486938999021], [0.009008855135532576], [0.008578137480730816], [-0.00784218069269472], [-0.0007719293920338534], [0.011819482792833281], [-0.015603783866864254], [-0.007201349478816403], [0.006718011259746084], [0.012334110121605343], [0.013474598509680252], [0.006908788244105624], [0.007406329327179379], [-0.016009945757497243], [0.008637385637295677], [0.012378982350075167], [-0.011726973105135402], [0.010969486197734519], [0.00037203067698971936], [-0.007536129137306951], [-0.012633106982234833], [-0.0016709863242882282], [0.0006757173602861528], [-0.0006703715777424872], [-0.015427551802899963], [-3.967424646907034e-05], [-0.010021711297394228], [-0.021757280776854206], [0.0027377940861018526], [-0.01138246430648587], [0.011493477139807872], [0.007474927341556689], [0.00912028940277949], [-0.015922005576075676], [-0.00895384351054459], [0.0001159611606868387], [0.001825243138115251], [0.003431261774066714], [-0.010524102642817008], [0.003746475597491627], [0.0014564553641012805], [-0.0095126853354616], [0.005611859081830223], [-0.012926671376497986], [0.0028093674605070788], [-0.011829863799028048], [-0.0070629627954275215], [0.014090625151736785], [-0.010130728077833518], [-0.0034948382771127777], [0.006807626640148958], [-0.004216147817557653], [-0.0021784373072932725], [-0.0034822010101748092], [0.007624529126134601], [-0.00122821213109215], [-0.007800606276368414], [-0.01104180888226097], [0.01772303134532057], [0.013842955063853878], [0.008312447315016201], [-0.005549460019270415], [-0.0003911172061845934], [-0.004187927455454211], [0.005803947313751906], [-0.0043862079812754026], [0.0026286433182042533], [-0.008713677560768485], [0.0012532462468584087], [0.009617100983040952], [0.010438174596247213], [-0.00331814580382228], [-0.0010666077975177313], [0.004054342105518909], [0.0031545012933792992], [-0.00039401118454748585], [-0.0030717235000553224], [0.00873824112068333], [0.0002549333913167738], [0.010453494684382952], [-0.009546378112003692], [0.009371390104388169], [0.003632621864979936], [0.004859938834955367], [-0.0031153058945589274], [-0.01631197414371109], [0.0032111592812716387], [0.001650192804648974], [-0.006595222669228487], [0.0009774382545901718], [-0.004682734427330794], [-0.009383011327831701], [0.004685103000225143], [0.010529621280330092], [-0.004666693370269736], [0.00331974079553202], [0.00915565005118848], [-0.0034227731013961034], [-0.018954077472946074], [-0.004537288949706279], [-0.029745002590866224], [0.0157356757844184], [-0.00729909832159789], [0.013034002205517627], [-0.0060629168687093], [-0.010023642129482112], [-0.0024085471766068975], [0.006489945558744895], [0.00014977860208143044], [0.006874109628359569], [0.008840066297345564], [-0.012263014167929114], [0.018150068733646704], [0.022431793098169204], [-0.00469669254276919], [0.00342421888740751], [-0.0011696983745163264], [-0.011085136339036196], [0.0078457066662118], [0.0020343050483940697], [0.0016426028312554496], [0.01587956163481406], [0.004298234270777168], [0.004538455399224348], [0.01331097495339328], [-0.01024545973509273], [-0.012662941732426925], [-0.0034948948546604337], [0.009940128937025236], [-0.001340772443131919], [0.002072876177480097], [0.0048281420528538095], [0.012635835236880673], [-0.008837974848265808], [-0.013353183013538557], [0.0005269113348293371], [0.009817564177278105], [-0.020843949692683477], [-0.004711950417798264], [0.01399105712321317], [-0.006689821978702747], [-0.0014735590463056374], [-0.019748687214890284], [-0.015705565791726012], [0.01026442343211066], [0.0032404306102599948], [0.029634350690044404], [-0.0059831082749717155], [-0.002812310116962488], [-0.0077747631629091285], [0.0020161332952053413], [-0.0017967537208500247], [0.004327351441617732], [0.002194099199900493], [0.015189459835781788], [0.002493226187050117], [-0.008632731766097914], [0.0019722123041576753], [0.0023212328056731834], [0.0015064528813539832], [-0.004160274118585877], [0.019470179122038057], [0.011293033300971008], [0.0005994491394189046], 