{  
"model":
	{
  "layers": [
    {
      "type": "CONV",
      "activation": "RELU",
      "weights": [
        [
          [
            -0.0099695859833843,
            -0.007779446199176,
            0.0027198545041987
          ],
          [
            0.0034156403044524,
            0.0042841311189901,
            -0.0038204795024936
          ],
          [
            0.0077355187081342,
            -0.0024796340081616,
            0.0029934469550615
          ]
        ],
        [
          [
            -0.00323214230718,
            0.0052290197634185,
            0.0065262898327217
          ],
          [
            0.0038512451680307,
            0.0067770562671378,
            0.0055658951041452
          ],
          [
            0.0029488035692195,
            0.0088915404001188,
            -0.0066469970225714
          ]
        ],
        [
          [
            -0.004070189867712,
            0.0050756278942827,
            -0.009489227343984
          ],
          [
            -0.0012047729609645,
            0.003728104894445,
            -0.0064835807626302
          ],
          [
            0.0087971473468533,
            -0.0042619863366292,
            -0.0058279152923068
          ]
        ]
      ],
      "biases": [
        [
          
        ]
      ],
      "convParams": {
        "stride": 1
      }
    },
    {
      "type": "CONV",
      "activation": "RELU",
      "weights": [
        [
          [
            0.0070308774342679,
            0.009044181444749,
            0.00017840918160355
          ],
          [
            0.0053483614109533,
            -0.0076096177239277,
            0.0044168437509861
          ],
          [
            0.0039835244876543,
            -0.00070998436169763,
            -0.0099358775066409
          ]
        ],
        [
          [
            0.0027117196910802,
            0.001556681425061,
            0.0027328352798337
          ],
          [
            -0.00089555323279236,
            0.0047018170518712,
            -0.0078746070086322
          ],
          [
            0.0064633707338096,
            0.0098766338661679,
            -0.0087431870668287
          ]
        ],
        [
          [
            -0.0099083369645546,
            -0.0093004686766222,
            -0.0037246698405937
          ],
          [
            -0.0018022999103854,
            -0.0056397975182263,
            0.0015984226404179
          ],
          [
            -0.0023137577510716,
            0.0030234722031136,
            -0.00036193418778561
          ]
        ]
      ],
      "biases": [
        [
          
        ]
      ],
      "convParams": {
        "stride": 1
      }
    },
    {
      "type": "POOLING",
      "activation": "NONE",
      "weights": [
        
      ],
      "biases": null,
      "convParams": null
    },
    {
      "type": "FLAT",
      "activation": "NONE",
      "weights": [
        
      ],
      "biases": null,
      "convParams": null
    },
    {
      "type": "HIDDEN",
      "activation": "NONE",
      "weights": [
        [
          [
            0.010847141715178,
            0.0016994029215235,
            -0.02015608002137,
            0.009363191123908,
            0.003739229141331,
            0.005439918534068,
            -0.0039007866902069,
            -0.0051620886019932,
            -0.0019671147537934,
            0.021636900316582
          ],
          [
            0.011778176110824,
            -0.0012922758323413,
            0.016223476754141,
            0.025175869894335,
            0.008308217580711,
            0.0093400405303533,
            0.020893918933087,
            -0.017991342470741,
            -0.018815676778068,
            -0.015146371007642
          ],
          [
            -0.0015055888942305,
            -0.002457041749495,
            -0.011764038394882,
            -0.028034917694034,
            -0.00043940544275282,
            -0.0039705493931442,
            0.014175081199684,
            0.0022120254025383,
            -0.0085444752161692,
            -0.0083673253316591
          ],
          [
            0.0054044446643454,
            -0.010371969158373,
            -0.01083228022294,
            -0.016367268272656,
            0.0061367076572618,
            0.015065729598811,
            -0.0017839080653874,
            -0.0098877406822507,
            -0.011700045926049,
            0.007054140099391
          ],
          [
            0.0079438752205356,
            0.0038959768450779,
            -0.0022491644151624,
            0.0019741982272731,
            0.0057595418251614,
            0.0042627892266835,
            -0.0091036799972734,
            0.0093958984535544,
            -0.0040040417166353,
            -0.015264248081758
          ],
          [
            -0.015763042006261,
            -0.023986725129275,
            -0.0014155846327821,
            -0.004541652932206,
            0.01076784476863,
            0.0052253153617578,
            0.0055678698033188,
            -0.0021295255280198,
            0.019009989694965,
            0.012258037365744
          ],
          [
            -0.0012570355805982,
            -0.0042849359433572,
            0.0090874557646606,
            -0.013821569376319,
            0.011597966758966,
            0.0062392929202173,
            0.0101000618901,
            -0.00048364455419418,
            0.0073276957427978,
            0.0092581031564851
          ],
          [
            0.006315445453326,
            -0.004595664404212,
            -0.0091559982121376,
            -0.002550265081343,
            -0.0089710904296505,
            -0.0067534454359487,
            -0.0095552442030723,
            0.0099767804536627,
            0.0071668422004075,
            -0.0069908992538251
          ],
          [
            0.0039373669470809,
            0.0075831670435623,
            0.001877122208884,
            0.023937675142693,
            0.016082647010409,
            0.024208057784875,
            0.015973534322796,
            0.001735173182558,
            0.00076996523732452,
            -0.0027667580751966
          ],
          [
            -0.012808013026483,
            -0.0028940620964372,
            0.010440914182019,
            -0.00756515023142,
            0.0093291486508327,
            0.0034036180152808,
            -0.012711035708082,
            -0.0046903516514507,
            -0.00417927976535,
            -0.013700406687804
          ],
          [
            -0.018749772811556,
            0.00039516827346138,
            0.00076842286400675,
            -0.0096344965782611,
            -0.0061721179881928,
            0.0073352995078828,
            0.0069411105592277,
            -0.0023266252304437,
            -0.0034996896717251,
            0.010649745150371
          ],
          [
            0.015284567416787,
            0.0087946963533361,
            0.01197621354069,
            -0.02134026860826,
            0.0028729368681083,
            0.010701079222554,
            -0.0077729404782917,
            -0.014266011402897,
            -0.010886653291327,
            -0.0038207024788962
          ],
          [
            -0.0074291554227054,
            0.011331811337821,
            0.0033768990576805,
            -0.0041072054202042,
            -0.010324802153399,
            -0.01741764989506,
            -0.0034345047402137,
            -0.0020205306885353,
            -0.01077170787024,
            0.010632216604428
          ],
          [
            -0.0073628010074828,
            0.00071992490989077,
            -0.012485849044416,
            0.0044541738532601,
            0.00047306832425358,
            -0.011744623373504,
            0.00088320133952063,
            0.010079817454542,
            -0.00421486330101,
            -0.013032525214432
          ],
          [
            -0.0042538201498287,
            -0.011953809794746,
            -0.0060839590042851,
            0.0029286106292513,
            0.0028715633324799,
            -0.0019189994670171,
            -0.01397598837778,
            0.022286051087869,
            0.0017381438799907,
            -0.0050647513053999
          ],
          [
            -0.0068506482593449,
            0.0026042189039213,
            -0.01870574225649,
            -0.0028731884828274,
            -0.00045556649989274,
            0.0053184715716547,
            -0.010597711808301,
            0.008516354735093,
            0.017273081372325,
            0.019335622937671
          ],
          [
            0.0045433245077807,
            -0.0054907805479983,
            0.015394290195693,
            0.0026258111874958,
            0.016176157406874,
            -0.013969329499641,
            -0.011381079938842,
            -0.0032481050545739,
            0.01107697588089,
            -0.0086422812994391
          ],
          [
            0.0068111123027213,
            0.0074970578235735,
            -0.010671766675425,
            -0.023246970321833,
            0.023919605053426,
            -0.0089440332357861,
            -0.021780927300594,
            0.0047532964952863,
            0.013066599899823,
            -0.0055848788284437
          ],
          [
            -0.0058784596812307,
            -0.0045792916657489,
            -0.017619951485317,
            -0.0013524298056419,
            -0.0040969797313552,
            0.015538975570402,
            -0.0032827298638997,
            -0.017666137621638,
            -0.008648163240873,
            -0.0067860523947423
          ],
          [
            -0.0075111900708921,
            0.014374641453062,
            0.0095073992551221,
            -0.0024668752764838,
            0.0043480828660367,
            -0.00051298343624016,
            -0.015407684319473,
            -0.016656427348308,
            -0.00083976494710405,
            0.0051877179316874
          ],
          [
            -0.0015860822026097,
            0.016012144858578,
            0.0056737044965469,
            0.0072398800054322,
            -0.0014629449633576,
            -0.00070783362333466,
            0.0083846389686183,
            -0.0016217546258559,
            -0.0035403099056719,
            -0.0015897339965867
          ],
          [
            -0.020547926407389,
            -0.0020227184738322,
            -0.010675185492704,
            -0.002894943280402,
            -0.008912130721595,
            -0.0086823076549214,
            0.0020595978722342,
            -0.0004075602385711,
            0.011373473736219,
            -0.014129861116851
          ],
          [
            -0.015938391125873,
            0.0034665258739119,
            -0.0094477513681039,
            0.0076120501216756,
            0.0017580225197789,
            0.012549785364934,
            0.0099210803562609,
            -0.0061015996475408,
            -0.015243225523702,
            -0.00428728445808
          ],
          [
            -0.0086295147646224,
            0.011885149527078,
            0.0058296460670105,
            0.014653142823495,
            -0.018569655760374,
            -0.015313003695947,
            -0.012751521473185,
            -0.010898900954448,
            -0.002348686367421,
            -0.01790445829713
          ],
          [
            -0.011318590025951,
            0.0049506426921787,
            -0.0053736110752178,
            0.012987709964157,
            0.0017023438269165,
            -0.017933019916054,
            0.0049732040268471,
            0.013177519899908,
            -0.0077910059560398,
            -0.0047931453513268
          ],
          [
            -0.0097891987469834,
            0.016405240917943,
            -0.0074536613984439,
            -0.0013666962797822,
            0.0058937291220671,
            0.0030499680100692,
            0.0037277039061134,
            -0.01288570342274,
            -0.0026542572354768,
            0.011865169734157
          ],
          [
            -0.0079129693677838,
            0.0043996380940658,
            -0.0031411323602935,
            0.001017870848032,
            -0.0075800286771335,
            0.0045403529941218,
            0.0066418852684042,
            -0.014066146086185,
            0.010523642278414,
            -0.023695294690045
          ],
          [
            -0.0022159979502256,
            -0.0048328806355649,
            -0.0097464609840278,
            -0.0026992620595175,
            -0.0054228106812523,
            -0.00037159365078404,
            0.023061058095901,
            0.002258071967365,
            0.010756333328191,
            0.0039759078789433
          ],
          [
            -0.015130035230057,
            0.015944539242052,
            0.0012084117579038,
            0.00015006962235951,
            -0.0072086413693617,
            -0.0015626235263955,
            0.012806805146598,
            0.007509902572673,
            -0.0060038645220132,
            -0.011637721131825
          ],
          [
            -0.0073092540151592,
            -0.0089747785811942,
            0.0047801407169165,
            0.0042491815723641,
            0.027174209529125,
            0.0068354079705686,
            -0.014837713837883,
            0.0057733347858752,
            -0.015705486463941,
            0.0091817584635977
          ],
          [
            0.0095655115092035,
            0.016051953347094,
            0.0029599965516123,
            0.00048561527863012,
            0.0030261830629353,
            0.015813934317035,
            -0.0051753937728313,
            -0.012367450231658,
            0.0029302160884934,
            0.0085039237188546
          ],
          [
            -0.021273627221213,
            0.021217294677959,
            -0.0025133099645051,
            7.0651119940081e-5,
            0.016062840972716,
            0.016509531743391,
            0.0052683916303835,
            -0.0040404891236224,
            -0.002086497766644,
            -0.0063335461485535
          ],
          [
            -0.0038613759149343,
            0.0073351972288801,
            0.023672587581926,
            0.0030083989827725,
            0.0047808849094065,
            -0.005837216637595,
            -0.019332647146456,
            -0.016542227075139,
            -0.013019788338837,
            0.0040432527885072
          ],
          [
            0.012800700243365,
            -0.00906015664905,
            -0.021627535913698,
            -0.001514228426534,
            0.001783112050635,
            0.01782411875544,
            0.0069219243039602,
            -0.00056979404578727,
            -0.0054023469855998,
            -0.015047948655449
          ],
          [
            0.0054799351284715,
            0.0017709030036002,
            0.0080360394706657,
            -0.012734431086341,
            -0.0013663151879438,
            -0.0025550991820661,
            0.0093541175072356,
            2.4058617313852e-5,
            0.0041592588592964,
            0.0039722190941514
          ],
          [
            -0.0020312631787067,
            0.0065666739204348,
            -0.010007488640397,
            0.0091516122046795,
            0.010237838448893,
            0.0010576710451641,
            0.0057042427998848,
            0.0021596537290256,
            0.0054401735145101,
            0.0021267148470243
          ],
          [
            0.0058429456614225,
            -0.0062881668961833,
            0.0058179629051879,
            -0.0092809635806359,
            -0.017701650941334,
            -0.0035483818899644,
            -0.0066729404394034,
            -0.01277612902459,
            -0.0049217715487483,
            0.0033923328253523
          ],
          [
            -0.012763802931221,
            -0.0099357602682904,
            0.0094051242335516,
            -0.018064523356296,
            -0.0049296486043997,
            -0.010418205682795,
            0.012769686785235,
            0.0034649606045792,
            -0.0052716802993232,
            -0.016208552675852
          ],
          [
            -0.0057743619253318,
            1.2457285086775e-5,
            0.0097461875119631,
            0.015203589554695,
            -0.0073919812681608,
            -0.0024837632389533,
            -0.0082465786826085,
            0.0009253754452362,
            -0.0062658647740191,
            0.0078199270536973
          ],
          [
            -0.016333924750191,
            0.011404924647541,
            0.012594801543124,
            0.0077859252339206,
            0.0057096063411987,
            -0.0016996692311825,
            0.005861486931852,
            0.012715906756456,
            -0.018040829234634,
            0.00030102322609309
          ],
          [
            0.011379797360066,
            -0.0061129215241083,
            0.0012640687356304,
            -0.00074393296657064,
            0.0028202436792452,
            0.0050441364999174,
            -0.0046012677618928,
            -0.0013434503997678,
            0.002900683857885,
            0.013026590478637
          ],
          [
            0.00024982548140481,
            0.0049720050903699,
            -0.0043465947305371,
            0.00031219738851019,
            0.001899981291265,
            -0.0048665717664244,
            0.0019197968197561,
            -0.0087199416164679,
            0.012821257593976,
            0.0072884335715771
          ],
          [
            -0.0089653051043511,
            0.00019690098261276,
            0.0030407348778495,
            -0.0045655808140832,
            0.010945571988381,
            -0.010094064404398,
            -0.0058434717485171,
            0.0030173550002561,
            0.010608413548558,
            0.014261756836888
          ],
          [
            -0.0052089600698235,
            -0.010697575951793,
            -0.013516407930579,
            -0.0040465964118545,
            0.0072560221674742,
            -0.0051587987640206,
            0.0013153938020079,
            -0.012093830432228,
            0.020768282324547,
            0.0089441804904569
          ],
          [
            0.0078078046968832,
            -0.011475523354214,
            0.010787054854303,
            0.026727900376629,
            0.01127940010615,
            -0.013054570543101,
            0.0027141038218359,
            0.0058196934651005,
            -0.00073504006997312,
            0.0020717368305698
          ],
          [
            -0.0067863849512046,
            -0.015374257110048,
            -0.0098858232951665,
            0.0043723882307194,
            -0.017788125376172,
            0.0066780814353899,
            -0.0087942892343446,
            0.00012507285969128,
            -0.017552260091372,
            -0.00022206620500047
          ],
          [
            -0.00054475216380008,
            0.0029991546519288,
            -0.0058399311659695,
            0.0046031492100271,
            -0.027512484667971,
            -0.017264273502949,
            0.02296817949158,
            0.011772952745347,
            0.0003117803139597,
            0.022311094133679
          ],
          [
            -0.018731007732314,
            0.0060147633492574,
            -0.0099371325793647,
            -0.0056371334044933,
            -0.0057136020697714,
            0.0025857857343478,
            -0.015860744671197,
            0.0022328537541831,
            -0.018525583310422,
            0.00044218258146745
          ],
          [
            -0.01169047956719,
            0.012028221168704,
            0.021437760531176,
            -0.0056885709434866,
            -0.010438534706622,
            0.026854997464213,
            -0.0087036864634543,
            -0.010970461508763,
            -0.0038911356525178,
            0.0014576715070462
          ],
          [
            0.007660595586473,
            0.0059248474525006,
            0.00023561822750885,
            -0.00065167037694764,
            0.0055900086802525,
            -0.011321008945338,
            -0.0024382636419879,
            0.019994523240747,
            0.0021729922100452,
            -0.01425367372045
          ],
          [
            0.0063354611600117,
            -0.013311268812378,
            -0.0057732481807875,
            0.014331116431279,
            -0.0041242786136456,
            0.0063550950795073,
            0.014698517701371,
            0.0034613454728141,
            -0.0043874583564334,
            -0.0089113301336115
          ],
          [
            0.0094344640773497,
            0.0014169311367188,
            0.0054787904315039,
            0.013057754626595,
            -0.011340105876289,
            0.011890290413662,
            -0.0014067972231268,
            0.012934652117197,
            -0.0066827187299259,
            0.0099531128281397
          ],
          [
            0.003453124852487,
            0.019284895102701,
            -0.0048135289609603,
            0.0049999832671066,
            -0.0032885139512135,
            0.0069988456491643,
            -0.003959557895346,
            0.0034565161891994,
            -0.020042514061886,
            -0.0037931374462329
          ],
          [
            -0.0038451615812183,
            -0.0018161883135954,
            -0.015955674587846,
            -0.0074020671351512,
            -0.0038606988257467,
            0.013706304772453,
            -0.01216662005961,
            0.010050115096361,
            6.9910982529411e-5,
            0.011188957017226
          ],
          [
            0.012044914367087,
            0.0033860614308794,
            0.0048994928497122,
            -0.015589722324171,
            0.003038466174674,
            -0.014296026262449,
            0.0035127471335273,
            0.0037707133766611,
            0.02293267111554,
            -0.010547492264865
          ],
          [
            -0.0096622222325521,
            -0.0023368937491398,
            -0.0035735446255043,
            -0.016877082889294,
            -0.011976258233394,
            -0.0077972247091283,
            -0.017298219233664,
            0.0084799486754156,
            -2.3206667000077e-5,
            -0.0001142830897004
          ],
          [
            -0.014736280914772,
            -0.02450934412713,
            -0.014667164161264,
            0.0029545485145743,
            0.010465920025332,
            0.0043571703411354,
            -0.011872134704439,
            0.0088221027975453,
            0.0078522892425612,
            -0.012980080229722
          ],
          [
            0.0058643988161082,
            0.010509623928139,
            0.0019886711994802,
            -0.0084483563068333,
            0.0044553552013482,
            0.0026864513011346,
            -0.0015366609115085,
            -0.004002120028464,
            -0.0063515596088965,
            -0.0036320907750916
          ],
          [
            -0.0015286357035942,
            0.005987389532783,
            0.0057540241480836,
            0.013524584145573,
            -0.00049460327155365,
            0.0022251326177817,
            -0.013830785711904,
            0.014265852205004,
            -0.010528043515569,
            0.011276546361281
          ],
          [
            -0.0087895479070686,
            -0.0011862730786594,
            -0.0040170746778615,
            -0.00016560598196879,
            -0.00075873208341912,
            -0.0067218899266087,
            0.010575275201602,
            -0.011197339970944,
            0.0069796206521391,
            0.0046920169708261
          ],
          [
            -0.0075114180312136,
            -0.00051358618935578,
            -0.0013799148599211,
            -0.0086972669130637,
            -0.010189726156123,
            0.011655990878134,
            0.024884650852822,
            -0.010714039358085,
            -0.0076927541753963,
            -0.0082848706190885
          ],
          [
            0.014648752289917,
            -0.0066684375241576,
            -0.019951260205734,
            -0.010482580934703,
            -0.022056293054367,
            0.026036936640929,
            0.0054501160711306,
            0.016498743750665,
            0.0086946700934615,
            0.023595486510155
          ],
          [
            0.015387736208452,
            -0.0091608173855539,
            2.1015033935065e-5,
            -0.015586676626331,
            0.004966750466154,
            -0.0049755412176676,
            -0.012832787166444,
            0.0072967871372106,
            -0.0096718984791269,
            0.0057792799959675
          ],
          [
            -0.003106523913706,
            0.0026005203215982,
            -0.012928823231801,
            -0.0012255871983812,
            -0.00066544784365427,
            0.0044487968158845,
            0.017582101253103,
            -0.0092344477731522,
            -0.012774664696023,
            -0.001020259208332
          ],
          [
            -0.0072423029573651,
            -0.016353760156951,
            0.0023957794930517,
            0.0052641044550416,
            0.013342728862799,
            0.00089492031848665,
            0.0076621846832681,
            0.0077439967909749,
            -0.0021655842658025,
            0.010167851349615
          ],
          [
            0.0049912449925459,
            -0.0013190208292727,
            -0.002778709176973,
            0.010867843673772,
            -0.011940447079867,
            -0.0056039638240336,
            -0.0053482718554033,
            0.0016163514773277,
            0.012628322075615,
            -0.0071849208706411
          ],
          [
            -0.0063255104284114,
            0.00024927651666982,
            0.00072979740250107,
            -0.0060103599527072,
            -0.011827511758417,
            -0.00191685265008,
            -0.0024073288507788,
            0.0091806698636135,
            -0.0063124554921071,
            0.0078148535184659
          ],
          [
            -0.017844627010424,
            -0.0039305195924904,
            0.011772338284842,
            0.002544841160052,
            -0.00094377326297478,
            0.011107094627844,
            0.0016112787672347,
            -0.018778156015652,
            -0.00024547265212789,
            0.0059596489914764
          ],
          [
            -0.015422585390783,
            0.00044218305623795,
            0.0005039849562199,
            0.010621721862564,
            0.018853033125852,
            0.0011141705338753,
            -0.0011357523564501,
            0.0036389283780368,
            -0.0074460525821343,
            -0.0043292237517516
          ],
          [
            0.0055536414169982,
            -0.010651440767557,
            0.018513488965301,
            0.013566061412894,
            -0.018609079926976,
            0.0099881760115648,
            0.0091063980189083,
            0.0044548737427803,
            0.0047838827803231,
            -0.013281626941665
          ],
          [
            0.00060340780769105,
            -0.0050833009330766,
            0.012452003440651,
            -0.012487230693798,
            -0.00049947195555248,
            -0.006943636438625,
            0.020485713168543,
            -0.0055924325977985,
            -0.014174209960326,
            0.0070440244667366
          ],
          [
            -0.013056303083299,
            0.01161489995394,
            0.010994969350866,
            -0.00081619420131964,
            0.0085732023489883,
            0.00016604379325643,
            -0.013025796268276,
            -0.0031926144618039,
            -0.0061965212420134,
            -0.01530944880574
          ],
          [
            -0.0019949987942579,
            0.012318825773732,
            -0.00058587877989766,
            -0.019728045400179,
            0.0036316380576759,
            0.0022501948572956,
            -0.0066515255021602,
            0.017572501858806,
            -0.003998975584529,
            0.0015371230833363
          ],
          [
            0.0061075746736327,
            0.011733976918009,
            0.0079097969555745,
            -0.014369678733704,
            -0.0073757370622203,
            -0.0041286962342211,
            0.0049485366860082,
            0.0024738578825333,
            0.011487126420163,
            0.0083223127230256
          ],
          [
            0.020463173645184,
            0.01601073236074,
            -0.0030517101796192,
            0.010443598165396,
            -0.0055834648399866,
            0.00082663413543518,
            0.010239667236267,
            -0.016029131781305,
            -0.0033084990628871,
            -0.0085579805770763
          ],
          [
            7.7737563241942e-6,
            0.0024763340900809,
            -0.015593409093789,
            0.0076078451528427,
            -0.011264252897868,
            0.010667447036984,
            -0.020356202471655,
            -0.0023108818534407,
            -0.0044794616352596,
            -0.00044945748507877
          ],
          [
            -0.01380770958086,
            0.0019018985113059,
            0.0062282775098388,
            0.00010313234606442,
            0.01018465698257,
            -0.00029642932875404,
            -0.0040956489165492,
            0.0058611224597435,
            -0.0015294079458166,
            -0.0021684550453718
          ],
          [
            0.013436992439095,
            0.002122201374896,
            -0.019886903730254,
            -0.0025022690124778,
            0.00072473426828916,
            0.0028089698777897,
            -0.0073979543351906,
            0.00092523088558084,
            0.0032078188956551,
            0.00082085953467263
          ],
          [
            -0.0097475506973621,
            0.0091825307180102,
            -0.0067261422570995,
            0.014610765479361,
            0.0080066074449871,
            -0.0041093414695332,
            0.010968166396287,
            0.0065406368363694,
            -0.00038324133051514,
            -0.0040907049982941
          ],
          [
            0.00034879956133651,
            0.01961139917734,
            0.0071893471930347,
            0.0020340807829844,
            0.0030452174520045,
            0.0042389872763807,
            0.0030441472866397,
            -0.0050920104824398,
            -0.010889765231761,
            -0.010277985063913
          ],
          [
            -0.01814786481289,
            0.0096819549779334,
            -0.010227283902481,
            0.0031452588702115,
            -0.00077847934227018,
            -0.012393266665593,
            0.0039775575176002,
            0.013304316859349,
            0.002207695949119,
            -0.0029794369055321
          ],
          [
            0.0097938141071108,
            0.014713855078652,
            0.0029906280183678,
            -0.01813261303048,
            0.01058254614619,
            0.015755400639493,
            0.019452110935436,
            -0.016403172993469,
            -0.011318412259121,
            0.00031349414750549
          ],
          [
            -0.0041384876237578,
            0.022000741137168,
            0.021674977795011,
            0.00043812932231739,
            0.0060377860309344,
            0.00049755330794023,
            -0.0015960611093327,
            0.016315105244053,
            -0.0089550889789508,
            0.0012542334798056
          ],
          [
            0.0050328654763206,
            -0.018345989118954,
            -0.013783550695137,
            0.0028256117480744,
            0.0042097703295371,
            0.0012575527067184,
            7.8415390160185e-5,
            -0.022883135461836,
            0.0043005149249576,
            0.010909462755916
          ],
          [
            0.0082288741085065,
            0.015516421311154,
            0.0010559014467506,
            0.009101507268774,
            0.011949725792524,
            -0.0096007618981023,
            -0.010967367828588,
            -0.0040166307389796,
            0.0064653567826585,
            -0.010011807777564
          ],
          [
            -0.0030183188060489,
            0.0078805973402064,
            0.0097421402935295,
            -0.018521426633294,
            -0.0017549642589462,
            0.002575757440307,
            0.004456653894901,
            0.010349898060607,
            -0.0059937017828683,
            -0.010150268474961
          ],
          [
            0.0053696672512488,
            -0.0065154323982318,
            0.011868770449929,
            0.0059372339655007,
            -0.0011366183748257,
            0.0056611164097086,
            0.006258664405239,
            0.022240435082604,
            0.012199392389646,
            -0.022458306705195
          ],
          [
            -0.016338444531383,
            -0.011874033852668,
            -0.020478893887034,
            -0.016854440559705,
            0.0059170417406356,
            -0.01312200925706,
            0.004158885701711,
            0.010106779078345,
            0.0061407025020503,
            0.015904018473092
          ],
          [
            0.0074227237837151,
            0.0082266498238653,
            0.0080977885479384,
            -0.0072790350863127,
            -0.0028349248198289,
            0.017121701551988,
            0.0091027335616547,
            0.0095383318057995,
            -0.013159787269103,
            -0.01482995224711
          ],
          [
            0.00051024264891564,
            0.0020149828578829,
            -0.0099754251428186,
            0.013288623040621,
            -0.010113718685718,
            -0.00022228995905527,
            0.012630210045889,
            -0.013945007886743,
            0.016343215328179,
            -9.1760773420791e-5
          ],
          [
            -0.0098557800275285,
            0.0034446687841451,
            0.014463286827876,
            0.0011361523866936,
            -0.0027295684525211,
            -0.01738576506642,
            -0.005676874493461,
            -0.011843572762973,
            0.0029130492987705,
            -0.0088392539561516
          ],
          [
            0.0035043206133094,
            0.00090128911454388,
            -0.0029151244963905,
            -0.0098770908418279,
            -0.017854359854457,
            -0.00334223932682,
            -0.006890005700091,
            -0.0077352206330901,
            0.00067972810655565,
            0.012724969695954
          ],
          [
            0.0058002380067674,
            -0.015774140021936,
            0.0058811687477085,
            -0.016688111653259,
            0.0061963072426465,
            -0.022898419513983,
            0.010409999604973,
            0.0057905563083502,
            0.0099915703165707,
            -0.017342543102036
          ],
          [
            -0.0089828641465714,
            0.0060095042388497,
            -0.015439107281786,
            -0.0064455263075055,
            0.0029910474181743,
            0.0017026636458279,
            0.022259468232806,
            -0.0057121197192364,
            0.0018947777506749,
            0.0046721535960115
          ],
          [
            -0.0021881433824745,
            0.013962608447493,
            -0.030161167831131,
            0.0028589915404769,
            -0.004725656404065,
            0.011741991864942,
            0.0018503944094914,
            -0.0032872183095552,
            -0.010950972279148,
            0.0053438758317669
          ],
          [
            0.016992018113112,
            -0.0040720166698838,
            0.0030384585234147,
            -0.0029269991308735,
            0.0058034626260627,
            -0.0029803606117397,
            0.013772371892568,
            -0.010521177248053,
            -0.0011760704572782,
            -0.0046493836306963
          ],
          [
            -0.00032824459055779,
            -0.0018670395940789,
            0.0073712552582263,
            -0.00068419481301199,
            0.0060651108666591,
            -0.02340146013244,
            -0.00624359684593,
            -0.0063205757065631,
            -0.0093560847623185,
            0.0037403411905668
          ],
          [
            0.00094103364986797,
            0.00072249600318516,
            -0.0033902587881606,
            -0.0064093942632208,
            -0.0094467464222241,
            0.0074733791727797,
            -0.0093142468890527,
            0.0095360160599681,
            -0.012076960474015,
            0.030558817836602
          ],
          [
            0.010782688662556,
            0.0029087890826708,
            0.0072058475915327,
            -0.00036837753960499,
            -0.010273523915443,
            0.0046165918564415,
            0.021235125340378,
            -0.0024767082928809,
            0.010199826304234,
            0.01305055669009
          ],
          [
            -0.010864192174469,
            0.0038655860422635,
            -0.013041848061986,
            0.024854522519649,
            0.006872126522409,
            -0.0035472080750047,
            0.0049547785308753,
            0.025373288384436,
            -0.0036886579364711,
            -0.013836007580507
          ],
          [
            0.0041989162679683,
            0.0073267822922579,
            0.0060440033638905,
            -0.014142579831923,
            -0.017820412358148,
            -0.022392044008986,
            0.015003834177383,
            0.014231137690551,
            0.009349429723906,
            -0.0047205948125281
          ],
          [
            0.0040096748082281,
            0.0041133324402657,
            0.014581585677552,
            -0.0031671521908576,
            0.00081273538585421,
            -0.018573473383598,
            -0.0087705893704726,
            0.00046995407897423,
            -0.014665842661335,
            0.0049183209023827
          ],
          [
            -0.0073258578178758,
            -0.002191999042908,
            0.0004625998880492,
            -0.00072871571191504,
            -0.019506092592813,
            0.0084917422231571,
            -0.019018801764057,
            -0.0018104656909184,
            0.0027029928248225,
            -0.0097869623092295
          ],
          [
            -0.0040128726802285,
            0.0038207010603733,
            0.006044708939088,
            0.0037124877555059,
            -0.00097395816206898,
            0.0086365786653109,
            -0.0017422631692338,
            0.0095028913113911,
            -0.0026033947136546,
            0.02266529002997
          ],
          [
            0.0039224663756413,
            0.0049367231419206,
            -0.0063444353930465,
            0.016984944638839,
            -0.0058534459283432,
            0.0063110075080837,
            -0.0038473027505436,
            -0.013262112796532,
            -0.0087774615022375,
            0.0087307874141091
          ],
          [
            0.0041641284107895,
            -0.0015721104038312,
            -0.019461530085048,
            -0.0099715726466332,
            0.009488660164078,
            -0.0067508809436731,
            -0.0055646649324781,
            -0.0033911146516025,
            0.018654646383786,
            -0.0046851329044156
          ],
          [
            -0.0029293041122375,
            0.0015255818111077,
            0.010227589273815,
            0.0030850368832886,
            -0.0058008952084823,
            -0.0066478658515269,
            0.0058458846540585,
            -0.012217133919903,
            -0.02631213172444,
            -0.0039207959120373
          ],
          [
            -0.0057188749484832,
            0.0036946642842992,
            0.0021817792027009,
            -0.0083035588882803,
            0.0016924889834396,
            -0.018110755533885,
            -0.017957644441526,
            -0.015241294451587,
            0.0063411228183143,
            0.00512696689118
          ],
          [
            0.0084337822894116,
            -0.0041745452182259,
            0.003987248220835,
            -0.0020007403134155,
            -0.0017513941080026,
            -0.0037676193752099,
            0.0043738642911346,
            0.014195623281711,
            -0.010368483784633,
            -0.011357649431331
          ],
          [
            -0.001664450595954,
            0.013043959033719,
            -0.016747097638611,
            0.0078520307072066,
            0.0063849894622499,
            -0.0032312756293553,
            -0.0043185724403246,
            0.0042401564130629,
            0.0054041929056262,
            -0.0096199920036541
          ],
          [
            0.025443160848607,
            0.002649425471693,
            -0.0081726944945385,
            -0.019051018899342,
            0.014828522777982,
            0.011034222573578,
            -0.0033940643135314,
            -0.0092906130598131,
            -0.016614667776997,
            0.0042770942465695
          ],
          [
            0.0033624623349382,
            0.0082904877094502,
            -0.0011391314249989,
            -0.012454007045923,
            0.0039659918126202,
            -0.0031361596422373,
            -0.0069028109621788,
            0.017559417994239,
            0.017008611674447,
            -0.0023371229220921
          ],
          [
            0.0068789240078159,
            0.0015625114370941,
            0.011601356650963,
            -0.0084614414615217,
            0.010394645301022,
            -0.005829135966017,
            -0.0048162193375644,
            -0.013842760392527,
            0.0050251983960677,
            -0.0087274825983535
          ],
          [
            -0.0046707544091132,
            0.0018359574130848,
            -0.01381828486167,
            -0.011884612106652,
            -0.00060634989001115,
            -0.0034307474866604,
            -0.018534146585215,
            0.00018234340622988,
            0.0028907641905413,
            0.0083231937856216
          ],
          [
            -0.0039688343014535,
            -0.0024977693128541,
            -0.0011846581772687,
            -0.015960375934046,
            -0.00039713997953951,
            0.0015327902989844,
            -0.001131674229682,
            -0.011605843159431,
            0.011147308364196,
            -0.0084309288303461
          ],
          [
            -0.018953481759536,
            -0.015419581824432,
            0.002533257953704,
            -0.018651719925856,
            0.010690809107414,
            -0.00050036514528676,
            0.0041406175263735,
            -0.017410024050341,
            0.0053129793859664,
            -0.0093983795124204
          ],
          [
            -0.0055260183753345,
            0.0060729258457886,
            -0.0075733042590344,
            0.0040081998410267,
            -0.0032709343941811,
            -0.0056660178448968,
            -0.0044421888910142,
            0.016764324930656,
            -0.0077928110353391,
            -0.012977739950107
          ],
          [
            0.0036460566006095,
            -0.0085938730305959,
            0.0028685128576305,
            -0.011026763872277,
            0.0021715422646876,
            0.016208270765103,
            -0.0054269194373582,
            0.016467328668065,
            0.0064223685924845,
            -0.011540841963794
          ],
          [
            0.018646442941045,
            0.01174972812456,
            -0.021966843106443,
            0.00098736803534319,
            0.0068469637244701,
            0.011869306328944,
            0.0096546516630065,
            0.012316703400741,
            -0.011755941756799,
            -0.0079039753314125
          ],
          [
            0.0032918905971632,
            -0.010339616220032,
            1.2920512935138e-5,
            -0.00076262855997741,
            -0.0077909203567513,
            0.014084257472567,
            0.00075475633983799,
            0.014821705687436,
            0.0056609428673423,
            0.0044492215160541
          ],
          [
            0.031608102821931,
            -0.010750977458066,
            -0.0059961466572757,
            0.0080356021447251,
            0.00022873190835954,
            -0.0080166941653444,
            0.0079576166806443,
            0.0050680727006964,
            -0.0038599975982129,
            0.010779192723116
          ],
          [
            -0.024034276025691,
            -0.021459296159582,
            -0.0013152716831842,
            0.013811681696267,
            -0.008900011859468,
            -0.0061433668976089,
            -0.0018281879995407,
            0.0024519614423033,
            0.017563904401897,
            -0.0020521571801122
          ],
          [
            0.017431660095411,
            -0.00076751748926381,
            -0.017293751434704,
            -0.0018303391912875,
            0.0071142459858822,
            0.0057836210384853,
            -0.0025971060190124,
            -0.02308840889054,
            0.0085401048232532,
            0.0096148993451936
          ],
          [
            -0.011226590192431,
            -0.00566011877433,
            -0.0027086281296459,
            -0.010849730471303,
            0.00061872896057506,
            0.022581459178472,
            0.0010203167969524,
            -0.0017609851131732,
            0.0042412302626764,
            0.006314774522035
          ],
          [
            -0.0034043421781754,
            0.0033046940116472,
            -0.016582594084074,
            -0.015916753324364,
            0.0073815309200403,
            -0.014993951499055,
            -0.0050379930720667,
            0.0017171235475052,
            -0.0059291773570335,
            0.007700187682146
          ],
          [
            0.00067999019758544,
            0.0097925959813206,
            -0.0078036060355395,
            0.00067842703578081,
            -0.012047635047005,
            0.01179126807982,
            0.0096210512327731,
            -0.011340613560706,
            -0.0068561228868795,
            -0.01176577723565
          ],
          [
            0.0063296039713358,
            -0.0084766914836364,
            0.0013583759744002,
            0.0037673039908279,
            -0.0032132764027197,
            -0.0065622811746858,
            0.0037750543057934,
            0.0055799049610898,
            -0.015174669003291,
            -0.011288573646626
          ],
          [
            0.0039990068114289,
            0.0013757971417608,
            -0.00074728751911853,
            0.012685460735177,
            0.01331632225272,
            0.0093596546829403,
            0.0073596403335862,
            -0.023845525941154,
            -0.010850876948654,
            -0.018458690367881
          ],
          [
            -0.0022659885983001,
            0.0018912731425745,
            -0.0096232861447381,
            -0.0055559852011451,
            0.003669377698483,
            0.0044885613365473,
            0.0091938558557905,
            -0.0054502763546926,
            -0.015215233131913,
            -0.0013368659106418
          ],
          [
            -0.0051730750774359,
            0.013772329997237,
            -0.0093357122163531,
            0.0080207290890703,
            -0.0025961609805169,
            0.0039875659843255,
            -0.0087073508948588,
            0.0057032907226734,
            -0.023414013539973,
            0.010384729319294
          ],
          [
            -0.011828993497072,
            -0.018510548650293,
            -0.012717645986779,
            -0.0075688035590496,
            -0.0013798762407088,
            -0.002782284587954,
            -0.0021067940688942,
            0.00028309332025278,
            -0.0046074397798355,
            -0.0024898250158539
          ],
          [
            0.015077234253926,
            0.0060676447932044,
            -0.0027876323340725,
            0.0027867382287411,
            -0.0028887446832916,
            -0.0014490197381832,
            0.0013180735178279,
            0.0014713517914937,
            -0.0080764633164637,
            -0.0081559870828611
          ],
          [
            0.025219399671049,
            0.0017899240358378,
            -0.0039258549325899,
            0.00031029019864258,
            -0.0071407503961423,
            -0.0081984043092641,
            -0.00052954269358458,
            0.018696916964939,
            0.0011623279024698,
            0.0042322994986209
          ],
          [
            0.01188383555729,
            0.012158250635716,
            0.0080695120049462,
            -0.0079758936391642,
            0.0090967779998891,
            -0.0065074824414618,
            -0.0079391458459231,
            0.010972628102334,
            0.0064574077886251,
            -0.0021725375140732
          ],
          [
            -0.0049660554733952,
            -0.023571756835008,
            0.015515595863849,
            0.015562518816793,
            -0.0053824759730729,
            -0.014094905748609,
            -0.021883495503188,
            -0.0015588105643256,
            0.0032574556538908,
            0.0059289379801348
          ],
          [
            -0.017685016384943,
            -0.0081938741679853,
            -0.01321818346021,
            -0.01704322119728,
            -0.0088829670143438,
            -0.01154559382637,
            -0.015759173641775,
            5.8915986653094e-5,
            0.0084379108600606,
            -0.012234106511703
          ],
          [
            0.0062432507954194,
            0.0074191095906848,
            0.0035886515629497,
            0.017539385099782,
            0.0077386094708575,
            0.0130196967441,
            0.0080782504282048,
            -0.0034848140166668,
            -0.013095664914533,
            0.0042598139630586
          ],
          [
            0.0077225236995485,
            0.0020008625039631,
            -0.00870899230866,
            -0.0035754538838819,
            0.026257173678231,
            0.00046772888433931,
            0.0048042575166234,
            -0.0079393954323935,
            -0.0039432747369998,
            -0.009425611538349
          ],
          [
            0.0062769343790169,
            0.0079236522236574,
            0.00059627626475234,
            0.0024655220116764,
            0.008218480261793,
            0.0013282161016149,
            -0.0044004183546038,
            -0.0051166752123637,
            -0.0008826709774888,
            -0.004388924953239
          ],
          [
            -0.0043955456661075,
            -0.0031622689171271,
            0.0053668745869915,
            -0.0081496538030196,
            0.0032836658497487,
            -0.00035795091696195,
            -0.0016731757682348,
            -0.0050905125317806,
            -0.012139628864623,
            0.0083623918530259
          ],
          [
            0.022233280764757,
            -0.00040990432589457,
            0.0067209242807331,
            -0.01344456016041,
            -0.0021275050707555,
            -0.011573978330688,
            -0.01303833779778,
            -0.0019917748296741,
            0.015802899797652,
            0.013211377051805
          ],
          [
            -0.0039089044651101,
            0.0025030276731995,
            0.0070527654965886,
            -0.0017595956344586,
            0.0062940165954647,
            -0.013974467455822,
            -0.00924043487514,
            -0.0014061870808306,
            0.0010729499769706,
            0.00076413543501907
          ],
          [
            0.0098526856112859,
            -0.0028901971000389,
            -0.019093565091161,
            0.028422801979765,
            0.011017704743209,
            -0.012508877922262,
            -0.016559322111692,
            0.0019757096788989,
            -0.0073880357406597,
            0.012546612342584
          ],
          [
            0.0070285777094703,
            -0.0099144438592351,
            -0.00016065036016741,
            0.00082712627184956,
            0.0064804734944389,
            -0.010190492563557,
            -0.018684513887178,
            0.0086308626047418,
            -0.0048748220822327,
            0.0086489680814576
          ],
          [
            -0.0071891250702764,
            0.021075740628787,
            -0.013276834289867,
            -0.012795442970726,
            -0.0087597157255579,
            -0.008313309439517,
            -0.00029122377429384,
            -0.0096653431522641,
            -0.0045014380313277,
            0.013702096536994
          ],
          [
            -0.011557825952849,
            0.0092093675072624,
            0.0034994727701768,
            -0.0037189816582766,
            0.0077575893619794,
            -0.00029910528181232,
            0.0046330313927251,
            0.010173858287677,
            0.0014664454761578,
            0.0086665493032522
          ],
          [
            0.00059862273596368,
            0.0021805798078594,
            -0.0042592703303464,
            0.0067739769424033,
            -0.0073488994589328,
            0.0014240791607453,
            -0.011685591733361,
            -0.0015789996256161,
            -0.014619157435889,
            -0.0067418123479995
          ],
          [
            -0.011108162633406,
            -0.0039440636941192,
            0.0083032589040705,
            -0.017507702961077,
            -0.0042504993608158,
            0.0014059540940621,
            0.0099963901391195,
            -0.0063272464728711,
            0.00010636926079424,
            0.019290897541283
          ],
          [
            0.0004182249710656,
            0.00064132429007824,
            0.022918612481016,
            -0.005474914223785,
            0.0070822425694025,
            -0.0081324966221889,
            0.0047087150950522,
            -0.0091087055257678,
            0.015333026562871,
            0.018441439692407
          ],
          [
            0.0024194329348161,
            -0.01224672534806,
            0.0062704269746975,
            0.0060523644588303,
            0.0018506502191338,
            0.0047279031908653,
            -0.0073968011869679,
            -0.0028290044220876,
            0.0094562880453944,
            -0.0038456383417463
          ],
          [
            0.005361971883098,
            0.014017238469919,
            0.0073118394370386,
            -0.013829389171462,
            -0.0035615521531574,
            0.010823311081274,
            -0.0051223538986413,
            0.0018082256090659,
            0.018690186914678,
            -0.0038119845548543
          ],
          [
            -0.0089877182414952,
            0.010699853890143,
            -0.010321306084879,
            0.012645283077143,
            -0.0019012233798267,
            0.010141420202495,
            0.0061705651263095,
            -0.01460091394617,
            0.01317553738804,
            0.0089348064752638
          ],
          [
            0.018131249396918,
            0.013858429907721,
            -0.00051050446910624,
            -0.01639855620134,
            0.0069301156472882,
            0.0025671223810829,
            -0.0015063892031392,
            -0.0013370476380542,
            0.00042993718826971,
            0.0039198126479922
          ],
          [
            -0.00092457492585168,
            -0.0014579425096693,
            -0.0081791933136506,
            0.0086669472879483,
            0.010252444545819,
            0.0067247403924842,
            -0.0012385475683874,
            -0.0051414244470257,
            0.00045385498884976,
            0.01201442611899
          ],
          [
            0.0051490734820701,
            0.00084099627609125,
            0.0061130993364183,
            -0.0018437313894599,
            0.0045046466812375,
            -0.0090891903465916,
            -0.021218095584516,
            -0.0068540836649812,
            -0.0011285965165547,
            -0.013411979662905
          ],
          [
            -0.003331629329945,
            -0.0003647985872114,
            0.018028630585286,
            0.0032884226950953,
            -0.019444293699032,
            -0.017638245957718,
            -0.0068928313879491,
            0.012901842978953,
            0.0060117161140718,
            -0.013348069210679
          ],
          [
            -0.00031092882885558,
            0.01201230607629,
            0.0054674581108215,
            -0.0054493798757536,
            -0.0048282402136635,
            0.011575015155032,
            0.0049738899040521,
            -0.01136918671975,
            -0.001715464367781,
            -0.0011914116387707
          ],
          [
            0.0054021119917071,
            0.010342807070464,
            0.0044157988716188,
            0.011473186447701,
            -0.0016167235028416,
            0.0083635966420973,
            -0.02301543470797,
            -0.0016345309018248,
            8.0010517744e-5,
            0.0040043504826817
          ],
          [
            0.023411939598753,
            0.0086224288304825,
            -0.00066265639798195,
            0.0076826087569686,
            0.0040868632492455,
            0.0027467946110672,
            -0.0075752571236375,
            0.009397800662708,
            -0.015763861895809,
            0.004384249217495
          ],
          [
            -0.0006798314713787,
            -0.0080680598630779,
            -0.0080923342142068,
            -0.0045482082668378,
            -0.011387675567618,
            -0.012788372706651,
            0.012442796582574,
            0.010386417825301,
            0.0042381116972854,
            -0.002136788806997
          ],
          [
            0.0034129219002467,
            -0.010400054202364,
            -0.0020758299282249,
            -0.022760614031683,
            -0.00085517317062957,
            2.3148054646547e-5,
            0.0016072894316088,
            -0.024454217589118,
            0.013038590623625,
            0.0014497362067192
          ],
          [
            -0.0045829413559619,
            0.016125968964358,
            -0.0021403462555483,
            -0.0092805762255417,
            0.00086435941540917,
            0.0034068189241505,
            0.012647071116687,
            -0.009542596611429,
            -0.018259350429005,
            0.0053391883767692
          ],
          [
            0.0019960104826207,
            -0.0025372016362077,
            -0.0052293778060435,
            -0.0064329513048011,
            -0.015353277108057,
            0.0029274895096553,
            -0.010083670688212,
            0.013001201315617,
            -0.01447534409009,
            -0.0033498185460217
          ],
          [
            -0.011462160554182,
            -0.008519537565887,
            0.011269670299627,
            0.0076060844483276,
            -0.012432577709543,
            -0.018361856072682,
            0.016323408280603,
            -0.012745305452532,
            -0.017676758879591,
            0.0049735171432065
          ],
          [
            0.0067653610368029,
            0.0075228318158994,
            -0.0018964886892869,
            -0.00014131478622331,
            -0.0066656177161586,
            0.0047437852911597,
            -0.00032489979763743,
            -0.0083698071809572,
            0.0048787746934637,
            0.010341034130512
          ],
          [
            -0.012383430615715,
            -0.011223315987154,
            0.010982123825363,
            0.004585918628128,
            0.009433245667075,
            0.016810280452405,
            -0.0052402723785324,
            -0.010302315762219,
            -0.0027268806017847,
            0.0074029096122192
          ],
          [
            -0.012168259370325,
            -0.01840029794126,
            -0.014615514032171,
            0.0019502577152959,
            -0.003422776767402,
            -0.0092613448499235,
            -0.0016753057815831,
            0.0019361146031827,
            0.012562806535532,
            0.0073630541803984
          ],
          [
            -0.00063812934141633,
            0.001289314346953,
            0.0081476030784968,
            -0.0033900436684303,
            -0.0014825360102993,
            -0.0058762301776257,
            0.0050938719836024,
            -0.0010896840940851,
            0.018994368256779,
            0.010519576410086
          ],
          [
            -0.024726488226326,
            0.00052118826714013,
            0.015646722529583,
            0.014329079604705,
            0.01858441610155,
            -0.0042479582238828,
            0.0061523755407982,
            -0.0019994009178953,
            -0.0092688219031953,
            0.013174884666751
          ],
          [
            0.0015208611922047,
            -0.004860820261952,
            0.0046665118317477,
            0.0066350888700392,
            0.00078380621383526,
            -0.014710939131924,
            -0.0048953042173754,
            0.00013000927289712,
            0.00015754689050856,
            0.023295701658518
          ],
          [
            -0.011780306839092,
            -0.007098540340109,
            -0.0053501815303242,
            -0.0014130488694457,
            0.00015482280332661,
            0.014364542034128,
            0.0016735120366856,
            0.017667573842538,
            -0.0085053340659496,
            -0.0073983983971847
          ],
          [
            0.023735534993677,
            -0.0038517943831087,
            0.008959700685887,
            -0.0085676305821921,
            -0.0082187569616188,
            0.012287350393259,
            -0.011473821501027,
            0.0098476340312858,
            0.0033732101801201,
            -0.0049033406056214
          ],
          [
            -0.016363064739908,
            0.011254298595197,
            -0.0016074890611909,
            0.00094119305183222,
            -0.0051789532116834,
            -0.013684517479419,
            -0.011867667789989,
            0.019048225623807,
            -0.012850241271659,
            -0.0073217594939009
          ],
          [
            -0.0067019932023413,
            0.0082351811882512,
            0.01051760358149,
            -0.0030615470171693,
            0.014314042958623,
            -0.023691153420004,
            -0.0038385217060426,
            -0.0065794060497804,
            -0.014182169200806,
            0.004840472047871
          ],
          [
            0.0022072037913296,
            0.0017963343829666,
            -0.0016411404746606,
            0.012949390617006,
            -0.0036639318154741,
            -0.0031847575901617,
            -0.011001387852991,
            -0.0035716740584949,
            0.01853563061639,
            -0.011016652083876
          ],
          [
            0.0075996235952234,
            0.020057958916499,
            0.0018649382983263,
            -0.0005799262963411,
            0.0036087187978278,
            0.002900097113276,
            -0.005418837160591,
            0.013285579091742,
            0.0034892803624367,
            0.011773486564895
          ],
          [
            0.0046683319526411,
            -0.0084521507546151,
            -0.0072326467427709,
            0.0069574127321956,
            0.0041506329809792,
            -0.0026829510677371,
            -0.0036069268479771,
            -0.00091825517857054,
            0.003217542555691,
            -0.0026607317594846
          ],
          [
            0.0081218023628514,
            0.016767862738284,
            -0.0015792093249975,
            0.0003647483131096,
            0.0039128663764688,
            -0.011380000571617,
            -0.012795395856883,
            0.01595317079888,
            0.014200148144451,
            -0.012305060797859
          ],
          [
            0.0066461685389898,
            -0.016241287158934,
            0.010143272030103,
            0.00098572426644873,
            0.02009621849013,
            -0.001528142258775,
            0.016119754666763,
            -0.0084510103750603,
            -0.0042146914493936,
            -0.02391075480412
          ],
          [
            -0.013560569543881,
            -0.02522872002352,
            -0.0034211614855314,
            0.0065099712968625,
            -0.014159165223701,
            0.0094894476217994,
            0.0059759974756256,
            0.024165592641235,
            0.0022261762796517,
            -0.014185799342929
          ],
          [
            0.0024422527196619,
            0.012688865936322,
            0.0014008857593947,
            0.0032580590730417,
            -0.0082575682000827,
            -0.0080515242167703,
            -0.0094915666899223,
            0.0054482650624175,
            0.023593227380895,
            -0.012293325473839
          ],
          [
            -0.013608504014534,
            0.0071553215433517,
            0.018042267944428,
            -0.0043728114528344,
            0.010257326005551,
            -0.0045102052216677,
            -0.0061119243708322,
            0.0019990975444712,
            0.00031349243932912,
            0.0034977527386575
          ],
          [
            0.015639230596056,
            0.0065462276588117,
            -0.010882972697068,
            0.0031537454059173,
            0.0019354864106503,
            0.0089889946270157,
            -0.0060018852357582,
            0.014873279673591,
            0.0031716322223238,
            -0.011704581949615
          ],
          [
            0.0055881041823152,
            -0.012407044133075,
            -0.0058950937682703,
            0.0097865203470586,
            -0.006299685387111,
            0.00075407620447843,
            -0.0032734951017757,
            0.017710071047531,
            -0.0086022768309641,
            0.013791399787441
          ],
          [
            -0.0050243992747536,
            -0.0025390328975231,
            -0.0031588998496614,
            -0.006757097066701,
            -0.002489208194171,
            -0.0085757480501469,
            0.0049763684689687,
            0.018365982347385,
            -0.0066704646125211,
            -0.0013451642011031
          ],
          [
            0.012390514272029,
            -0.012916610583805,
            -0.015508222097156,
            -0.0064651702012292,
            -0.013415725785286,
            0.0079396256783441,
            0.011203633143838,
            0.0024265737635983,
            0.0002125191598447,
            0.011827617507028
          ],
          [
            0.0021796174662025,
            -0.0059758834750523,
            0.00094690916156441,
            0.0054399659095013,
            -0.015525630108888,
            -0.0060443464440742,
            0.0096016162498133,
            0.0088298270095418,
            0.010664343530687,
            -0.0096790751344809
          ],
          [
            0.0048340001242495,
            0.00074518702850691,
            -0.017875316044131,
            0.0018641706640723,
            0.0013884494214563,
            0.0080652744943075,
            -0.025531665530114,
            0.00049438802163049,
            -0.0080732132378491,
            -0.0019221370399699
          ],
          [
            0.010807100432108,
            -0.0021231228711459,
            0.016009372230225,
            -0.015606278006155,
            -0.0087458907508708,
            0.006874738195846,
            -0.0013973823615164,
            -0.014554165042687,
            -0.0076447197614907,
            0.01387299459179
          ],
          [
            0.00082436301554573,
            -0.005195022841855,
            -0.019682771846402,
            -0.001611121601159,
            0.0049362068426013,
            -0.000951033010812,
            -0.0080249377784966,
            0.0054517115761116,
            0.013494106677274,
            -0.0076470661105033
          ],
          [
            -0.02299104461576,
            0.0028214148138157,
            -0.0067780893144039,
            -0.013257442941644,
            -0.0037568223954904,
            -0.0075524372525204,
            -0.010904335284508,
            -0.0015963631020224,
            -0.011783123030784,
            -0.014017169203708
          ],
          [
            -0.016029441373347,
            0.0062789217365291,
            0.0063235830459033,
            -0.006862289332241,
            0.0087351314388909,
            -0.0050530250029449,
            -0.00048926052939215,
            -0.0036979632391445,
            0.0022621001442743,
            -0.020808314789808
          ],
          [
            0.0046346410171768,
            0.0045547512627248,
            0.0020168179369062,
            -0.0066270406822095,
            0.0015563902574754,
            -0.00413404417765,
            0.0085676536955252,
            -0.01260786566198,
            -0.0049537742092208,
            0.014295564618809
          ],
          [
            -0.021598844852162,
            -0.00041939725225364,
            -0.011019118403126,
            -0.0022871752034396,
            -0.013372219001992,
            -0.0047962170294307,
            0.0025422323876132,
            -0.012299086672708,
            0.0097223236280225,
            -0.0079253005407745
          ],
          [
            0.0091246750198999,
            0.0045285869585974,
            -0.013241426900037,
            -0.017379833915645,
            -0.0014272379797006,
            -0.003174595582009,
            -0.0028933383844643,
            0.011611040117597,
            -0.0082147713168865,
            0.018620841049151
          ],
          [
            0.013791043535906,
            -0.0093468565507322,
            -0.00028123326298585,
            -0.0025240950792443,
            -0.0092762261658258,
            -0.00031495652729168,
            -0.0074058492773589,
            0.013394563652988,
            0.011581710671827,
            -0.0054008102372348
          ],
          [
            -0.0085010501140115,
            -0.01081583866088,
            0.0043153767798403,
            0.0089321326281117,
            6.6400723488691e-5,
            -0.0018190182201815,
            -0.0059185927366528,
            -0.024103717611296,
            0.020386458097981,
            0.0017074482931185
          ],
          [
            -0.0024536340827007,
            0.0012425841284773,
            0.0013304657501754,
            0.011923758937752,
            0.011475361001483,
            0.0028798149626489,
            -0.015051770791459,
            0.0031368238034526,
            -0.0048468223330247,
            0.015111643106484
          ],
          [
            -0.010344698753459,
            -0.004369933456431,
            0.0063345310425086,
            -0.00067175406483321,
            0.0047813307016289,
            -0.0047003587578167,
            -0.0077921322174252,
            0.0010752835577397,
            -0.0049488803724031,
            0.011649077090675
          ],
          [
            -0.011904694546971,
            0.0014920945721856,
            0.013132278808662,
            -0.006639880298203,
            -0.017033499799543,
            -0.011995261140524,
            0.01149325508735,
            0.0075453298983043,
            0.0040588312190402,
            -0.0054007875091152
          ],
          [
            0.011961759541657,
            0.013454504917098,
            -0.0082543888522889,
            0.015512373445966,
            0.015570515804833,
            -0.024796382902593,
            0.00065198362341024,
            -0.0043673545575259,
            -0.00051823495441345,
            0.019316342205848
          ],
          [
            -0.00025889698129031,
            0.00030965211755883,
            0.014520646059823,
            -0.0044944574053758,
            -0.0055135744205761,
            -0.010071031502741,
            -0.02038272759745,
            0.0041207741005641,
            -0.014426779412249,
            0.012802015369803
          ],
          [
            -0.012627052808485,
            -0.016500362370724,
            0.012458923961579,
            -0.0014054642755722,
            -0.011266537912353,
            0.0030575488529216,
            0.0012115333734636,
            -0.019517665373209,
            -0.0096050966050365,
            -0.0050232553210056
          ],
          [
            -0.014206894800143,
            0.0020103562579319,
            -0.0024968660414802,
            0.0015035776445155,
            -0.0054571917977739,
            0.0074556069706232,
            0.021030423213055,
            0.017304052828893,
            -0.0056850316314406,
            -0.012909557946872
          ],
          [
            -0.0090779669335379,
            -0.013740034444928,
            0.0069883570488793,
            -0.0079596160773228,
            0.0047957668623134,
            0.014390003800928,
            -0.002813822070943,
            0.012258902793506,
            0.014490131882709,
            0.00062554420585556
          ],
          [
            0.00037187575055443,
            -0.0018138860743632,
            -0.0057120373168181,
            -0.014021558159795,
            -0.0093313607156673,
            -0.0036831283126132,
            -0.0013242836980767,
            -0.010791487166367,
            0.0050840980293846,
            0.00052144536659548
          ],
          [
            0.0050697467673452,
            0.016849585167324,
            0.0031738655180418,
            0.0034213011554725,
            -0.0097717699928729,
            -0.011796489189991,
            0.0036310811712629,
            0.00071125106494429,
            0.0058126692825029,
            -0.0086353738598428
          ],
          [
            0.0064638789920763,
            -0.00052855665808434,
            0.00010156085541669,
            0.013386172453232,
            -0.0096814298897196,
            0.024893275100295,
            -0.0069471569818028,
            -0.0013615484480455,
            -0.0070978924628051,
            -0.011491984439087
          ],
          [
            0.0025836221515205,
            -0.002271691562525,
            0.0037097467284989,
            -0.0023593052950592,
            0.009097325892884,
            0.0020340303756765,
            0.0017016496315158,
            0.017510295323349,
            0.0047883154585252,
            -0.0204653162846
          ],
          [
            0.0023244251630404,
            -0.0020086726479694,
            0.0050696539303738,
            -0.012541336014625,
            -0.02367813916832,
            0.0057332026525335,
            -0.012964918114613,
            0.012167616320768,
            -0.00046020533551642,
            0.0065451191145384
          ],
          [
            0.0042937871033197,
            0.0028621046547262,
            0.019742431200119,
            0.0015376108068824,
            0.021599983461978,
            0.0090952394992787,
            -0.021988272391753,
            0.0024421078398132,
            -0.01568840627553,
            -0.0027621112537348
          ],
          [
            0.011747053696343,
            -0.00014307609835942,
            -0.013881333123126,
            0.0096882117404902,
            0.010466828330976,
            -0.015048683753111,
            -0.0015072093966221,
            0.00019445977893479,
            -0.0025856116772053,
            -0.0042830131079455
          ],
          [
            -0.008701250023013,
            0.013576786869639,
            0.0002235351238703,
            0.0055817913195583,
            -0.011544222767092,
            0.008406557107678,
            -0.0045295052971025,
            0.0082126712575046,
            -0.023009449820571,
            0.0049446634049834
          ],
          [
            0.0045758011093028,
            -0.0215844153409,
            0.0064579617280739,
            0.008369202425288,
            0.0079358782609701,
            -0.0068277026579509,
            0.015977108923381,
            -0.011875295787487,
            -0.011238558610485,
            0.0053045489115193
          ],
          [
            -0.0033732775001314,
            -0.006826490922994,
            0.0022486727077713,
            0.0040693780560999,
            0.021238647865004,
            -0.0028673128489258,
            0.0036282411226732,
            -0.011734565262908,
            0.0037157766383969,
            0.006050758550574
          ],
          [
            -0.01715722080996,
            0.019060652940705,
            -0.0096534544073209,
            0.0079978393711402,
            0.00030160827695796,
            0.0064029391316237,
            0.0026154186506666,
            -0.00096810104027775,
            0.0064280900171392,
            0.0058727917313087
          ],
          [
            -0.0050570702639222,
            -0.010162144872437,
            0.0043368730424577,
            0.0087909434442073,
            0.0023162670691967,
            0.023534968181159,
            -0.0044935051114407,
            -0.00046389811419266,
            -0.0096595871355819,
            -0.0042272076333625
          ],
          [
            0.0078762169144557,
            0.0030997996346061,
            0.015765200139507,
            -0.0070448215259658,
            -0.0029920836215383,
            -0.001918813063289,
            0.0022134200821506,
            -0.0061364822759098,
            -0.02536359670188,
            -0.0036533361996631
          ],
          [
            0.004497551673746,
            -0.0030078417907559,
            0.008852569783725,
            -0.00093870407422574,
            -0.00496154758388,
            -0.0020717117973275,
            0.0090218259761182,
            -0.0051953996086222,
            0.0067557710956001,
            0.023673349145942
          ],
          [
            0.0062690889047921,
            0.0044296507156488,
            -0.0094524696943522,
            0.0075005926320145,
            0.0074423970358506,
            -0.013462625458555,
            0.0075689847103547,
            0.0039914719526052,
            0.0094304235042343,
            -0.0083533718825558
          ],
          [
            -0.018642234129835,
            0.015806601904537,
            0.0071983532166364,
            -0.01016541344816,
            0.00062899443141369,
            -0.0093193633996575,
            -0.015259150728831,
            -0.011145921915055,
            -0.0052101224827412,
            0.010519121844133
          ],
          [
            0.014733965080581,
            0.0047454064087387,
            0.0054091400142457,
            -0.0027734387045493,
            -0.0041012815126272,
            0.00192332108183,
            -0.010888308514674,
            -0.022784135283763,
            -0.015440298371275,
            0.004738594882832
          ],
          [
            -0.003738702373938,
            0.011649128193738,
            -0.0029829009812038,
            0.037107775370754,
            -0.0050307862435686,
            0.010530542374841,
            -0.0099928530999711,
            -0.0066977809539207,
            -0.0031927265325889,
            -0.01263527832194
          ],
          [
            -0.0034952314439139,
            0.0037710372383781,
            -0.0033037430688799,
            -0.0021437290468487,
            -0.013663965218388,
            0.0010041555061837,
            -0.0067134345205185,
            0.0042040486204666,
            -0.013230068979531,
            -0.0073266505450363
          ],
          [
            -0.00049174621105336,
            -0.012413304900543,
            -0.001479776623192,
            0.010474527976415,
            0.010812517675352,
            0.0075889319286574,
            -0.0057354716131395,
            -0.010761264645361,
            0.01389941677524,
            -0.0061695756559759
          ],
          [
            0.0056632716598521,
            -0.00086775681025922,
            -0.0082222800918394,
            0.016306425478106,
            -0.0079687955776458,
            0.006954730537233,
            -0.012854573864594,
            0.0039106619234304,
            -0.0084075508933332,
            0.011698019808891
          ],
          [
            0.0037034435901474,
            -0.0080242425988619,
            0.0085821442944184,
            0.0031961284628384,
            0.012618612715617,
            0.0050312775029726,
            -0.0046794847702537,
            0.01102531548258,
            -0.017506687734456,
            -0.011238210128325
          ],
          [
            0.0084790519195119,
            -0.016260505081718,
            0.0046764569075751,
            -0.0092817217074057,
            -0.012261250148068,
            -0.016928497032188,
            -0.0015422194294882,
            -0.014448812992401,
            -0.0049200396051046,
            -0.0087833033256201
          ],
          [
            -0.018466512509148,
            -0.015056675820203,
            0.0029106342805813,
            0.01427410432995,
            0.0042441360797879,
            -0.012169402604103,
            0.0053062919333456,
            -0.010831058855363,
            0.019482836108921,
            -0.012648236079225
          ],
          [
            0.0055103119534653,
            0.00096937882591577,
            -0.0011252346779889,
            0.0088275337961189,
            -0.0049627093317652,
            0.0014615028026305,
            -0.016937619199387,
            -0.0071875807124885,
            -0.0050021158203115,
            -0.010769970772137
          ],
          [
            0.0018089723910984,
            -0.026412963416116,
            -0.0090342057990189,
            -0.001190371287874,
            0.0099077041739026,
            0.0052861194469393,
            0.00021486871320909,
            0.023794066349645,
            -0.0025753774459178,
            -0.0078288914556802
          ],
          [
            0.00024572728850748,
            -0.001617130105398,
            -0.00083145811069728,
            0.0072496323511015,
            -0.00539927576322,
            0.0047632093449471,
            -0.0089843796472596,
            -0.017976618852164,
            -0.017714523098568,
            0.0062786139917778
          ],
          [
            0.0038863484467868,
            -0.012692051187327,
            0.024056751626816,
            0.00035198708320477,
            -0.0027290983994303,
            -0.010767487950013,
            -0.0091912698835515,
            0.012744067540052,
            0.02127976025752,
            0.006356413090995
          ],
          [
            -0.015865837756878,
            -0.0075922019851003,
            -0.018830237124043,
            0.0027180463949819,
            0.0056979412984189,
            -0.00098292801689148,
            0.0033418743588031,
            -0.0041576948652399,
            0.0064388572568412,
            0.0086908179780434
          ],
          [
            -0.008916981245333,
            0.0040747535502842,
            0.0016910490252482,
            -0.02082090453847,
            0.0058070411066627,
            0.0028321662215513,
            0.0031720734621796,
            0.0032111545137576,
            0.0021330181244507,
            0.0057612572204523
          ],
          [
            -0.005713780595197,
            0.0032105221045038,
            -0.016535443220437,
            0.0096985503255549,
            0.0071606953783808,
            0.00038315959528547,
            -0.0043088943368867,
            -0.010278595536122,
            -0.0038155216381877,
            0.007920211573808
          ],
          [
            -0.0038886379055049,
            -0.012576372508138,
            -0.009053948086432,
            0.0071448589716401,
            0.014730474376926,
            0.0014048216694925,
            -0.013174112897295,
            0.0042592979162017,
            0.011742549622759,
            0.0079288974898851
          ],
          [
            -0.0070573514956134,
            -0.0026442553192253,
            0.0087292050898629,
            0.0063683564800887,
            0.0034078631315298,
            -0.0063084095109603,
            -0.0003840236316504,
            0.016909046593428,
            0.011161301198917,
            0.003307595185633
          ],
          [
            0.018096337356678,
            -0.0068623429722848,
            -0.0052099507302611,
            0.0092534284964577,
            0.0025374771946706,
            -0.0032565057983071,
            -0.007775842534825,
            0.0035907755157795,
            0.0048022213304773,
            -0.0081254955667436
          ],
          [
            0.0065491311374402,
            -0.0021245642864674,
            -0.0027198331320615,
            -0.0084577082078147,
            0.0057957219677752,
            0.011848392200209,
            0.0018694787030368,
            -0.0086666923889882,
            -0.012921787218741,
            -0.0080989934591811
          ],
          [
            -0.013641035422558,
            0.0073119653726517,
            0.0019293982451901,
            -0.009467452369077,
            0.011400383497375,
            -0.019961535424247,
            -0.0081975400215087,
            0.012648575224069,
            -0.0080022862167586,
            0.0037975699734595
          ],
          [
            0.021496652181513,
            0.0073735401637959,
            -0.009766775313659,
            -0.0025895764209298,
            0.0042782665253373,
            0.0066432162141111,
            0.018108934844408,
            -0.0078159651435086,
            -0.024164887213936,
            0.006156147016008
          ],
          [
            -0.010013821375881,
            -0.0011533662211386,
            -0.0028502580495645,
            0.0012645386391858,
            0.0017382467270795,
            0.013224011672072,
            -0.0040815393936941,
            0.012331062892719,
            0.0098951873796587,
            0.0026198220792219
          ],
          [
            -0.002552600803402,
            0.0092664307571909,
            -0.010165902637785,
            0.0019425906115356,
            0.01599578222959,
            -0.0027582384203981,
            0.016435260623852,
            0.0018037918214995,
            0.0021922851352036,
            -0.017869082508532
          ],
          [
            0.012093840062735,
            0.0088525072289992,
            -0.01849620319736,
            0.00049619291068972,
            -0.0027163040705471,
            -0.018405474136579,
            0.0050819894566542,
            -0.0044642799858614,
            -0.020113786350219,
            0.010209313784873
          ],
          [
            0.0091901045149875,
            0.0087443728281102,
            0.0012349311665436,
            -0.013549303129007,
            -0.016838850781055,
            0.0046455717902388,
            -0.012355419503562,
            -0.0019520248580365,
            -0.00055308066095072,
            0.0097496081517025
          ],
          [
            0.015753937891839,
            0.0014421218474701,
            0.0050523520342104,
            0.015664869365622,
            -0.018309152997955,
            0.0059410182493889,
            -0.011801413059654,
            -0.0014514537976514,
            0.0011289568470234,
            0.0043292222767124
          ],
          [
            0.013089213174299,
            0.0046961539624722,
            0.007549171501515,
            0.013212834830361,
            -0.001326246921301,
            -0.011351718430707,
            -0.01147806543759,
            -0.00063435941872216,
            -0.0017300632590307,
            0.006063382316464
          ],
          [
            -0.012822401329884,
            0.0011906819585011,
            -0.0061212646757005,
            0.0095522188553169,
            0.0050178962234004,
            -0.00014267950119134,
            0.00639978961493,
            0.0047716419773135,
            -0.0048444719209783,
            0.0026426301399261
          ],
          [
            0.0111123780957,
            -0.014416310882813,
            0.0077905874899091,
            -0.014958063682145,
            -0.012468264032256,
            0.00017496139148637,
            0.0045112245102512,
            -0.0074187495925044,
            -0.0033564184160732,
            -0.014069295003727
          ],
          [
            -0.00035723712517347,
            -0.0042757903417596,
            -0.008323389508756,
            -0.0084667137224922,
            -0.0025854434491517,
            0.007824749529537,
            -0.015856276945179,
            0.027167843972592,
            -0.0043317103963368,
            -0.0082694925834589
          ],
          [
            -0.0084047884736473,
            0.0030670961483101,
            0.016705179160757,
            -0.0045147900718451,
            0.019590720336047,
            0.0083231948115859,
            -0.0013790917741728,
            -0.0089502517534613,
            0.0072915161582982,
            0.0047437955012559
          ],
          [
            0.0047878844079296,
            -0.012291542493891,
            0.021379414087433,
            -0.009339895954962,
            -0.016892098547275,
            0.0049675752858393,
            0.0085557657090244,
            -0.0090371351018856,
            0.0021269480072748,
            0.0086090462120789
          ],
          [
            -0.0084411251275497,
            -0.0024922983222389,
            0.0047087758771289,
            -0.014946942586738,
            0.0021204596246568,
            -0.010673795348191,
            0.012636346896224,
            0.0037878222732915,
            -0.0014729231759852,
            -0.010812140621421
          ],
          [
            0.0070656384359475,
            -0.0034781900097525,
            -0.0049138956561203,
            -0.015355074197815,
            0.011498016015352,
            0.0086178554900207,
            0.0023741993033745,
            0.0082730900397187,
            0.00070893101548316,
            -0.00080488742453235
          ],
          [
            0.0086832600121791,
            0.014969253123816,
            -0.0033038501054773,
            0.0045245465832619,
            0.018896919833374,
            0.0016760867950125,
            -0.012686610083496,
            -0.0022919475069374,
            0.023929595884733,
            0.017420162268805
          ],
          [
            0.013912586862878,
            -0.0059163852407206,
            -0.00066107908340442,
            -0.0011411690348339,
            -3.3302487484858e-6,
            0.0037537118465468,
            -0.00065633611958663,
            -0.0053212657724477,
            0.010783827558781,
            -0.011612176355778
          ],
          [
            0.0037570129817474,
            0.00067164959967391,
            -0.0044570762706744,
            -0.0064922339559601,
            0.020236613088279,
            -8.6869599057833e-5,
            -0.0055563574540312,
            0.0076173004146954,
            -0.012160502706039,
            0.0031669746351831
          ],
          [
            0.0057062353927158,
            0.0051768537526294,
            0.020822903276991,
            0.014386774901334,
            -0.0035003844220061,
            -0.0055680100922472,
            0.00034207004722869,
            -0.0109241821509,
            0.018473860393944,
            -0.0065587139836415
          ],
          [
            -0.0069636770427591,
            0.013892315112322,
            0.027226484727025,
            -0.0037516854547775,
            -0.015201194465698,
            0.0065374609494084,
            -0.010408282569928,
            -0.003104621771071,
            -0.0068552904576989,
            0.00071151280661936
          ],
          [
            0.0074319780373524,
            0.0053301412748649,
            0.0048809127420362,
            -0.0008021836744981,
            -0.0091486831883813,
            0.0078562312249746,
            0.0064730730382802,
            0.0058744548511455,
            0.0065514679064138,
            -0.0032715279018367
          ],
          [
            0.0014995053863648,
            0.0036915246035332,
            -0.012478590530819,
            -0.004574991809028,
            0.00068643230948375,
            4.8834629554073e-5,
            0.012517047257666,
            -0.0022441409757701,
            0.0086479986455201,
            0.0089891827342906
          ],
          [
            -0.0033403342273667,
            -0.0096396399559735,
            0.00714295531791,
            -0.0054271105507644,
            -0.0069334376795758,
            0.011129632993173,
            -0.016666560102514,
            0.01033567589982,
            0.0098409228588796,
            -0.0040663767979003
          ],
          [
            0.0099878999987015,
            -0.0035912992523221,
            0.0052158812896825,
            -0.0068686009670145,
            0.013839834621078,
            -0.0027609211425435,
            -0.0024129587926116,
            -0.0051970957138478,
            0.0033269908127808,
            0.0064104615277349
          ],
          [
            0.0054224373488134,
            -0.0085828158064199,
            -0.024117645940571,
            0.015233390701708,
            0.0088814831196417,
            -0.017282489775788,
            0.013842106491317,
            0.0031328393053993,
            0.0096908184654316,
            0.0052420694375
          ],
          [
            0.00023750196480072,
            0.0021364067416966,
            -0.016248243767302,
            -0.010059106111043,
            -0.0046296558690785,
            -0.017673188498322,
            0.017100705198981,
            -0.010744779657859,
            0.0080393923420648,
            0.0053943837294453
          ],
          [
            0.0065669619850549,
            0.0023494024508011,
            0.0018828652333948,
            -0.0065731914368323,
            -0.0009188395369445,
            0.0013198846700461,
            -0.0077205749989533,
            -0.015617563243804,
            -0.014014017484357,
            0.0082711186258883
          ],
          [
            -0.010766596441687,
            0.0079991453848124,
            0.00052492133750162,
            -0.011214711897579,
            0.0083093597282061,
            -0.002400284145979,
            0.0072387004401933,
            0.0091968493130915,
            -0.017982885794213,
            0.0094443624438458
          ],
          [
            0.0024776059124623,
            -0.021397540428853,
            -0.0037313472021727,
            -0.025114616930755,
            -0.0064694546398154,
            -0.011042034128865,
            -0.0063013550039626,
            0.0040478202293895,
            0.017951028746665,
            0.002293170462873
          ],
          [
            -0.00094128525497159,
            -0.0062867543529606,
            0.012570764985136,
            -0.001353060705858,
            0.0046348071985234,
            0.014670109360442,
            -0.01683107626267,
            0.010740988011304,
            0.0040721821738648,
            -0.0041439345783971
          ],
          [
            0.0047671816401692,
            -0.0095432606625551,
            0.012970933283529,
            0.0049546845508727,
            -0.0002536715214725,
            -0.00026751824859101,
            0.0054816387192329,
            -0.0063928380521161,
            0.01617939454937,
            -0.0087372991973124
          ],
          [
            -0.0044026069904764,
            0.017052118468559,
            -0.0088129080522193,
            -0.012779938656881,
            0.0099743639206662,
            8.9656831502002e-5,
            -0.01131394519971,
            0.012104938613902,
            -0.0008676046350108,
            0.016834667197111
          ],
          [
            -0.01141620466737,
            0.00036467504055112,
            -0.018020443664108,
            -0.021513284447791,
            -0.0028799825397733,
            0.0037205016586161,
            -0.0056122008402878,
            -0.016896108465764,
            0.0056565815015925,
            -0.022857335114471
          ],
          [
            0.0009733921430115,
            0.0075549798253778,
            -0.0033351635824899,
            0.0074025458057237,
            0.0027328723976352,
            0.0086797427747735,
            0.0020980678648717,
            6.038270604826e-5,
            -0.0033979849367043,
            -0.0071577049939401
          ],
          [
            0.0012034853612854,
            0.0053600403770707,
            -0.016075717299656,
            -0.018896859910655,
            -0.0053798199257577,
            0.0026733470716956,
            0.011805994990856,
            -0.008305083700572,
            0.0031839333106223,
            0.011763063393984
          ],
          [
            -0.0063746794527423,
            -0.011942877323077,
            -0.010721429897743,
            -0.0064625222339911,
            -0.0086771630986622,
            -0.0088837095719129,
            -0.011296007103604,
            -0.0053769020937594,
            0.0056825873919023,
            0.02434940294966
          ],
          [
            3.8409352805558e-5,
            0.0056607763699183,
            -0.0082881807038921,
            -0.0017047410371771,
            -0.0015250190389823,
            0.010470153982793,
            -0.00050453230400872,
            0.014703646900712,
            0.022392888304732,
            0.015108638356424
          ],
          [
            0.0075419868174747,
            -0.022832220595179,
            0.0046323482595384,
            -0.018562213063432,
            -0.00099995479928252,
            0.014415453620847,
            -0.00051894974329978,
            -0.0041750550569122,
            -0.01524147943806,
            -0.0073000911412971
          ],
          [
            -0.0022021561600923,
            -0.0076222067496871,
            -0.021159622815738,
            -0.011620103341502,
            0.0012920017610436,
            -0.0032898019520402,
            -0.0048934111335807,
            -0.010259386626227,
            0.020613457290378,
            0.0019325168392622
          ],
          [
            -0.023682642691255,
            0.0073960882849899,
            0.010862387701628,
            0.0069021288640487,
            -0.007069422822318,
            0.0070361887389253,
            -0.011334664269047,
            0.0045517239966875,
            -0.004225158376442,
            0.0028504214680375
          ],
          [
            0.0028883542473602,
            -0.0041837393845781,
            -0.00040093536620451,
            -0.018622043789154,
            0.0026466567234203,
            -0.014093286858254,
