{"model": {"layers": [{"type": "CONV", "activation": "RELU", "weights": [[[[0.007160705844558183, 0.0024330075122836695, -0.007221648989572328], [-0.006069426613764184, -0.00679930030815947, 0.001999610649961953], [0.0023724429498507694, 0.0038511367501954793, -0.0058632546623830425]]], [[[0.00010639437739620164, -0.007899817240987726, -0.008591806434134966], [-0.009995589483875317, 0.006180092349991764, 0.0022322436811390545], [-0.005249494520382991, -0.0027502806511984, -0.005900412855028137]]], [[[-0.004523345218328561, -0.007384858594574641, 0.009261679717700536], [-0.005494758105006275, 0.002220174975525011, -0.009630117154957402], [0.009552766474448963, 0.005125556663822093, -0.008992746337275216]]], [[[0.006612615785448845, 0.00462837695778275, 0.006712983710379454], [-0.011069347637811786, -0.0015411360191998932, 0.005523822666205576], [0.0011511364919424565, -0.00785767442694656, 0.0025819436744551672]]], [[[-0.006656955176600741, -0.00023174310838025154, -0.006550625353578781], [-0.001393374082621249, -0.0005310599691207401, 0.005667602199125894], [0.0008734929465651412, 0.0030873086288472754, -0.008482884480760525]]], [[[-0.002152385724807053, -0.009988801451023764, -0.008327877345355936], [0.005766693373918599, 0.00671718267317502, 0.006474222177001579], [-0.009867437006984026, -0.008862558809187319, -0.008906538187563375]]], [[[0.011878479213092553, 0.004663797683439144, -0.0015419431694440608], [0.0019210154395503166, 0.011448421389634257, 0.00914745673764104], [0.0027115766554953714, -0.0047807123742281445, 0.0003277823194426604]]], [[[-0.009577723087995383, 0.008634819239411302, 0.0005310693115221297], [0.009431776410966741, 0.0057858682171682335, -0.00319423299598428], [0.008524929076989023, 0.009627312153877554, -0.005144335004431691]]], [[[-0.006853820387695381, -0.008783410574926345, 0.006693773585439691], [-0.005660175079796495, 0.005899046839885665, 0.0020902957981245494], [0.005882547026096101, -0.0088486586125227, 0.006560844534964419]]], [[[-0.0016921184520194343, -0.0024099398169659266, -8.094669159325824e-05], [-0.0005199728834290711, -0.0024164885424319384, 0.0018759515745651212], [-0.00408583147093526, 0.0014453796360513731, -0.0004913205229736378]]]], "biases": [[]], "convParams": {"stride": 1}},{"type": "POOLING", "activation": "NONE", "weights": [], "biases": null, "convParams": null},{"type": "CONV", "activation": "RELU", "weights": [[[[0.0003234573969647116, -0.00015768724194924636, -0.009292467864437413, -0.0022477299413822117, 0.005233241011785303], [0.0017467335467839966, 0.008231144273781901, -0.009353520593448444, 0.009468935406477036, 0.009113641480834397], [-0.008496094652406805, -0.0023740498520564957, 0.0076428743371792516, -0.00043849048898506103, 0.004470222157501738], [-0.008372151456319307, 0.00029958767574427394, 0.001186518695059211, 0.0012363824049158524, -0.006652891781709744], [-0.00783447872660127, -0.0071346258671602025, 0.008480476296745173, -0.002574314744995824, 0.006166001202253053]], [[0.00834474322112583, 0.002520296786121706, -0.0057694295292179485, 0.0015831687593455615, 0.002594385128205961], [-0.002481061731836871, 0.0035729431604802162, 0.006522445721550791, -0.009763683347692913, -0.0036974007882995966], [0.006558874768173422, 0.004622600867158859, 0.0026276766021220985, -0.009823596532501904, 0.0015824099378564192], [0.0028666848687551962, 0.00591831784376022, -0.005650280714406855, -0.007112434315252498, 0.009920676809511591], [0.0010702817700025831, -0.005221567474023176, 0.008173267932837422, 0.004576881478453819, -0.007299761745425583]], [[0.0072021886538709045, 0.001379623652885324, 0.00830961274256051, 0.005581751528497578, -0.00392317692804984], [-0.005203972951565957, -0.009310259729094975, -0.005079588900672467, 0.005715824012587167, 0.0036031197236160864], [0.005008009961438245, -0.004288715876145956, 0.004854656936049072, 0.00015342050339180966, 0.007140249379057095], [-0.003954099353385605, 0.0002474554620003012, 0.0016655996167996468, 0.008999960942420593, -0.005352777859456275], [0.0020368239651412496, 0.002226045937340696, -0.009457268577120674, 0.000862639778022476, 0.00622408377526949]], [[0.007408274842910309, -0.0025640485436826915, 0.0026479708156197154, 0.00451056773104666, 0.0004473477836848282], [0.0036387062322390303, -0.0003853573406203648, 0.008202224853844808, 0.0039910944336547915, -0.0025291564940801863], [0.004321818986289228, 0.0024932234685106267, 0.00462324724759295, 0.0067703458079447715, -0.009519215847977878], [-0.0021227681171791606, -0.004641193044746757, -0.0075334567777557504, 0.006656025161767714, 0.006514584846837626], [0.0043703721462871655, -0.009281507511705693, -0.0022359533717959644, -0.0017971473344826235, -0.004716745523933742]], [[-0.0046168272008386335, -0.0008778537404403226, -0.0058360038425947745, -0.001389916817876137, 0.004778030662446326], [-0.010003816612949927, 0.006063409777737738, 0.005225512028776115, -0.0009213446140847735, 0.0021004790882894254], [0.0003038525378653994, 0.0012340037267696904, -0.0058291357614975075, -0.0033978894289825035, 0.00029430240442883924], [-0.009096421518800996, -0.0037656798611598375, -0.002061106099710069, 0.0017974612238303809, -0.00030831801343396507], [0.007125652583179517, -0.004364179258737926, -0.003042640717369396, 0.0014723987970166573, -0.005872567808356571]], [[0.004208560541142781, -0.001007411200089282, 0.0017271596115673751, -0.00725373267766814, 0.007932665881305237], [0.004510859952948285, -0.0032042226229103666, 0.0015077526906918325, 0.005971154966068378, 0.0010179503788466861], [0.0035097504101282606, -0.004853634304464557, -0.0025890233885164913, -0.007356938805300804, -0.0041618651782977766], [-0.006376137998162773, -0.005761411033441407, -0.0013269670550528285, -0.0034316723195991295, -0.007650268479354858], [0.00973045553758126, 0.004539701379780172, -0.007736996175850302, -0.0028479674528605822, 0.0013104024157994437]], [[0.0013241610256346588, 0.008816386201749871, -0.005748622012537703, 0.0011459920877738984, -0.006544404458739985], [-0.00911017625303757, 0.00744333263716023, 0.0038946943275027157, 0.008677428951973805, 0.008367282843785642], [0.008591791054093252, 0.004130930668992151, -0.0006763662472571804, 0.0022307232250670743, 0.005118565596812585], [0.0052953776488448194, -0.009540409914418737, 0.0019157246666559739, -0.000315228792130627, 0.005784099521926993], [-0.00745250510776068, 0.0023160251815578865, -0.0028882326312124782, -0.005576225978600153, -0.004335744348384826]], [[-0.0021172954405179606, 0.001004269447765611, -0.0031050411780395425, -0.009235723156976416, -0.007763508469705571], [0.0029791952102721795, -0.004347539464724166, -1.7140962339799742e-05, -0.006558016081564274, -0.0016908938318947605], [0.0003823392882598652, 0.0010421749074125105, 0.004241177755059109, 0.009490581787084491, -0.005978679587977436], [-0.002502667363083378, -0.007515477800949301, 0.003043718505758139, 0.002032119937439753, 0.0066648178231044405], [0.004637249169597798, 0.006188844766682297, 0.0018696975000297954, 0.0013913087300387547, -0.0004600467401903446]], [[0.0004632577046536198, -0.00646226522221181, -0.005482982141190097, -0.008108705059878202, -0.008517382016914606], [-0.004814495562315565, 0.009484464391838032, -0.002507390017800296, -0.0019457913405476121, 0.006693011314188255], [0.004979566633802275, 0.0062653573551594175, -0.0028027298264689804, 0.009593475056005864, 0.007878451804444386], [-0.0023457883035542804, -0.008274380042280942, -0.0077606792327721864, -0.004875773476421454, -0.001055542893808024], [0.0019233117040414526, -0.0014213805865706558, 0.00846048958995603, -0.006434794690251342, -0.0034400022167008454]], [[-0.0029595401079628046, 0.009981182067006454, 0.006993558141336453, 0.007822553100861105, 0.005633990435840894], [0.0017249910333910728, -0.0021564244204808924, 0.0063703617290731636, -0.0063962367434388405, -0.0068764094086066815], [-0.004598941034026432, -0.00963118140109707, 0.004255905790612201, -0.005435375488274582, 0.006401218048625901], [0.0030599267414405744, -0.002697925237660284, -0.008429934013187954, -0.0020400857851550834, -0.00543231936051895], [-0.0066681067963688, 0.0035856675829344467, 0.0062764847257630995, 0.006581072951670176, -0.009903173166328551]]], [[[-0.0018963641856144268, 0.003847882410833049, -0.004854067674927567, 0.004176141604801699, -0.0032570793852809234], [0.009037121078327805, 0.006109697738936679, -0.004361130060557645, 0.0060273298172662405, -0.00010395374891533708], [-0.002595084378417698, 0.0033594733411700063, 0.0017115614491170596, -0.006447816108776311, -0.0007393356191784722], [-0.008704191325005597, 0.007407152130906821, 0.005332300940408139, 0.0032513953591620606, -0.0030113269416510323], [-0.000974954652794877, 0.002402654457889035, 0.004109026025454872, 0.007504491963970781, -0.006629609148347334]], [[0.006665934387524655, -0.006994946589848575, -0.00398917174925088, -0.005788972568951052, -0.005968686043395981], [0.0030207244549519553, -0.0015488468645703194, -0.0028052454671529774, 0.009600818734845576, -0.002587143933294076], [1.5478467135350963e-05, -0.0027508693607671054, -0.005951066436934907, -0.007615513925533773, 0.00440203031014429], [-0.008497836937630227, 0.006111724971660569, 0.004319241888198457, -0.0011337281339770908, -0.00986198327218376], [0.00229619370818675, 0.007740752392888364, -0.0070083282760196345, -0.0019941375254700178, 0.009582226684825156]], [[-0.009798835836539767, -0.0030341618829012, 0.00789605861382916, 0.004598741982119869, -0.008533530674395686], [-0.0027742905031035896, 0.008097341911524203, -0.007667293188420108, 0.008839926239404968, -0.0031342275203549456], [-0.00020407358736781434, -0.0036815461610756575, -0.006978329564289175, 0.008162244604432139, 0.0038609803427999633], [0.0064789115015188815, 0.008947495019512369, 0.007130855296132711, -0.0018838224719438096, -0.009843820745802024], [-0.009100704076523868, -0.0049352329892584125, 0.001075414582715004, 0.004016848130020554, 0.0013508572533296962]], [[-0.00216661645150271, -0.0013519820239433116, 0.009259195771787226, 0.0055271921977745764, -0.002629455757337034], [0.006090697867462846, -0.002031405630885356, 0.005362388497958143, -0.008918970765231104, -0.0037787523249711635], [-0.009452834248160222, 0.004803210801428438, 0.010185966614761685, -0.007582789129106904, 0.0052426092959202185], [0.0011082660883053568, -0.0011059891581070118, 0.0100658907649593, -0.0033085154220337427, 0.004312675529740028], [0.005396402685347544, 0.00035166956717476726, -0.004390152110484323, -0.00639866121856095, -0.004522499935723713]], [[-0.00860222812326178, -0.006575997441114576, 0.004090953105380071, 0.00473019156898367, 0.002628983837270274], [-0.001415453030201538, -0.006470702329266953, 0.006819176603469312, 0.003918056199996198, -0.002518232953580254], [-0.0038181252919970076, 0.007610690736269618, 0.008261493809327862, 0.007406856711353349, -0.00044139785776814796], [0.005715665006255055, -0.003811100997673655, 0.009390726018095603, 0.009614911064811224, -0.0050451400023711485], [0.002682171671585588, 0.004576644557633174, -0.008719024077090572, -0.006084153100198273, -0.0020803896876763492]], [[0.00736928240153331, 0.0043666315004616645, 0.005269192608495031, 0.0011664752663722096, -0.0032148421613724717], [0.0016234741571197959, -0.006202322314382432, -0.0023435561454326964, 0.005096644250401835, -0.003811059187674693], [0.006074035390709208, 0.008901294507462841, -0.005089889675276415, -0.006187847752037933, -0.0095812902805338], [0.009542698139024032, -0.00012403620052799777, 0.006071454202393109, -0.005542546691377704, 0.0022961024448768523], [0.00022942132196705273, -0.005219968623296085, -0.0043645039982967695, -0.007745922832103919, 0.004399491913175525]], [[0.007637451970216736, -0.005926777943468768, -0.005273442836203028, 0.004680746508427721, -0.0012738245330613984], [-0.005193592211307322, -0.0061892120810204685, -0.0008856947612515401, -0.009554587597775695, 0.008073659451552237], [-0.009498885429500201, -0.008979053233942288, 0.0029767179048045557, 0.006321085127304262, 0.005223649006302707], [-0.00797127881888276, -0.008960064105875494, 0.003206013629587902, -0.006371086050678466, 0.008714327618244913], [0.0012082191270291354, 0.005094960419879938, 0.009485957448613646, 0.008570050003736932, -0.003987290111361316]], [[0.0019321490028009548, 0.008425293297135858, -0.0036310693809815686, 0.008229054734042824, 0.00027558372538805234], [0.0014542793804671252, 0.003112748768926803, 0.003483307896612639, 0.006574726036953402, 0.008230405098783438], [-0.00945241304035545, -0.00040296393778181997, -0.003968005463714186, 0.001003997153492902, 0.009739410921281107], [0.004535594926966372, 0.00020258556711570474, -0.0037699957377247614, 0.002938588994394653, 0.0007125625366186681], [-0.006879776129961845, 0.007948869478885538, -0.0008278662242250704, -0.0025578910392892533, -0.0028579485535958817]], [[-0.007112620280667073, 0.0022543708464293362, -0.009194668956772845, -0.0077146009022900945, 0.00016945005005115368], [0.0062817350079697725, -0.004038378425054162, 0.007764105000882817, 0.005035489303223438, -0.005993967291971815], [0.0027743417887345417, -0.003473053549813323, -0.008115296328457188, -0.0034758505627881927, 0.0037821442155209434], [-0.0007346219632189862, 0.007571809200581446, -0.008233844986530379, 0.008694438757745561, 0.007345208292420688], [-0.006196958454258191, 0.006400534394151248, 0.005039077601419246, 0.005437392946353556, -0.0009950970837400686]], [[0.006452986160505658, -0.004447471440971646, 0.003318076649705991, -0.0011130502145264912, 0.0066242646075540075], [-0.006165624388111944, -0.007335147169829985, 0.0006626931097360484, -0.0025153642352225315, -0.0062645621559778404], [-0.008915204782200042, -0.009496623206806037, -0.00986537658718823, -0.009704273579135668, 0.00244803962422846], [-0.006324001215911235, -0.0003998971048376939, 0.002115746918765909, -0.0027047691737165022, 0.004000619721876726], [0.0015195343853075015, 0.0006204459989332244, -0.008729131602107915, -0.005867014797289647, 0.00402277702867313]]], [[[0.00617703334910602, -0.008060611074374852, 0.0014240741275986456, 0.00992921459135588, -0.0007859603267683839], [-0.009389542832517162, -0.005257797203165903, 0.0006630180787748925, 0.0034649823035684795, 0.009612139225495234], [0.0013965597192135092, 0.004377404516758435, -0.009795868970431644, 0.008226981456065163, 0.0012979960662934734], [0.0002449135834675992, 0.0013444122857551402, -0.0021227682534323278, 0.008024813900432996, -0.003344322321169884], [-0.0013873421284048711, 0.008713274073376059, 0.0023831372804153646, -0.009376078210845734, 0.009720158565480407]], [[-0.003299950162185708, 0.004824515977736326, -0.008663731686662986, -0.0002032831102326306, -0.00011685255512877864], [0.0014502708126843782, -0.008756004839678486, 0.00961721427322739, 0.0013242114970260285, 0.0051248127888577355], [0.008692255281324503, 0.003380016506246213, 0.0026610359872272157, 0.003160827909865804, 0.0025957637411239843], [0.005104602012949017, -0.009080889394636471, -0.009958622538931173, -0.009824247454170383, -0.006742705572323094], [0.0028721893518488615, 0.0001481893236641792, 0.0072315424395343, -0.006404141000006647, 0.00152371199131846]], [[0.009528045461622042, 0.008002545150049554, -0.0015032340408957627, -0.007169552607373443, -0.0022719985844151867], [-0.006131986252994913, -0.002210191352660926, -0.006560546617436093, 7.437505192789173e-05, -0.008999442124011558], [-0.00309958183330481, 0.008922716407983628, 0.004051176081064086, -0.0008797716851932192, 0.009842390698306452], [-0.006330841113109266, 0.000524353826835127, -0.007841252215486772, 0.004893698012174268, 0.0054012464229293965], [0.007702940436966172, -0.007267054969515978, -0.002658562862849358, 0.009855152403100004, 0.0013278344797099174]], [[0.0019181342030545492, -0.009084610567489985, 0.003644313790514935, 0.002123724869080174, -0.0016907781624449262], [-0.0009485038252477829, -0.005635572910666694, -0.0009348146072506095, 0.008006333012436306, 0.0037740302443310834], [-0.007430952921483581, 0.004224727809079436, -0.009418340174616322, -0.001614014353609087, 0.006141006951725126], [-0.003256662241022532, 0.0021957096875969894, 0.006570011805511126, -0.00471610945335625, 0.005702873123777307], [5.569116587159362e-05, -0.010292941514356925, 0.006897580434271728, 7.536946211211336e-05, -0.008810355590447514]], [[-0.004646666602479587, -0.0031854704272481567, 0.005340553685231409, 0.005818081488695559, -0.008028184204529285], [-0.009740947576690992, -0.0019783617766758513, 0.008769372515675285, 0.008612543358357117, -0.007070963438929492], [0.000134704765668141, 0.004409771653374981, -0.007669210360004079, 0.007943307332017974, -0.007087521199754736], [-0.0068863611748092605, 0.004858009662931132, 0.00503696536970306, -0.001742384424677648, 0.008304922909908656], [-0.0009894201152243242, 0.0021796843492106976, 0.005952925281574078, -0.004012689062658729, 0.008456324687687906]], [[-0.005896458607956978, 0.005406465960889603, 0.004606296048583486, 0.007393433465559938, -0.007405814752357704], [-0.007673568448601823, -0.006115813222361876, -0.0055157491520521846, 0.009340718288855096, 0.007795552680452271], [-0.001262207838339924, -0.007611420931557479, 0.007846756478637503, 0.009830975922885602, 0.00224293031155564], [-0.00993947294778451, -0.00717257791364941, 0.00856170932501011, 0.008345073635901935, -0.0016102818301604164], [-0.0009827772812834106, -0.0013916462307821287, -0.004396773967344949, -0.0033083384658532788, -0.0060203619254378974]], [[-0.0031613688178037686, -0.0025500189174196427, -0.006329117068294918, -0.0009722374652432111, 0.0037680160496550955], [-0.006771946431382, -0.009373879671417399, 0.007658782844779315, 0.004123202048801088, 0.002145828395333977], [0.007703249817045154, -0.0006163945803551395, 0.005797937014635778, 0.0014993912963839773, -0.004975220813563595], [0.004119791077152258, -0.004887781844789376, 0.0024455004521508864, -0.0022174838877717057, -2.4182825769888727e-05], [0.006612939262182476, 0.0006306300420266054, 0.006640718627075435, -0.006422486780292699, -0.006308121873019959]], [[-0.006831911066571921, -0.006742383866538574, 0.0013192114070050334, -0.007621331939308483, 0.00816017442394053], [-0.004630026966845076, 0.0038562592766846026, 0.008899203885398608, 0.0062387843018396165, 0.00846161514927004], [0.0037855588184356206, 0.008826338026606371, 0.008068703796588993, -0.004690444153117711, 0.0022316592409313356], [-0.0034974816512754804, 0.0089539686621198, -0.009491225500900952, 0.00038818166650722607, -0.006720893364515115], [0.0007143005532659104, -0.00031435747263485744, -0.008064568036224233, -0.007378852216509609, -0.0031253795977830073]], [[0.00915756336620589, 0.0006278159589442277, 0.0012992046872847183, -0.0036749596895932057, -0.0016925327132462603], [-0.004975933834682089, 0.0016199147792264163, -0.005648422071733643, 0.005996603309113142, 0.009244372787066947], [0.009481850198300463, -0.001786692219048827, -0.007009446556312842, -0.006053712899220913, 0.004665096376209667], [0.00859447581267172, 0.004449790993629781, -0.007392589288650508, 0.007934475931370895, 0.0067183641810505375], [0.001775241138825725, -0.0037611535184689984, 0.0014890980363559574, -0.005828364120693193, -0.0055433285233466014]], [[0.0037320577774855456, -0.003154812748249433, 0.009378385441713693, -2.610787400818587e-05, 0.004872825654345015], [-0.0002220001027636224, 0.002538938880285257, 0.005650283992414108, -0.005196205722760198, 0.006111958628176925], [0.007712391754265699, -0.004963172622653532, 0.0021266235314895514, -0.0067575839226707785, 0.003067220327760959], [-0.0020471187212468818, 0.004897551973925431, -0.006528220081382519, 0.008715665419026243, 0.009955767568339494], [0.0007498885213112794, -0.0021592971981751474, -0.009783883103780719, -0.008923661563933663, 0.0005483737998797413]]], [[[0.002819076115191302, -0.002635521201599455, 0.004356608171056797, 0.008342465567554674, -0.004148160972762427], [0.002293115023006936, 0.008565059831078454, -0.0061245791727860726, 4.1557544878511345e-05, -0.0021362025451676075], [-0.002024948257227937, 0.0044550511843288974, 0.0005661173798522775, 0.004775222040621346, 0.001892096184560868], [-0.006006904470425064, 0.0018638815462334495, 0.0005674429422161334, 0.007104073528511439, -0.0031238419898143525], [0.0010206972024397547, -0.006845420908975545, -0.008694564056228649, 0.002063301089287204, 0.0036414625024329124]], [[-0.009849889499786013, -0.0001700717717798804, -0.0007953199744849121, -0.006134024145357582, -0.0022344738020751006], [-0.007921781151176043, 0.0009193052252307356, 0.0015158349331907545, 0.00531518944283668, -0.004752541466738873], [0.007737994890301056, -0.008090963247333782, 0.0014327922672314895, -0.00745780479758351, -0.0019373459325655008], [-0.009891139071645946, -0.0021673626899044096, 0.0009336840878787649, 0.001876142855085572, 0.0040729165136997115], [0.00957817229293909, 0.005961317006151776, -0.006602855826798424, -0.006859864782606763, -0.007099493341622441]], [[0.009598974874537952, -0.007785578845402185, 0.004573390338519122, 0.00925545725876835, -0.0055506987841341055], [0.003311309369476433, -0.0023249593799971264, -0.006386914099159453, 0.006942998214923014, 0.006179646582452446], [0.0012376234611216317, 0.0030327551807755758, 0.0063599351744138295, -0.0006192230227813221, 0.0016539867722168877], [-0.00986518498609298, 0.009771538639739766, -0.005263343381440778, -0.002234113942047586, -0.00818404961947661], [-0.0050217472488002565, 0.004677119988009571, 0.004127161520472303, -0.00531741545020824, 0.0044509426106563105]], [[0.003864081232718736, 0.0020508499953380025, 0.009080955122758751, 0.0013490480277179476, -0.008163641386387902], [0.0057740468685661805, 0.0046350701321232635, -0.0016060955332865133, 0.002787808173213835, -0.010657574816553153], [-0.008040241581342965, 0.0013567581002494875, 0.0013876549596843265, -0.010465627932257145, 0.008485066466652437], [0.002317142669196539, -0.0012572641210652324, 0.00895234238238453, -0.009029676895621133, -0.007289951874884337], [-0.006606697748473613, -0.0002277960144663641, -0.0015850965417163682, -0.009496861196931912, -0.0006074072973020956]], [[-0.002909493273546419, 0.00400193621603166, -0.009956258680997442, 0.009149076719090512, -0.005098335677428419], [0.0030328524914518956, 0.0019902574297124324, 0.005566197762691765, 0.006816043807165123, 0.007304878540380004], [-0.006890611359426152, -0.003664347183195858, -0.0001912853804970778, -0.0003136613836905688, 0.009600195646806343], [0.0049770569570451555, -0.0034710625307922296, 0.0007750265168888306, -0.0033846879223808205, 0.007651824313703753], [-0.009753583201943474, 0.00020511040373576226, -0.0098011798859394, 0.0018906115185309898, 0.006349813435877665]], [[0.009872046085143355, 0.009267893289890508, -0.009231431302339003, 0.0068402585429347676, 0.0014191618367314102], [0.009467794346102289, 0.0016181467987202611, 0.0024820857489256526, 0.0050774813214417075, -0.009865676440183142], [-0.006244202892187113, 0.0025361204047144987, 0.009557029367476209, 0.00559879265999009, 0.008012559525281897], [-0.002706221820421346, -0.009526883668646291, 0.004597585314262777, -0.008463623976953915, -0.00459733121726913], [0.0019280228540830193, 0.003285324516598712, -0.007771243235135233, 0.005561837729800632, 0.002867189276328631]], [[0.00936276990620827, 0.005614133102134171, -0.0002636492013719309, -0.0020536583299236633, 0.00758925275057935], [-0.004504337570493905, 0.006494140565436828, -0.0015782675879914782, 0.0020516424533211673, -0.006874160723933391], [-0.006490867995220954, -0.00517035844763111, -0.006385114242323761, -0.004546828679603474, -0.0026594044824591596], [0.0058666032983575415, -0.006849881717905972, 0.006128770897441904, 0.007326665547691, -0.007818369894874722], [-0.006648828554827151, -0.0026178323568373336, -0.010228887823247067, -0.0006317521047605183, 0.004810750053056536]], [[0.004174242398232209, 0.008367260736017994, -0.004322557641965965, 0.001769398369201112, 0.007181077350155388], [-0.009025053375667372, 0.007078043992921786, 0.006106867744100161, 0.002166972949647955, 0.005154277461489095], [-0.004025922084374633, 0.003546483812138362, -0.0006473802181726039, 0.004337514943587696, 0.005497485077893943], [-0.001289903546045118, -0.010021325537079056, 0.0029882282045397843, 0.0025423256943954203, 0.007611329916071995], [-0.004430836525899198, 0.009246042276065564, -0.0002483649033345761, 0.007575220739608767, 0.003449407781043283]], [[0.00040633952637713397, 0.0042471057529979124, 0.00023345843349390126, -0.007826516635586329, 0.006808212824103787], [-0.007966398491992427, 0.007887130520370236, -0.004753028640694973, -0.0010028698326099868, 0.004028121131755991], [-0.0045997333619017386, 0.0021344920025469618, 0.0001744975900796334, -0.004920087499186482, 0.0005039414256674922], [0.005220297029194517, 0.0006573854164572653, -0.0075618827411528255, -0.009586970936888517, 0.0023039175218991723], [-0.0007299288880798332, -0.004273711506857088, 0.010082244798071443, -0.005432667827468523, 0.007465208870692358]], [[0.002959701975319657, -0.0069518940937328706, 0.0078218495066285, -0.004670942348165522, -0.00013589754446765163], [0.001705819031570378, 0.008319421679304845, 0.0031318421802924447, -0.006657187361732435, 0.007614279668027533], [-0.006633966210609551, -0.008741846031691862, -0.006994904088462189, 0.000776100302741603, 0.0019226816019356214], [-0.009146581571240648, -0.006946062263522315, 0.002969411358737038, 0.003591654266059388, -0.003171992877257079], [-0.0036270195670081214, 0.009082165421621609, 0.004969373435131458, 0.0012716143707220346, -4.415111407039951e-05]]], [[[-0.008424761710912805, 0.002761041929925577, -0.006976059113041996, -0.009643950982741177, -0.007468139373616034], [0.0033559281136362894, 0.006813812944376453, 0.0028802785132843963, 0.0025712707318839155, -0.006648261841405994], [-0.0005935540234702845, 0.0043953117464513814, 0.008696934809926171, -0.003618731749993088, -5.0775111054445595e-05], [-0.00846561346696749, -0.008362154126133496, 0.0032913688944683373, 0.004189009394465627, 0.004832444011667695], [-0.0005594542706940589, -0.001671042448293086, -0.002656728859542892, -0.002805811256621009, 0.00911577231888365]], [[0.004678359168810865, -0.00215156151050596, -0.008386311508657405, -0.0029278121253343056, 0.003097318267883278], [-0.008252536379509576, -0.002516621601392495, 0.004633541048770357, -0.0005313314168166831, -0.00018286195983564096], [0.0076640259544084426, 0.006419907486037614, 0.00669866810443099, 0.004381977594916864, 0.004407167962077527], [0.006069400638326056, 0.005662544277842801, -0.0042362530369546075, -0.005498010045201345, 0.0077658011701734276], [-0.0008796104083229114, 0.008170504513667125, 0.0018198287822960317, 0.002943418190216526, 0.0007757022686501028]], [[0.0025323076016631244, 0.0026828915874170917, -0.0025236113257356436, 0.008124826316280165, -0.003224275596531313], [-0.003725378656524249, 0.00570599643829985, 0.0068225832011654395, -0.0070552649857833155, -0.005456881881152522], [0.004778115265568926, 0.005908101895618812, -0.008899177628801552, 0.0010058381896167186, -0.0026902251377490453], [0.008907229779093608, -0.006568473196827496, 0.0011863740489933391, 0.006777400290431678, 0.0011985921416665791], [-0.003528429807230372, 0.0006337725613687938, -0.006142397819771418, -0.00679765653700335, -0.001612749354121851]], [[0.00032704652000854707, -0.008628005287818942, 0.002111843085495234, -0.010302752492070246, 0.0003086183890470338], [0.0050383713062902985, -0.0025282780520419503, -3.5969886034984254e-06, -0.005407877668641796, 0.0023934707468108722], [0.0006472900953516904, -0.00705872545102507, -0.006449921148649661, 0.00029620146615013434, 0.0013364072521565933], [0.006043866336790666, -0.008464368840771022, 0.0031032628342337262, -0.006587804669487854, 0.002392899786198826], [0.003811919567965057, 0.0025325625983199764, -0.00035858036821556654, 0.008667688290447713, 0.009966832793404708]], [[-0.008113297751518932, 0.00989013722299438, 0.007507231491205748, 0.006839679455668129, -0.0010657270206295443], [0.006054954813522593, 0.0007597987740266711, -0.0028129662057797965, 0.005758177574806031, -0.005871865405885279], [-0.00751775801297324, 0.0012570387233504766, 0.0009113214431473754, 0.0011704943835815595, -0.009904559063167432], [-0.007232670854154998, 0.007266528817105328, -0.004504646979082241, 0.00802921245125955, 0.009163035540688978], [-0.008718274620443053, -0.006288461855610743, 0.007660181800142165, -0.002847098645247186, 0.0082057795614722]], [[-0.006903596667185314, -0.009625652701394859, -0.007792899007413629, -0.0019579620910367586, 0.008900912558661492], [0.005219838416615447, 0.0017180601541921647, -0.0043269988222345524, 0.007271616593737522, 0.004932633032913281], [-0.008763768277253097, -0.006390308088497854, -0.009505627700088058, -0.009261738588038788, -0.006355038100071667], [-1.3334019189013315e-05, -0.006768542140119405, 0.00030851608169472303, -0.009039811645923764, 0.0010279252267878097], [-0.0009558963951037466, -0.007218905293779233, 0.0013312348872306758, 0.007739918838320648, -0.0005152627008111896]], [[0.003955955828980091, -0.0025127738676323707, -0.00446361602782103, -0.001812523117058179, 0.0062069543949312255], [0.002309530275184739, 0.005186863755961998, 0.0049009454192386155, 0.008669566096446655, 0.006336083410345344], [-0.0038625220643705954, 0.003958048797149204, -0.0010167337757435804, -0.004892086608789224, 0.003483612343493384], [0.005679169605390587, 0.005221710793446374, 0.00621427758880884, 0.005659567284319267, 0.0022799969534344263], [0.0052650086031619334, -0.009345748430770533, -0.010339934355730222, 0.00849733517997007, 0.008882712453382556]], [[0.0007886408797491605, 0.008144433043932841, -0.006530418483558107, -0.0012567099175858048, -0.0016900188571842784], [0.006802743353944461, -0.0018511355181424114, -0.0025191846100973505, -0.006043287342600352, -0.0048229206137501], [-0.007839170279159235, -0.006637778648550933, -0.0007477496534873319, 0.002455721145083931, 0.007236513716218829], [0.004345309293938653, -0.00465619718123775, -0.008839545036610124, -0.0030885741137258228, -0.0037759206381336135], [0.006598110467307035, -0.00727330544438352, -0.002422473002598306, 0.0006907464082481955, 0.001892932567703882]], [[0.003487451488197171, 0.00786540403862008, -0.0017416811716668978, -0.004171497850282008, -0.005258342355151085], [-0.0017726563113342106, -0.008276607577749902, 0.004018197218928752, 7.592346095534415e-05, -0.004922803493110538], [0.003299626783153101, -0.008172653735857712, -0.007985183970489565, 0.003448167867105261, -0.002622725698416847], [2.1063726447785615e-06, 0.008355266012306637, -0.009305272595368728, 0.004038501854252861, -0.0010059235076688069], [-0.002366414507657199, 0.007185804813778977, -0.0009009963046548664, 0.0008130426681600258, 0.007201790526812624]], [[0.005967671736756325, -0.0004892708400019662, 0.009312801041961036, 0.005488865593254209, 0.009532668327678231], [-0.004259813231337151, -0.007426245711687344, 0.0030299708444019424, 0.009641937173261656, -0.009004797534434577], [-0.005128680039848043, 0.0011725788918817584, -0.0005897418993504437, 0.0014663942540101666, -0.00979014640097564], [-0.006276979499499059, 0.003075587806291111, 0.008355740746547059, -0.007249398258453351, 0.00012997769368338472], [-0.002275581947330322, -0.007491860115421903, 0.004685646060463986, 0.006778376585050987, -0.009606269571509366]]], [[[0.004676029654948571, -0.009779521242380476, 0.004535783679958687, -0.0030805557177305304, 0.0015154108353219848], [-0.004545708326522926, 0.0007049488750641499, 0.008452774001984957, -0.002922201712339774, -0.005112580990200892], [0.009859679135701838, -0.00034601958684900123, 0.0053769195607319496, 0.0022905805965097495, 0.005889804414628242], [-0.009801630319123648, 0.0014851993774152453, 0.004456411764813541, 0.005711271666360595, -0.0031256469734400917], [0.003955498099121397, -6.728067737780851e-05, 0.0009768317843269236, 0.00890658048961283, -0.006761410997669473]], [[0.006303750316908012, -0.004792972226405632, 0.0008449237100017423, -0.0022156708298996094, 0.001614854285376631], [-0.006708180851853946, -0.004541276429232524, 0.004272336830401046, 0.0017338787881717808, -0.002149029854751688], [0.004256064686067672, -0.002847073842749099, 0.002074616575106299, 0.002429564731230396, 0.00282978370783365], [0.007749200638782478, -0.0030054736036248487, -0.0002619293754138139, 0.008346887820590102, -0.006858560138902612], [-0.007263893282549399, 0.005216612213005312, 0.006945503421608391, 0.007356575580048491, 0.008238522986065129]], [[0.009959932669453078, 0.005127870541030697, 0.0028250514884904107, -0.0031635683189485462, 0.001693590824868116], [0.00787382418211348, -0.007654420019849558, 0.0036780872111065515, -0.00633103536586902, -0.002724094377201925], [0.00783788266904529, 0.00457024485296295, 0.00379620686210679, -0.006310467112188716, 0.002882824668949743], [0.005566796550121831, -0.00652130204161501, -0.005685473670161646, 0.007658914487229439, -0.00849921183900704], [0.006879110758681265, -0.0034023676697873813, 0.008401132210126101, -0.005943568109689986, -0.00941605493572956]], [[0.001988594405119445, 0.007238139715910572, 0.0049716660676423505, -0.005352752016659928, 0.008503348934950918], [0.0012398182675436894, -0.003903031303538138, 0.0036466652587620087, -0.008876694248236517, 0.0012783873925384503], [-0.0077492718899424716, -0.005773547937435969, -0.00040702818753341965, -0.0015888524513191003, -0.0007488930363266732], [0.006607674122912698, 0.008811252125813861, -0.0033155081787813196, -0.003785643460733519, -0.010236193615729281], [0.0083698589181389, 0.006444139256350931, -0.0018778625997792643, -0.009557263005756529, -0.001190149937423689]], [[0.002471631565439027, 0.00031658519840715977, -0.007332090589449543, -0.006532007453279623, -0.007024731305725965], [-0.002830680998224347, 0.006375405137255998, 0.0060405021850462575, -0.00426039476165537, 0.004769081859999702], [-0.0074754882271847066, -0.001929888663602533, 0.00017467448590871928, 0.006724829090262404, -0.007302495154684839], [0.004867915071059635, -0.0007378743495195766, 0.009136848657094129, 0.002832976043685987, 0.005475433626751389], [0.004718260260125905, 0.00451358362131611, 0.0055404985240246896, 0.00874518425551557, -0.00844001789118162]], [[-0.007378305029227154, -0.004568251033269421, 0.00828105281948701, 0.001015971450451142, 0.0061620475471817135], [-0.0024411123775960625, 0.0007251201998837326, 0.006885671279902242, 0.007532853811694447, 0.0025511631825450077], [0.008201659819395088, -0.0008779918496208182, 0.007600323538391756, -0.007035278818625674, 0.009430303156544499], [-0.0027478829706520697, -0.005967242980707347, 0.006124652656515456, -0.005813966039926749, -0.004348773664339497], [0.003606371530617474, 0.001015601408250395, -0.0047515506785542365, 0.0005203059943197206, -0.009918489766985002]], [[0.001491151032481462, -0.005375042927105938, -0.007151971508471335, 0.006408651817009941, 0.005736195183396347], [0.006357756181563324, -0.0053168499966278655, -0.005342803217545111, -0.0027012197170014026, -0.0042735442755563275], [-0.00194984906316053, 0.0003752157449423635, 0.004332389892284074, 0.005023341739800229, -0.004573310148964312], [-0.005979530291455396, -0.005158721179386366, -0.00037511234675193157, 0.00011087698411947322, 0.00692431023646202], [0.00301344641479739, 0.008064806045550972, -0.008823354374884051, -0.010480323430314754, 0.007782164686549881]], [[0.007540668042823205, -0.008786788061934933, -0.004625419052211361, -0.004226911783885597, 0.0022110772449823093], [-0.004842299596357363, -0.006916931461567052, 0.0025423415405260415, 0.0055637767486563326, 0.004033504251056145], [-5.322493088007795e-05, -0.0038162806764047304, -0.007457502717708963, 0.005679989194936018, 0.003838495607828561], [-0.0040393120347771705, 0.0006292746308707345, 0.009316007825896491, 0.008166967293028855, -0.010120867073643599], [-0.00789109198622383, 0.000162840170881921, -0.0033885239267326074, 0.006065262355572153, -0.002044689795502663]], [[-0.006500494870096051, 0.004673425766151972, 0.0009183703186643957, 0.0050360108714399224, -0.008366171543075916], [-0.0032490011168293657, 0.008270224004191085, 0.009186796417466506, -0.006804661161493668, -0.006529209481420253], [-0.00828190380524814, 0.008017951551331049, 0.005969396624778437, -0.00342140211936494, 0.0074078621477136316], [-0.007236250602100024, -0.0024874589930059614, -0.007102949113594988, -0.005432924503137291, 0.004028529785219147], [0.004060381234028549, 0.006941926748473922, -0.0014661373960500974, -0.00015086222490185892, 0.005943888201887898]], [[-0.0037240059159376533, -0.009832926429557097, 0.008047485214784045, 0.00660765464986178, 0.0008418371559456117], [0.0005649485552014079, 0.0015155554756542714, -0.009069594117760543, -0.001384988633646934, 0.004871965472103855], [-0.003248551629574012, -0.007956082460697522, -0.0021681247839130265, -0.000498360330267636, -0.006158491994201553], [0.009319747117143567, -0.008203631190359438, 0.0036752272812930202, -0.009333711687063423, -0.005215658135589399], [0.004669971114870565, -0.0023202922938192084, 0.0048071175440505915, 0.0011863446862190813, 0.0045233395922773]]], [[[-0.003089561381365221, 0.007183245610478728, -0.0021246171252984787, -0.0077340163537326255, 0.008291622724765278], [-0.001469467949259811, 0.009075560681151664, -0.000713755631287841, 0.001027535677040972, -0.004320471572836401], [0.004500088222129063, 0.008457694194899378, -0.0032567817181436472, -0.001098330030470474, 0.001018471747089398], [-0.00044768289516036594, -0.009358003133499639, 0.008127163007369211, 0.004586990479243518, 0.009660325013107632], [0.0006459594904544709, -0.005001573609645578, -0.0008924611128031501, 0.00800979912379393, -0.00455732755709437]], [[0.0007991096766494076, 0.002772457957537085, -0.0033413003865119676, 0.004985543014147933, 0.0021352905066782286], [0.0006815829834133941, 0.004397269411480267, -0.007556005895674336, -0.006326589942902338, -0.009091291362490634], [-0.007981909152405693, 0.005628278810018704, -0.004128512371658919, 0.006546715344172902, -0.004386566158226837], [-0.005988435158717234, -0.005707659795886595, 0.001475754389821688, -0.009994212222466532, 0.00549623396048282], [0.0047615168870613015, 0.0011536601560113886, 0.0009485487281644528, -0.006872886890590799, -0.002746156796971171]], [[-0.007263840486941229, -0.0038572128790002958, 0.0009216680371470062, 0.0014017799686066484, -2.042266058888709e-05], [-0.0010439368717347674, -0.005564554603690915, 0.002866419702936028, -0.004771764939130372, 0.0062771040462406905], [-0.0012751403481867081, 0.004429709949426536, 0.002232161123351299, -0.0062086222886551905, 0.001004381860169146], [-0.008473332856178302, -0.002793470304217869, 0.00603170928129639, -0.005673421492029328, 0.0033950687953369723], [-0.006517832529831406, 0.0021184587784093094, -0.0002762569678839222, -0.005605306364576704, 0.00794921922109657]], [[-0.006507601212743731, -0.00025759592317872493, -0.007045871193171668, 0.005512987383311417, 0.007112338556688624], [0.002467402506006691, -0.007502019621135361, 0.004539161975679989, -0.0058973175988273315, -0.004811267034620742], [0.0077394350277434154, 0.007140483821735085, 0.002159634231829931, -0.003416132046422627, 0.009876502973039752], [-0.006746278070627196, -0.0031247182836890205, 0.006992321202159725, 0.002503538060834869, -0.0050105038067869215], [0.005287170527818883, -0.006956618044447239, 0.0032488609692621307, 0.0031690172243828306, 0.0021926576257960823]], [[0.0020432386642023916, -0.004717146287654429, -0.0018886914178239634, 0.0047646687390106, 0.009906778370749925], [0.0028331433329915456, 0.0012245763981400476, 0.009223802673288812, -0.0012635361340800906, 0.0011771359143661732], [-0.003956385459417291, 0.00847205997707754, -0.00959986199115493, 0.0054653160242873885, 0.008823818024692337], [0.0032601176846411934, -0.008546215930786447, -0.009809789364788461, -0.00036752650837842, 0.0038303343301991483], [0.003917736808711963, -0.009928629052072344, -0.0056535935651233025, 0.0021845502163918523, -0.004294975501659649]], [[0.00923487303146159, 0.0052160413044604614, -0.009432417910472866, 0.008011802829141533, 0.0049794284695001065], [0.005204247989889952, -0.002542664365866116, -0.0012798214218708703, -0.0065970167868835096, 0.00812719719983396], [-0.00233370147696467, -0.0052821203783938635, 0.00811521422960394, -0.0015452810782066208, -0.002170831068321697], [0.002296097441731381, -0.009466199095977715, -0.004382130268272573, 0.0016056759478366765, 0.0019758228922642732], [-0.004935922153582672, 0.0019437128175643064, -0.002813723531318308, -0.008749318604422731, -0.006572847890699804]], [[0.0036902701549798543, -0.006288527253980379, 0.0011570127918619918, 0.0035595475866945325, -7.36876626458213e-05], [-0.007752345377775084, 0.0005553710958843249, -0.006555198904697161, 0.008237472157112137, 0.008682231818759826], [-0.009912445369694729, 0.008807666910802099, -0.008862908816303635, -0.00732650951492721, -0.007052156542710968], [0.008101009054844592, 0.00792060871310243, -0.0024721864377559677, -0.004464580354723928, -0.0011609365379487346], [0.0042508402885994764, -0.007294779039353235, 0.0075435967635305405, -0.0011061135495105958, -0.00012640203155741116]], [[-0.006408718667697777, -0.009274073614115638, 0.007370471963174155, 0.0066010870287978, 0.007751611105006832], [0.0026528834554819256, -0.0032662160115161367, -0.008042924940175836, -0.005840894706865356, -0.0077465322961969355], [0.006716593946754562, -0.0018702127963491195, 0.008014084188767576, -0.009325688163547724, 0.007567768247319117], [-0.004322555554780396, -0.0026006761555057516, 0.002093967690357209, 0.008950930141323237, -0.003908494232562518], [0.001588947390172498, 0.0072017307292874975, -0.009280932141927435, -0.005245283404624921, -0.009960136915827892]], [[0.0036772140478722307, 0.005729170789954169, 0.005537652670022833, -0.006869756617998256, -0.009181733996244628], [0.009990816550922947, 0.009833934424307737, 0.0004558106174180445, -0.007790304596910581, 0.007794992363005682], [-0.0022421928735923665, -0.00867384699627041, -0.0012435714634302915, 0.005227587255662435, -0.008357391192467709], [-0.0012777636632972512, 0.009801557231248897, -0.007382093531445117, -0.006309297890937922, 0.00950691860746972], [0.00899907811439886, -0.0071066459034514725, -0.00473259594180723, 0.0016168372748704618, -0.0041857851423219945]], [[0.009656334352183915, 0.005268680720787389, 0.006655472306103178, -0.009787406619771302, 0.0076087359485302085], [-0.004715357526661126, 0.002546963102509946, -0.0021339110206262204, 0.007307797423121196, -0.000887046056561639], [-0.008281674535092811, -0.001344822534954489, 0.0053202000611653495, 0.006852855865003402, -9.863725221147307e-05], [0.007719150901510146, 0.005915059678254841, 0.0006730296118689851, -0.005168780872354445, 0.009441812273216195], [-0.006406162129257982, -0.004013612498189528, -0.00794822148891011, -0.0020720998181172896, -0.0057308658258734746]]], [[[-0.005475255976601083, -0.005256339996097828, -3.6873268565453856e-05, -0.005745899057566413, -0.009226837846449157], [0.008832644733423599, -0.002934192386175748, 0.0010556265338136956, 0.003960603050434037, -0.003554261904822681], [-0.005908632423261415, -0.008017194226003761, 0.0074522841570724635, -0.004066098575868142, -0.0015254759108965096], [0.004365438975977338, 0.0018748913650721132, -0.005449069592101119, -0.0036222743522180065, 0.0038731540912591306], [0.006821399506549359, 0.004480141093120997, -0.0025835966696876626, -0.007689288012419424, -0.0024760373362675584]], [[0.0018746985503573527, 0.0022989334101467737, -0.004569026720593676, 0.00018696202795480746, -0.0015956319147613102], [-0.005903839269061699, -0.003698212275758439, -0.005545414197980918, 0.005123748765363135, 0.00021835383381359902], [-0.004484597627720459, -0.006128357040618872, 0.009453013096593675, -0.009721831542556713, 0.0027151919056582693], [0.0016310802592802466, -0.0066342811675142, 0.0026771585805538626, -0.0002829151919915597, -0.008424825488928249], [-0.004318738515706439, -0.001468274873872204, -0.0023509623582162594, 0.0060514089834729865, -0.00813142922803777]], [[0.008099150073258782, -0.006503465203419044, 0.0017887974510447362, 0.0007390063315943583, 0.0023551709895477373], [0.007838435377251223, 0.0026227248366952234, 0.0050566911128710704, 0.0016459191849301866, 0.008795080338995053], [0.00984771397395146, 0.006893521480762575, -0.0036750567662498955, -0.009461838007020482, -0.0041806384721746], [-0.007271382793461288, 0.005422188081081799, 0.009029900486176185, 0.008572822541577743, -0.006780165453378964], [-6.846211612029744e-05, -0.0038932213154483745, 0.0001401358387856516, 0.007527413457998377, -0.008867875915042643]], [[0.0011849821793206844, 0.000663692728812297, 0.004326275910587159, 0.0026654237603608985, -0.009497835232643552], [-0.002119412665781733, -0.00863551368919343, -0.005087028536507642, -0.001036378698778138, -0.004430350893271294], [-0.00963943597867454, -0.0019625040685406357, -0.0040654499599308384, -0.004002134276309921, 0.004444652232353768], [-0.009112592778731596, -0.0020376537674166566, -0.0017645275430575261, 0.004440725837587542, -0.006497204932549752], [0.0088223212642901, -0.00833721551587167, -0.0022149717234396403, -0.007942640672049006, 0.0026156247352834457]], [[-0.006116556968975906, 0.008883894911531685, 0.001248574004305416, 0.005175870974883329, -0.0076052052088048955], [0.004263478984399842, -0.005153866499652269, -0.007807639619503261, 0.007524960526863267, -0.0009172403576350446], [0.004521281874640636, -0.0022774046964839315, -0.008143232577464585, -0.0028158317918637234, 0.0046379472069325075], [0.005752705646970233, -0.004529525860547541, 0.006889451600453919, -0.009526531617352145, -0.002663617088744832], [0.00644194815467629, 0.007732379473547541, -0.0037760622090761073, 0.009996448578518448, -0.007085258120536961]], [[0.0004575419978403248, 0.006311670634522643, -0.006864944978454959, 0.007639512573207835, -0.005255456146880642], [0.00623366361303287, 0.008172030752450066, -0.0027273829204872493, -0.009050245829213321, -0.009520528062476125], [0.0068643419167948045, -0.0019688802864384243, 0.009159315051308582, -0.004610406034199666, -0.004239055191558114], [0.002759524340360347, 0.0003307320925269152, -0.006637615265641168, 0.0012062056558394055, 0.0001806406991749828], [0.0048168319395401876, 0.006454690190666813, -0.004272870856647293, 0.003777018224942707, 0.005309023052361101]], [[0.002611124025202362, -0.007391322835137885, -0.00012364522091194537, -0.005110237998370092, 0.006600867912008144], [-0.007239364055548774, 0.005454067314712557, -0.0009156013723623641, -0.003767972660209081, 0.004022885507246276], [-0.006897560182352403, 0.003956169470928755, 0.005810544794749027, 0.005853419562815069, -0.008873931073844075], [-0.0012130028123638753, 0.004654026858402676, -0.00674121885068836, -0.009382968053839553, -0.004658332531717795], [-0.006395488607274015, -0.006107579040657864, -0.006350498990666429, -0.0026515600887971717, 0.008113476967101773]], [[-0.004843834701671426, 0.005620914211841091, -0.0011078308793161682, -0.00517165728434326, -6.180498627855822e-05], [-0.0007003643157482056, 0.0023357764946665767, 0.006525619620481521, 0.009637146848202301, -0.002232238337416694], [-0.0042315706821676865, 0.008187864176835412, -0.007833937011007657, 0.0009147168657007152, 0.0011699084059382696], [-0.0061242150937544145, -0.0013839852630546916, 0.0067696839388888, -0.009202341848672491, -0.004887182805909498], [0.0030707815308358907, -0.002114475134274027, -0.0034505196890324587, -0.003160223503668653, 0.003405563409961721]], [[-0.009929507546191634, -0.006625947304379673, 0.009470486134085085, -0.004331338486697286, 0.008441722672223699], [-0.0008602467267130424, 0.009326341964199448, -0.004437484703223039, 0.0030150007114577992, -6.0697000735008556e-05], [0.006482299992782532, -0.0007648555197372656, 0.00039554189682674, -0.008494934043833465, -0.009492870098990747], [-0.005150713856994012, -0.009858687313707861, 0.0037571587573666434, 0.005928950200076647, -0.002339327560628517], [-0.000711164374633538, 0.004277721708799635, -0.006645787924077454, -0.009390973002709553, 0.009111248931008632]], [[0.009985402297489029, -0.004845352613725635, -0.007244983206345934, -0.0058865036556541685, -0.009326796983718993], [-0.007405581514948121, -0.004496838301177598, -0.0036930632793349, 0.0074236735439727084, 0.0040330226128141335], [0.0019578371776263863, 0.008907881309608909, 0.0006305786401674245, 0.008916308952471221, -0.008308131407535746], [-0.0019456558897734174, 0.0005071847565042351, 3.069627311913688e-05, 0.0043682899898624065, -0.008445716588806272], [0.005138594873471635, 0.00614887192002409, -0.0090624322877775, 0.0062156495289240905, 0.00022427276482310347]]], [[[0.003658597782166234, -0.0008828529995191726, 0.005216573390172094, -0.006618445048098854, 0.008035339256487816], [0.0060250341750557575, 0.0014912225445325754, 0.0036036872514035754, 0.00027166105779027563, -0.0035460488113444434], [-0.0027749831879904604, -0.0005273710507283948, -0.0016295738888263203, -0.009645572740954298, 0.008680768877250474], [0.0018632668490022296, -0.002391956155171657, -0.002076651871726009, 0.009963767168744954, -0.009571999831590822], [0.0010156659675275557, 0.007927322265581698, -0.007220027726532188, -0.004261588610597867, -0.008216640672738872]], [[-0.009650807204491383, -0.0037505747242711296, 0.0032515222109190008, 0.002151357367753969, -0.00364279567423272], [0.005070780928537379, -0.009897877772765955, 0.0007926567586615963, 0.002138588306268936, 0.007494399580749151], [-0.009636861772090284, -0.007976356585984062, 0.008362930469897856, 0.00313876061287942, -0.00823531784197261], [-0.009016703480974634, 0.0022031976642210615, -0.003672032397824928, -0.007771548062048868, -0.005798229985697302], [0.006093518394355916, 0.006535002962911276, 0.007720234975683369, 0.0032789675655404277, 0.005461475473879761]], [[-0.0032160543998871454, -0.006374266887528879, -0.007384353210914647, -0.0053168856738619145, -0.005115810430566372], [0.006561295864892644, -0.008278167105364677, 0.0030518692519137694, -0.003966151121044956, 0.0014177566008955725], [0.004023426106058363, 0.0029061408357791015, 0.009113453158969519, 0.0046893158855605376, -0.00735633842865828], [-0.0067221027969407, 0.0099849474696891, 0.006639448408872239, -0.005014970840066155, -0.006683938968579832], [-0.007452106809257871, 0.004574300793108181, 0.005090253569242978, -0.004660172133825662, 0.0005825253607358889]], [[-0.006225866077102009, 0.008352066135884196, -0.002025043314560464, 0.0002566160136811402, 0.0013048464908405864], [-0.004032492341305338, 0.004193027757342897, 0.00927639732296247, -0.0020708085375806652, -0.006534215219072336], [-0.005753409351733989, -0.0054940206227434805, 0.000621408592618801, -0.008189462676631096, -0.0029658265890470797], [-0.0014406823164201676, 0.0027877306971877142, -0.008409446279452943, -0.0014088425314462566, 0.00638798136694402], [0.00182384759435877, -0.0006918214387942143, 0.007762735378913456, 0.004583089977268043, -0.0053539011484066475]], [[-0.006423011213155391, -0.0018895485009678917, -0.00639092192983771, -0.0020289910437585874, -0.004553014446885512], [0.003920329436880465, -0.0016571632426284452, -0.00912406202532155, 0.005005759002403949, -0.006238990331252624], [-0.009996106923429022, 0.008605912748915347, 0.001400950939907737, -0.007374001719048097, -0.009331919801617088], [-0.0038312286457632843, 0.009987628995158556, 0.0010426483392567175, -0.0021475689677744004, -0.008847839486594757], [0.009456770318426663, 0.0011698312158918667, 0.009248098714730549, 0.0011345203220861097, -0.007201142016482684]], [[0.0023235126307702167, 0.006513284372095989, -0.003945016449708436, -0.003537435047377335, -0.008424715667230227], [-0.009957886021788695, -0.00863476422017551, -0.00029097101461095996, -0.009856468820882942, -0.005279333672771152], [-0.0016135199365737518, -0.003515283211538331, 0.004833127636912776, -0.009613780792918013, 0.0031140368812379183], [-0.009447901380469902, -0.004373805327184374, 0.00400728344626393, 0.005578475338387724, 0.0034959824399720895], [-0.008362480197339735, -0.008530921031121522, -0.008516347867155735, 0.008672563585037445, -0.006221568983280119]], [[0.007099982666660805, 0.001925271787277072, -0.0022460946378068205, 0.006807063521224398, 0.0054948455716032326], [0.0015990953297460744, 0.002090147255585184, -0.0036252700002736248, 0.004301304047053242, 0.005342025467683817], [-0.00610013828649097, 0.006929984303653353, 0.00384192279683821, 0.008641689120096056, 0.0002951344410681003], [-0.009021478791485108, -0.003203354723549803, -0.005845930405624751, -0.004409856844911298, 0.0045175388441669575], [-0.005343310915566451, -0.002466574780440723, -0.007165116100431015, -0.004096181496540939, 0.00022596942928239283]], [[0.0007658670709782207, -0.007080374819155927, 0.008744089393137033, -0.005327369990648492, 0.008108758148368235], [-0.002070976202250327, 0.001944279804451308, -0.01054191952401459, -0.00033154588917849183, -0.005367672530851911], [0.007810362900978167, 0.006234706607989902, -0.01061859714985595, -0.0017129851674623415, -0.005962273169402647], [0.0056868799367862525, -0.002138117667716104, 0.0033673706545933146, -0.001434448998213467, -0.003671302762021925], [-0.004740861178634227, -0.006386912418463623, -0.009220303700671093, 0.00848018829501374, -0.009739616711222986]], [[-0.0004002957285768337, 0.0028022429919013748, 0.002058613889844387, 0.003256278886131152, 0.006069964804913629], [0.009533925448513334, -0.0065109932118446534, -0.005231021620475348, 0.0010736318713724243, -0.006853769967758923], [-0.001630714652160081, -0.007937130409469844, 0.00039692944459656607, 0.007251013651131197, 0.009102219244372666], [0.0002156777194948869, -0.002942056169039914, 0.009029384609843118, 0.004435610962634998, -0.004474136445695203], [0.004253521044790123, -0.002275413742440749, 0.008331144830061707, -0.00914765395609445, -0.004385890173894326]], [[0.004469963473251892, 0.005355604792427863, -0.009480611599894022, -0.002457533254650592, -0.002806192476775598], [0.007399437404256648, 0.002690950677792828, -0.008151354928419893, -0.0008776976372823541, -0.00703527161980533], [-0.0007420187236617062, -0.0017064893710833243, 0.006424553493143901, -0.0014281531577861046, 0.001969937791963221], [0.004210764380347979, 0.0001321796148136344, -0.00803942816799841, 0.007853997374412816, -0.006055428288982472], [0.0019395915969653277, 0.004014369000674544, -0.0007261508155999014, 0.006996143023599134, 0.006268593983924624]]], [[[-0.00895719463445048, 0.0008283246233696231, 0.004849411045539711, -0.004703568383824831, -0.007160137139039498], [-0.003113728765575321, 0.001993654981825, 0.003776685634881191, -0.00981140025925408, 0.0009103719966667951], [0.009731768993921005, 0.005346756253524327, 0.0022344723050167006, 0.004244036106963003, -0.00516123349423975], [0.005468757577857988, -0.00020156281975088728, 0.0067022527417949914, -0.008111071574803433, -0.006387727385994784], [-0.008737673865209046, -0.005523145250104381, 0.007752572671382797, -0.008170461908782024, 0.0055083252663661415]], [[0.0029723201907551327, -0.008682605936367823, 0.009653374181720733, -0.005423766330659747, 0.00633157839340283], [0.0034530848273688127, -0.006705266530579151, -0.008550491804315764, 0.003892263067313455, 0.0018891420460467063], [0.004177241471597204, -0.009807556706039082, 0.009007099905922992, -0.005138803895481614, -0.007005728791033186], [0.005241994689198623, -0.0021669226514672187, -0.003551741340330288, 0.0056974684049610185, -0.002506153040551899], [-0.0005265769397768023, 0.006340143076944872, 0.00744228729194407, 0.00026856896309529303, -0.00021436595801037003]], [[0.009101004662104437, 0.008574335542321992, 0.0062166919373718, -0.0035886469328373373, 0.0029574141242381924], [0.007374066491525025, 0.004486848740725951, -2.7400917051861083e-05, 0.009936715341932426, 3.150482145832498e-05], [-0.003893593077365683, -0.00748639367276976, 0.004293768181886728, 0.00193103846539178, 0.0027699290435327277], [-0.008928137280012741, -0.004893633974625289, -0.005427333745964824, -0.0018776947636265496, -0.002963211904185828], [-0.008670451930544467, -0.00027471583634729527, 0.0030245963341094047, -0.00048225273155856185, 0.007554394096653138]], [[0.00717519765666747, 0.00575365070013231, 0.007984051832351274, 0.0011527282210070054, -0.00040400444347672953], [-0.009733196377612047, -0.001230577796156871, 0.005634922017729575, -0.007915319015582145, 0.0007796449518034642], [0.00399311617126479, -0.0003031238343394525, 0.007631438736705945, -0.006984596921134915, 0.006823663397798673], [-0.006307933096394481, -0.007359320304680672, -0.00037605221889819177, -0.008415188240444006, 0.005848251387170242], [0.004967442464200404, -0.006242716563506662, 6.671774466352467e-05, 0.00517895319027953, 0.009014438230853314]], [[0.006587053054240162, -0.0003200574395341882, 4.5889425072248336e-05, 0.007102947425458893, -0.008373955893640418], [0.00026706269737163704, 0.006010772436618118, 0.0018726863443453915, 0.00026866544877137294, 0.006610553553028484], [-0.008414430734964359, 0.000856002525376961, 0.0014222068610130305, 0.004357502167951529, -0.007742305278601233], [-0.00045220278143256326, 0.00840600071181793, -0.0024377488073548314, -0.0020113338699223396, 0.008889751895665925], [0.006282072578126135, 0.009968060497217981, 0.005786142837214595, -0.0039061794651656452, -0.0017797438492187462]], [[0.004703601552328284, -0.00047294695897349384, 0.008112439862044924, 0.008605284266573428, 0.00834081381804031], [0.009082082921790316, 0.008408641832004416, -0.0044412297234100225, -0.006638894733012669, 0.0002738368169382037], [-0.005088550856605548, 0.0028647531010298957, -0.0062953119670456905, 0.001413523868440243, -0.005225709889915371], [0.0005862775718006884, 0.00791774246067508, -0.005044180655387902, -0.009714399031697601, -0.002397762704871619], [-0.0036006262223234786, -0.0055006308478998765, 0.0032437441297340852, 0.005316841103779518, 0.0018899726422124123]], [[0.008698162342871704, -0.001505646640622753, -0.005780380306458334, 0.003993392945469552, -0.003993789586503314], [0.0033370484552909347, -0.0017849972312615815, -0.009022463562278045, -0.0024809607108083696, -0.003274351471856813], [0.006483063038736839, -0.007695038088152586, 0.0058115176416098585, 0.0008693883418804504, -0.0008887236873724075], [-0.005177443487896373, 0.00817513802364316, -0.004533145560005013, 0.003862638999375236, -0.006032321554041412], [0.008657048489355333, 0.006334480343326332, 0.00577827738572575, 0.005151998648805265, 0.0038734824981434155]], [[-0.008046892520905579, -0.00037365356216992893, -0.0058920130651846135, 0.006221666585800466, -0.008878921441133834], [-0.0005243939055379248, -0.006400216247380708, 0.0025789068856800425, -0.005588668961834647, 0.007863186534928807], [0.002710888051461325, -0.007968916073296426, -0.0060557017346293575, -0.004100195665375224, 0.008885850051588387], [0.0005044385412623408, 0.0016776984176222914, 0.005656750545964678, 0.004878728259302397, -0.003840942486266225], [0.0045185855864120624, -0.008948013653301726, 0.0043040973834568225, -0.009050406054029304, 0.007703899522280505]], [[0.00468171595748459, 0.004756850036055279, 0.0019707566575158314, 0.003847559434005191, 0.006543609756109031], [0.007584807750999528, -0.005662530571645581, -0.0026127042778924603, -0.006820259352867266, -0.008791659528550105], [-0.0027457654965570445, -0.006561484261819883, 0.0008912624923237229, 0.006679591846707907, 0.005405923410638502], [-0.009419924137438914, -0.00564920147564105, -0.009262144077896592, -0.0029036187418935585, 0.00456440054478908], [-0.0049975549858374815, -0.0020940864329629856, 0.007488616477946618, 0.0040222017413751665, -0.007507315747501405]], [[-8.274520470407531e-06, 0.003331810211127334, -0.0031708567099729286, 0.003560495003071273, -0.006016146686158493], [-0.0037371436705705445, 0.005532852261519807, -0.0005204604683739481, 0.0039629561155938055, -0.009543257029997955], [0.0040273435296769204, 0.0073679234398443365, -0.0074909401952659915, 0.009337678665651144, -0.0022185548695119314], [-0.006048526533759769, 0.002758824226493683, -0.008176035750271909, -0.0022144579348686248, -0.009724866565520468], [-0.002355879746030439, -0.007049655204874789, -0.0042662292309896595, 0.00423379792360618, 0.007339348035583748]]]], "biases": [[]], "convParams": {"stride": 1}},{"type": "FLAT", "activation": "NONE", "weights": [], "biases": null, "convParams": null},{"type": "HIDDEN", "activation": "NONE", "weights": [[[[0.07287247786989386, 0.12797938435591547, -0.02004435586460014, 0.032117860356103846, -0.05480718475941908, 0.08763006966839985, -0.046078960468035265], [0.06396681296356285, -0.00330819854995787, -0.03300064435787561, 0.06980580004491616, 0.07264399458811634, 0.03653020367544888, 0.08459554525060331], [-0.1037799824536489, 0.009130661824192091, -0.1333681958985654, 0.04029328109309948, 0.05318440009080986, -0.03157923180766164, 0.2617975213244029], [0.15890762524881338, -0.06489001198050535, 0.024300917645229042, 0.23484690935691402, -0.05093115107147329, -0.14865517569019904, 0.02793157539577096], [-0.10806117803961916, 0.06364052013433971, -0.06700181015306508, 0.15252750281648508, -0.05024858824169059, -0.053293097226460945, -0.05881800999312955], [0.03202390833040349, 0.0627864408667978, 0.018570515693518305, 0.15828188628194126, 0.0036638522545948795, 0.18188790614555433, 0.045860100489529224], [0.11613317061087901, -0.025571786992746023, 0.07818631932291978, 0.24953693381586392, -0.14793143841841108, -0.10659230862392154, 0.08520420292585998], [-0.007721542721142449, 0.1357815972139081, -0.10045269086515458, -0.09629332500945197, -0.030401565265725846, 0.10479935958937192, -0.04555235286854053], [0.07746441941026444, -0.13890550717556646, 0.09031033617416234, -0.014663867258843338, -0.024889653032509847, -0.12062952027102161, -0.06211059255902035], [-0.07241206465625798, 0.1102266698556762, -0.037527746698463114, -0.20800298419404797, 0.103526509234214, -0.033226296294192555, 0.04769905301155358], [-0.178534593644057, -0.09149166207402416, -0.11604377299343518, 0.042705388228556046, 0.09145586200859424, 0.006504328201894607, 0.08435312020713326], [-0.036030564712512876, -0.04291036287039365, 0.14790096606209796, -0.007302576513758302, 0.1583917308207829, -0.044771680411253456, -0.139700108123936], [0.06083682839589408, 0.17100968034531747, 0.07641466449200862, 0.04453104672241993, -0.16635170425083862, -0.05451681432917458, -0.05316488539401462], [-0.10599841640641486, -0.04642417820395398, 0.16332830310462512, 0.19152846655910086, 0.011409142172630083, 0.0377541546349018, -0.09064087390674934], [0.020115280798142607, -0.03813513176247173, -0.15421650459358105, 0.04923988698409476, 0.11445149135635826, 0.18683818147706968, 0.05813027177292837], [0.014473708952132154, -0.04414633420152539, -0.04862293783207973, -0.08553384809401002, -0.032326172683486365, 0.11567401713094952, 0.20564132231050744], [0.1556635282287933, -0.045617299598267144, 0.018355029385471473, -0.10804450547264649, 0.11869933540066331, -0.0396160832091611, -0.019164542930059956], [0.04027624371501949, 0.07845674865215795, -0.1109278018875398, 0.07815538997824223, 0.0333817311642553, -0.13152438144637754, -0.12634560499581216], [0.01671493354879492, 0.012102727460716601, 0.14500709790652225, 0.09051592379866129, 0.0067888109319604985, 0.0040364977102835846, -0.037126751096331186], [0.09915117697728872, -0.11094024545378502, 0.1983089685309205, 0.013365958542647006, 0.024015418295106096, 0.06663471556596585, 0.0414763955701501], [-0.16439352974260435, 0.05395569881342737, -0.1509390353661658, 0.0785999292990468, -0.23479665478078487, 0.02706745600200204, 0.1795550235931244], [-0.11095042135877281, 0.0034496000181367596, -0.03661127533130599, -0.06221683226595982, -0.02865650510530593, -0.04483043894616102, 0.11165464376487251], [0.1314058645658532, -0.018199641467941702, -0.15525737463457442, -0.1285103433476296, 0.05869385913175041, -0.19054463729408344, 0.17522053081503858], [0.11261814955145555, -0.04350916596235261, -0.20030204668572807, -0.049181244851212495, 0.04043462527064614, 0.024745599262244216, 0.013916622495233053], [-0.1540621215654664, 0.032645144265912425, -0.05526371736385206, -0.08566025729239869, -0.11841065516386658, -0.0022651433077758884, -0.14377941686590728], [0.07400638828730478, 0.1946602591009123, 0.12826723983812194, -0.06406028220948368, -0.14305311454527161, -0.09726314388397313, -0.16929914278834335], [0.0827672548612847, 0.07004531478534937, -0.05106542552491582, 0.016776720678981987, -0.0035320551070843367, 0.14595947580734397, 0.0457758456341186], [-0.045149692731811304, 0.010848809041260628, -0.015009409852485125, 0.153220511097478, 0.08871029965282293, 0.007992339837983186, 0.017507980597982482], [-0.04144089629921767, -0.06949907223162986, 0.04535041827714511, -0.16787541783402168, -0.02210683272768079, -0.008717644625391843, -0.09499738744460356], [0.10873691607883862, -0.10439082877593307, 0.08836751633130846, 0.053845420340278644, 0.012101124828981739, 0.04216910085625922, 0.13893544372299463], [0.02896710336233684, -0.04834876468178564, -0.012446188949360436, 0.1361720772536831, 0.007608263544218725, -0.12532324286078433, -0.15235820979264197], [-0.17337953261194955, -0.03682706061891465, -0.0028430789450999347, -0.07407771526951039, -0.007058235591284214, 0.075737445617751, -0.15119064458466322], [-0.03591957667042671, 0.1816569886975852, 0.09499788802264873, 0.14330234063095199, 0.050331969873664985, -0.022738002210085685, 0.1084275060121474], [0.10986581233655204, -0.17712056243048868, -0.10938440334753002, -0.16715100669096275, 0.027368617079327653, -0.04747873613493412, -0.07841645700860546], [0.05296520373797522, 0.03125529498017991, -0.0774143723643511, 0.0015395345807678348, -0.09827651467987714, 0.01689255250676256, 0.01957223748680016], [0.10656813116478861, 0.08948931232909298, 0.16384522607113092, -0.009449794190782698, 0.18001132408957557, 0.19800662751850404, -0.05032486125765773], [-0.0417535342062801, -0.09623619335969257, 0.0033172311970380954, -0.172988145689447, -0.01144155709646443, 0.002970153456299555, -0.032353866577443366], [-0.05464616299837227, -0.04382469283595218, -0.08536276314505609, -0.07279252985993516, 0.06215385353699846, 0.16205518535465316, 0.06510678855919291], [0.06368219578882085, -0.04516884059202608, 0.045306564216034025, -0.008576344110535794, -0.0061782826326078856, -0.08138642329701844, -0.12487357374193576], [-0.09118057562834113, 0.011386154854401849, 0.12051884536574528, -0.08734881893461016, 0.0013743717734687056, -0.09969736809096191, 0.08670136321613348], [0.026913362608066944, 0.07671169119783444, -0.034254378657916563, -0.14021298805399865, -0.07776481588624604, -0.042717721531248844, -0.00872229961190621], [-0.09014194285304662, 0.04201105280048186, 0.1282510110996624, -0.10743289388379075, 0.21710886912060073, -0.17892917664681376, 0.14297648872410446], [0.12073055328827263, 0.1173029897984273, 0.09425539152544042, 0.10406240764615045, -0.10957899014449542, 0.17358758741045938, -0.06428842957125966], [0.12521337444164135, -0.08614413415958538, -0.0360504643915291, -0.06771619764672322, -0.1093052607731946, 0.05396330824023215, -0.2398276452950808], [-0.11327986590597061, 0.07866975340276952, 0.001878317203477822, 0.06982402753185672, -0.14160630117679454, -0.21222823621353493, 0.02467137094312565], [-0.07819952185350805, 0.010487902466527681, -0.03695801994613734, 0.034811764425195894, 0.09814905907470176, 0.0764893690549589, -0.037295306802555384], [-0.058046906525229786, 0.04519176207572428, 0.006035487004537234, -0.11335155643336062, -0.07756029090812075, -0.00450729105907294, -0.025663001573548977], [-0.08845789064970322, -0.2101833271635323, -0.01956116820713654, -0.0018355080721241407, 0.11843377911050572, -0.01135938394567048, -0.06965344529285869], [0.03566299768597725, 0.05097516538139985, -0.27493980764198916, -0.02369565547123368, 0.096802079788024, 0.07628482567382086, 0.1142161318369138], [0.03228617257088644, -0.08898440805611746, -0.12881104236177074, -0.08302880462594514, -0.17707695413738783, 0.10239695976984217, -0.10122846871275609], [-0.028696449604720987, 0.03339795233729264, 0.13055346626628636, -0.07142048607423407, -0.18759242402338122, 0.0945575858103468, 0.13789366181071325], [0.11178181378291163, 0.03337265355072071, -0.013158030631468656, 0.05920056768533239, 0.11956733465196671, -0.11720560189866967, -0.062352031196111664], [-0.02112878073939443, 0.10766608722089492, 0.09125407738698403, -0.005789005392960572, -0.07254199160919847, 0.0692023655175177, 0.017564862892790474], [-0.0022311885757331893, 0.062206968553207426, -0.11562727637920903, 0.02454584940198366, -0.15379031030833093, -0.025598789993792104, 0.016246738340027128], [-0.08943577155000754, -0.0085990649495417, -0.09510211288461624, -0.019226788041657002, -0.2149483565383416, -0.0700728708820298, 0.008284806408980255], [-0.10628092746821301, -0.11577451067764508, 0.11276420715634215, -0.12368344718073655, -0.16079554872332177, 0.10577599151082098, -0.1018953341335814], [-0.0867395816245224, -0.10194940200324938, 0.034523886275934744, -0.05711799506012225, 0.21237374104457704, -0.13579432571179048, 0.13424825107132482], [0.10157232330935279, 0.14782362768777121, -0.024957574198708542, 0.0007588271953054909, -0.032800227725432826, -0.06554272545550532, -0.09304125484568582], [0.10045621520774888, -0.0748336206350322, 0.09436752286676962, -0.2003528018194818, 0.07027510598402882, 0.0048277171867307745, 0.14244064719782626], [-0.07422276174370072, -0.008954847533742948, 0.007250611607122059, 0.09785350241687016, 0.04210646123127296, -0.10790496654958467, 0.09672797150910786], [-0.0642851340379536, 0.13609628193458737, 0.18558505172105472, -0.12168562565335336, -0.15617050473852545, 0.19657223065823348, -0.03314095823715311], [0.06540944038767492, -0.055656604624031096, -0.05239535491584505, -0.13777034100501065, -0.08931511608738804, 0.05696375835712726, -0.1750792419142002], [-0.03266592437049409, 0.1436043786594116, 0.15993474011499778, -0.05726344464758327, -0.06468970374102836, 0.025423199580800446, 0.013284551897002896], [-0.0819255919988218, -0.06879662825941153, 0.1817514486137174, -0.1507265611501145, 0.04813965239714347, 0.05135995784789634, 0.005094516242455536], [0.06593917311016244, -0.028948793595853516, -0.17698941161022233, -0.08555106805330409, -0.16254022512850846, 0.23822507808975166, 0.0545151956519977], [0.06832565362485887, -0.08082407063716339, 0.05705024947251166, -0.10445720977438426, 0.10836460625915775, -0.1101384307645292, 0.06163704602756916], [0.07585164555728899, 0.028007404369557724, -0.050700436575589786, 0.027790951438698402, -0.050215498541251194, -0.1306579269006009, -0.0524980248227666], [-0.0711596562625961, 0.2322401360442808, -0.05454768779456085, -0.24093479406042712, -0.029218196563583106, -0.06806539752694606, -0.0601348620003219], [0.17149481034407088, -0.18318868089281073, -0.10068159891952375, -0.0817177411834099, 0.06502104916767752, -0.07060000988489164, -0.00982242233364085], [0.14746521293594148, -0.07532428924356732, 0.03375835211400755, 0.13854291661792312, -0.12111117597550707, -0.09359389397636118, -0.05175299351270299], [-0.01043580456553095, -0.062935658178484, -0.11740062366027118, -0.009532055212353166, 0.004714115834631936, -0.09184604374797394, -0.15723879678112263], [0.0032875364182397373, 0.013478947400667138, 0.007663189992496724, 0.10715256176404205, 0.0889144015958831, 0.003520760014927982, -0.01824625789634452], [0.08832468345043863, 0.1210890246855046, -0.12922448798157238, 0.06485419317211397, 0.038148362061580204, -0.005295986912103135, -0.13168359030414487], [0.10815552961862711, -0.06152036483145676, -0.024418277366155407, 0.04849886600962661, 0.23977222461734923, 0.09322440840610098, 0.17595692173041202], [-0.00545461569224229, -0.024765829661139004, 0.02165439222160731, 0.01927838402828208, -0.0681940030333901, -0.060165877744314, 0.04670671096155952], [0.06725764030529353, -0.011378681549159551, -0.07256628873953154, -0.0033200120605936024, 0.02941804169492304, -0.10925469571266612, -0.031352204796761145], [-0.010530627755349064, 0.0019600835283941696, 0.23078331076931183, -0.2556307074103901, -0.2042712027564382, 0.09195397765238653, 0.03408997274826991], [0.04649230094948412, -0.01974563886501297, -0.11493519600214865, -0.10216314643728601, 0.21641266495421932, -0.09588304965999478, 0.14150111577346197], [0.14705877153203867, -0.03675337993844704, 0.017504518315121047, -0.04186850494019389, 0.07518923441326664, 0.15606645312516468, 0.02772179397261419], [-0.17040003599360656, 0.1724922038989899, -0.03180416917269324, 0.12918724127870992, -0.10617941495737221, 0.24104411643415238, -0.12347896996765248], [0.1015278555657479, -0.05733151024064369, -0.01596074968940755, -0.19244838470438078, 0.1327056184443058, 0.005526978467979918, -0.2487811546780657], [0.06447458925916412, 0.13161512098926667, -0.18668733737443835, -0.0036621985885387275, 0.018126538947341328, 0.07689405287200567, -0.05134543150900468], [-0.06888179486159829, 0.06043310353108211, 0.021267840019034038, -0.04158797786991665, -0.021564574114472837, 0.06041613574395725, 0.033381820394535015], [-0.03932846528372176, -0.11166830078662882, 0.04988532051827658, 0.03919060654947279, 0.16432013579826762, -0.012403692474553649, -0.10998658246396853], [0.0913336440279693, 0.25640380676816393, 0.01347664549648617, -0.18788263828640056, 0.028503219740557095, 0.0898062616060979, 0.12763412663427323], [0.10257330924601761, 0.009194431009942524, 0.06724892216285154, -0.09396535161002444, 0.020886005839939912, 0.046802761040076704, -0.06825284242457415], [0.1946631285589333, -0.040547362877471314, 0.052449153133393614, 0.02786839167235471, -0.032973994331283604, 0.2558833405561654, 0.08255530143663638], [-0.024313220359116875, 0.1146167754458091, -0.006926008719674516, 0.04944187103781956, -0.05769438727640678, -0.006010616344881357, 0.05167922021885383], [-0.16389302101166547, 0.14811488095740014, 0.15677968826738545, 0.1601325916972792, 0.014917061178257378, 0.16615476579209987, -0.25445087338607486], [0.09766980572013456, -0.04449600649715078, 0.012527154774730138, 0.0683576795098892, -0.12902052099697525, 0.03078223308841009, 0.033403064915574626], [-0.03886106747264731, -0.10181103366366695, -0.06823587554595816, -0.17107756427650517, 0.22327372438147608, -0.052879405020702486, -0.27062996102507864], [-0.06376273005496133, 0.06403517255278565, -0.13043064507648397, -0.05947132177794648, 0.0613562493258925, 0.09111144401461768, -0.015988138683274207], [0.008383327629130915, 0.0270657888448107, 0.010012554635946408, 0.13085520386661426, -0.05087954136409309, 0.1081134868390934, 0.15564651692573983], [-0.02897128235112424, -0.06383953068736753, 0.20762848466617018, 0.08806340659501742, -0.06638193212579874, -0.14705795335280772, 0.07731368454368559], [-0.11599930581194097, 0.13149651802573592, 0.18183929621616665, -0.05157860683935008, 0.169171869270539, -0.041426385919997186, -0.05751362139240137], [0.05508427534279063, 0.23483923004400847, -0.009464383918910852, -0.12321785811668763, -0.2104628436558147, -0.14110164087924423, 0.02754378708439025], [0.08522944408449554, -0.07454662644857578, 0.0025249758599390016, 0.05004141532066258, -0.08990690339939889, -0.15390667919324927, -0.05102370176405929], [0.04845925383622012, -0.06640650036352887, -0.0693391146025662, -0.2021449493884606, 0.09801838880486281, 0.04308858796434644, 0.048919512421408594], [0.17139473742325034, 0.17835897901398443, -0.08238058766052915, -0.032546529401050454, 0.014765931734334391, 0.022165093922240885, 0.17492291003144667], [-0.0471546738230207, 0.07718095860356668, -0.009608086797412286, -0.06847038898017307, 0.10550465419161853, -0.12379553246033079, -0.07384772561343611], [0.10249786402306922, -0.08404454938913528, 0.018243297435394455, 0.10951735005264737, -0.04951821559389048, -0.03164960840516373, -0.05593328431604574], [0.0016650825714533324, -0.06055612108890478, -0.15335312623038524, 0.10592191660738386, -0.12212166672078272, -0.011949776311786908, -0.08742878020635488], [0.0003143283993722307, 0.16540736376337412, -0.053604468790564345, 0.016750213172880973, 0.1950327682314745, -0.07851235607621444, -0.01100329642975463], [0.11387324492123874, 0.08454328263939949, 0.07861151255959621, 0.015207960583392684, -0.09191784253859657, -0.0026131884691360996, -0.036245336296404904], [-0.04231852878238911, -0.0007068726922874616, 0.23060239958783668, -0.06648384775385494, 0.06919808353888332, 0.11630114531415575, 0.15294117167221574], [-0.0010572797712716882, 0.03386500189960255, -0.0025358425214215257, 0.03547040117569099, -0.046462567191200746, -0.020834761789981244, -0.02173079986233106], [-0.06317527473472796, 0.08188763954640384, 0.09490044816665986, 0.09298595640047318, -0.0383333890369924, -0.01569745064742711, 0.017910376127103687], [-0.19361055326914875, 0.09495194220170207, -0.07077259697698088, -0.062409785899021325, -0.12386381552579942, -0.023797912207793235, -0.03354558555233017], [-0.09756910798963585, -0.0027948786409622826, -0.061141157198254685, 0.09746979519939569, -0.1707747997978195, -0.09929440767210493, 0.08246201432490347], [0.05670309364066062, 0.08032257228941403, -0.10390408949030207, 0.193243564704473, 0.17450952184019472, 0.10462725429599011, 0.0419982641422112], [0.13174641568797527, -0.00798755126961767, 0.07357778355483807, 0.008287314578245275, -0.10646887980403497, 0.016599485858435358, -0.09552598644729215], [-0.020006834269216824, 0.05186536865909625, -0.14546954278678187, 0.005494606310934858, 0.014515674274975437, 0.07329089809782269, 0.055566932848853355], [-0.06147854040520827, 0.11384789489097168, 0.015557515002482097, -0.09676782628979556, 0.005141757020419982, -0.15458180873623453, -0.13336562465806212], [0.04583409925906914, 0.014515127223059011, 0.08414198294284772, -0.168340157277781, -0.11912303627761149, -0.01843136364476075, 0.09179462947177808], [0.07595243910214393, -0.00795150192990868, 0.09912684201860363, -0.05007821048698969, -0.03242256427747485, -0.000301817581104277, 0.024160247309355693], [0.04611037554129606, 0.03865565693013418, 0.03531698514455412, 0.23307431108575039, 0.23441559799660774, -0.011499801800929157, 0.10301406650361954], [0.074225533489731, 0.14050080099052054, 0.10088061312893234, 0.02241550118302461, -0.0474354325415286, 0.09172780502243938, -0.014293526535622726], [0.07156930216399676, -0.0999708353310526, 0.027681699824017716, 0.012334198348484862, -0.020694418193688172, 0.11378120992338983, 0.06235487196960556], [-0.11090648023322656, -0.05259679647946738, -0.029383473020987115, -0.06292103267476215, -0.04248594460473235, -0.1543085282220756, 0.04363348915678415], [0.015150508832674752, -0.013746517636690592, -0.018774081277468647, 0.021399617588174207, 0.03259161970951243, 0.05019987481165953, -0.11867514501577783], [0.016502040719557954, 0.06659656936391337, 0.0010542573760597199, 0.03465781650289458, 0.031346631526864656, 0.0036628257732400056, -0.09220350608164737], [0.025211486527410735, 0.04166008299930771, 0.04788176057832639, 0.04373933435313201, -0.16071215600078614, 0.11453571553812253, -0.0906641239540346], [0.10304544689337503, -0.009340119265153598, 0.03595499624783302, -0.18489003734107404, -0.0569864103759831, -0.18088363451763012, -0.27456610667886383], [-0.11026021834431157, -0.029055429607577347, 0.033756730215900005, 0.12369459403533002, 0.04423194782833431, 0.07357618713920171, 0.052362396863596894], [-0.009831958443491806, -0.018573083010074046, -0.049036366256266097, 0.16759193039438297, 0.06813496084151158, -0.148283624826056, 0.05763394456957439], [-0.06573380417972642, -0.08283164144126762, -0.005472937248705958, -0.0678372797228947, 0.06659618311348584, -0.007033296466966046, 0.013590204841542452], [-0.10765182831726554, -0.06919949752641147, 0.041800144989916944, -0.08491529018150056, 0.015544492026207718, 0.00631792658656957, -0.05237350716124279], [0.005862658631687059, 0.05186222514121271, -0.16490390695706472, -0.022004517101783496, -0.20902342915782332, -0.02366636022707665, 0.10529728269540105], [-0.10185707993157632, -0.004130572248204677, -0.02756627122316124, 0.10568383776289526, 0.11154626580765024, 0.007973629946343147, 0.06491568335158367], [-0.0728565768995212, -0.06289207568309939, -0.06760774050030285, 0.1385734672717905, 0.25095605436929264, 0.026368661635787688, -0.08222792971468754], [0.12762251175029762, -0.2287610949229491, 0.05935769687247971, 0.04648592994854836, -0.027920349037520033, 0.027377946139715535, 0.007544678074987776], [-0.15000380454976622, 0.019747750442640037, 0.12231131331090431, -0.07381714641947854, 0.04263270903542055, -0.045065056566951735, -0.05683725546584627], [-0.028804935181775373, 0.1722429227185735, -0.18795467013315972, 0.04787591786272577, 0.017460799294115273, -0.3008041174896955, -0.08690465666682627], [0.12222200608126968, 0.05328825861918338, 0.02471991743439209, -0.0191530293614761, -0.06365604535778996, -0.16777308064365304, -0.0403376929870018], [0.00083790447255279, -0.0032234516013611614, -0.12226895024691294, 0.0767046912640174, -0.04125614667104827, -0.02579630580780325, 0.2137785594777365], [0.12401568727130818, 0.06307423998370627, -0.14196542222801253, 0.05648436474520581, 0.002077413498996945, -0.007217323292736671, -0.032036644086889034], [-0.029314538115607906, -0.22717676130118966, -0.02042062729162751, -0.061442312431324884, 0.17207087255025402, 0.05943027239166388, -0.16098748794242201], [-0.0016589004270977687, -0.1663269990438312, -0.0995452907266097, -0.12111397888115084, -0.12259128112405884, -0.12104085109605706, 0.10459777878878804], [-0.05466591706434834, 0.06239672667304702, 0.19549242521296756, -0.02801282938893906, 0.013303164531702017, -0.1326817809298279, 0.037473940559113884], [-0.10391093774029904, -0.21085478470572178, 0.08848258135065114, -0.11324434659048148, 0.027488454129933556, 0.16094474401613998, 0.050208861848370645], [-0.13391165223174112, 0.037461594078335575, 0.1681474949714995, 0.07202395661341628, -0.0702036985782109, -0.11141561112194089, 0.17367367606111114], [0.13179682083490718, -0.029560081051195616, 0.0004624999825461897, 0.1170684273058073, -0.17327579823022837, 0.12382974574981188, -0.0501057428220928], [0.015160425979292723, -0.018825190230239534, 0.06517251214245094, 0.0340716093605644, -0.04774729612856058, 0.015403590557401037, 0.14750086386468003], [-0.00010849114510381136, -0.12540815228253194, -0.0805559178682754, 0.03312542983784464, 0.044844989994015164, -0.005706911323318813, -0.08828000158823268], [-0.009351125854463955, -0.06648579789219604, 0.07985952094374513, 0.009747401928802362, 0.1211033530613841, -0.04467560838978988, 0.016565418103424136], [0.0625613429920617, 0.05657240936957256, 0.12056587162542876, 0.024026378411063982, -0.023754232854357283, 0.005253761988465802, -0.008962595818548367], [-0.05751880553090902, -0.049016735016888364, 0.13044941211736347, -0.007697166838756805, 0.16647476979871142, 0.08025689180083476, -0.027883157303734273], [-0.057699792452831244, 0.00556924032031179, 0.05594609828481705, 0.11619254661723408, -0.05375790038373025, -0.10567352817321914, 0.09891921894401395], [-0.015093229153559401, -0.09276673306175941, -0.18939063118804358, 0.0029680457726807444, -0.09465435187665237, 0.03515995057586568, 0.13352487864548257], [-0.028596326902650265, 0.20125209214611112, -0.07602281729119556, 0.05372800716586258, 0.19091428109779374, -0.02561780184478796, -0.019994081420532658], [0.10678606317471567, -0.01698130212875439, -0.022008687510762494, -0.041392853134589784, -0.01628776168064257, 0.0020089521358554953, -0.11509746683075547], [0.13220209961676324, -0.025633110162916698, 0.26511995211396905, 0.006511123806878679, 0.035969017841985265, 0.05634720596151689, -0.015340694808740033], [-0.05886190670991093, 0.08274116254045404, -0.09986130857558423, 0.08219415246537586, 0.05134760547046392, 0.06057810213403924, 0.04735058538048575], [0.03027885407587909, 0.025630246218016704, -0.05929813864556181, 0.005483782076996986, 0.0808366343589996, -0.012228902293083406, 0.01586766986930691], [0.08340847752552115, -0.18230568503058014, 0.13155053913856846, 0.09647689250084422, 0.05314890699232123, -0.11554986690978189, 0.04071057931389722], [0.04725349225571288, -0.025223904329831424, -0.033719406759088556, 0.07068287358956066, 0.12151276109493411, -0.12852867742507723, -0.018450150316214217], [0.07023383247062735, 0.026814939926065966, 0.015022372408216215, 0.10160993902923696, -0.004162261809802483, -0.09714116783978417, -0.02059909941887752], [0.016032430964111635, -0.026673260227784098, -0.035604866242783535, 0.03994139395070038, -0.13191701265519334, 0.15992853486597947, -0.011820267702775408], [-0.026582315136491143, -0.08829870050124924, 0.01086636876055883, -0.004896588154976308, 0.1505570517659545, -0.12994736617042663, -0.0779520318713305], [0.032807198962563115, -0.03343918287158385, -0.035756844686041976, -0.22024953629015884, -0.032732240054027105, 0.10837516977564085, 0.16252869535673828], [0.1489425364201968, 0.07370833560872583, -0.06857832385852934, 0.07869223652553382, -0.04640068395888472, -0.133023734906469, -0.007265795125118582], [0.28603690928467473, 0.1528586472295166, -0.03404993541019996, 0.17282429267388896, 0.0005144077923415431, -0.0032565790348890985, -0.06734933202397364], [-0.0007053019311490647, -0.009868226127895313, -0.1815942029943814, -0.11476837890297956, 0.10662385865538725, -0.03613987741655113, 0.04817253957545758], [-0.08531242812215019, -0.1821326368009955, 0.12437195238764732, -0.09737811779260612, -0.11605512417130442, -0.04428332196067381, -0.28941753973413287], [-0.056698823573115696, 0.14945898747781092, -0.04573185947748155, -0.1330324932223061, 0.02856528929608679, 0.009347274149863315, 0.09339239238478696], [-0.03532716826200094, -0.09023164647847245, -0.030581562358896714, -0.10791323279037443, -0.0386747816938065, 0.0009460128305144765, 0.01406480926515972], [0.12095322191852088, -0.004998341442642414, -0.016513288468231236, 0.1816739685543999, 0.03683563796843553, -0.16044149755343834, -0.10208932067627638], [-0.2228588711652179, -0.13038550806094257, 0.11891876344252789, -0.04549018128862409, 4.1623318227359975e-05, 0.04472133457913729, -0.09986336101879224], [-0.1089255215698569, 0.05275796078465313, -0.03662372607463444, 0.23502325335178453, 0.061361951530063574, -0.09618165138910363, 0.08321738636135834], [0.008753943398065775, 0.07227823516631726, 0.03579071197690056, -0.07623947397884172, 0.1509257963816481, 0.006845552377980931, -0.07566757220455181], [0.11508673397504987, 0.08190704781731208, -0.05469062693265426, 0.07327534735554758, 0.029262035608133775, 0.10240190563131536, 0.08052697942047354], [0.10408194007162862, 0.04021569968895651, -0.009940325663190495, -0.08506822438278923, -0.0169960620554247, 0.008804290463621918, -0.039532613763228516], [0.11884615872093204, -0.0853681762243033, 0.0659984578782188, 0.042469190412935794, 0.08579603015634142, 0.029918027874726073, -0.04720015930146025], [0.05268339954017919, 0.021142037890923372, 0.028135972072569803, 0.05057680564699854, -0.06883962588084935, 0.08264739924628464, 0.12848983991811996], [-0.17641152859970932, -0.057320315349081045, 0.01837599514870878, 0.05031266586769562, -0.10440504438558744, 0.05588381340825165, 0.07190785359426127], [-0.018738431378670647, 0.0019582024102701118, -0.229669591000854, 0.039916866802213416, 0.1663760719144746, 0.13015933907480434, 0.10415938129935151], [0.07288216375633755, 0.007535929334614117, -0.12407313370554889, 0.04481633175892673, -0.10110957505092709, -0.03822677097759498, -0.016668117977743126], [-0.13757776123556784, -0.07460203836028201, -0.14582212442053066, 0.11614478002297773, -0.01713540288972058, 0.04443158587162898, 0.0023696459553648854], [-0.028833630752480344, -0.019863725635140786, -0.15005244238978552, 0.0010267199730966527, 0.02315932328424122, 0.16513002816759906, 0.19569298340726013], [0.06767280459727537, 0.20686678285486396, -0.11677402514169866, 0.028048084335499258, 0.03018952179808331, -0.08054374354770075, -0.07826116454136893], [-0.06793012804214936, -0.1372547627196476, -0.014539148609392647, 0.006780487824352187, 0.14869707409667215, 0.08944045244133988, 0.16563566081629624], [0.1394358197858826, -0.00042031977052533597, -0.03639484244316487, 0.1095982051499765, -0.04980012932180553, 0.07597652362702141, 0.11900386628960997], [0.10638262852525272, 0.079057952905553, 0.11554615938781719, -0.1478460980569195, -0.0921936530150011, -0.014416422331717587, 0.027296745116083928], [-0.08968613702731684, 0.041593460890443336, 0.04481100627440029, 0.006023840893055701, -0.04168942288352754, -0.016691759879734668, -0.07474334260314282], [0.07156590755125447, -0.1489901731606737, -0.0499978723903284, 0.1637308955021829, 0.04761530974530319, 0.08023324411110173, 0.03373963822561189], [-0.013767738316733873, 0.15062451744922456, 0.09415249712680958, -0.2313221213812629, -0.1251258744833116, 0.18818590291338871, -0.10962158280002361], [-0.0974328984797736, -0.12094146398506514, 0.09536496471463105, 0.08476418403514033, 0.07438511007325696, 0.11784894785143472, 0.1125767714566724], [-0.14778166494223666, -0.05785886792198128, -0.13513063809523831, 0.02189463054831376, -0.1489610028036791, -0.06465085196189052, 0.04721536075178368], [0.08782427017186191, -0.07641495870234076, 0.18586279143846995, -0.22877047800417602, 0.09246060962597538, 0.09914415877626544, -0.005109826117495689], [-0.09145956158611497, -0.004319452197346234, -0.14450218950005486, 0.04899071186974915, 0.18431304409312899, 0.07097036394713341, 0.02311647391503837], [-0.08378205484899363, -0.016658459918837465, -0.04640564578359347, 0.15339676902318913, 0.013053528315889953, -0.036401926165995975, -0.09406856785645772], [-0.03306551055547534, -0.08716076951952827, -0.013919812289896385, 0.017348772126002103, 0.11825074740502926, -0.035565121980535984, 0.054489392791461276], [0.011838198329644641, -0.17170706566486407, 0.0023967392348441543, -0.11829988561779581, -0.012689534138546708, -0.21525772388580225, 0.17323502639732105], [-0.06936637723733487, 0.042615134075079227, 0.02786185953972848, 0.1404340962723602, 0.005107905203492708, -0.18801777489437185, 0.02334325346799087], [0.15910068179799514, 0.16458248214141055, -0.053119711381663555, -0.04944372518382468, 0.11196701162163708, 0.1060721879759498, -0.019920996555685418], [-0.16711423495051936, -0.04980111585644517, 0.12355576108192153, 0.13949702788722695, 0.08350516038442488, -0.1101297583276157, -0.018179161773545907], [0.07756453132561977, 0.050374773190320826, -0.00829364958396773, -0.06204654335376119, -0.0021985880883135106, 0.09782843635273512, 0.04617229899418225], [-0.02391835475937713, 0.08368985257023526, -0.22481514639318997, -0.18016411435485477, 0.20383060129415648, -0.06145499760382647, -0.05281096726182027], [-0.07317910889792255, -0.05462609009916681, 0.07303924231764079, -0.126172478393373, 0.08770351315716052, 0.10950759310561772, -0.0986938418256984], [-0.031077805276593158, -0.07725169452742031, -0.059424354254806716, 0.006527066234967524, -0.035954513216537476, 0.05692372425646659, 0.03970947247268596], [-0.10760612001768749, 0.021239665495759934, 0.06736687107614801, -0.08312960581721204, -0.034312991263753805, -0.06304094749518868, 0.07746607545092035], [-0.033663433162575106, -0.2538876654255966, -0.021370237062459167, -0.07772125467546438, 0.005599564869195991, 0.04779053081320844, -0.03474637667947556], [0.014000828288419595, -0.013759235482842469, 0.011352940457956638, -0.015192931040626707, 0.03204182150399302, 0.13557587988416023, -0.037245279821030285], [-0.04255249858498972, -0.05211413369844592, -0.1610608448399254, 0.0316486047384973, 0.10830016100331176, -0.03419384507323883, -0.06113353402989719], [-0.09855008188825819, 0.139812258839436, 0.12581603872474084, 0.007613402642925862, -0.032448386717288405, -0.011030451688243454, 0.13556434106778553], [-0.05140757588509669, 0.07368411589047924, -0.17270119954471655, -0.12497490331994238, 0.07798192895378447, 0.020870699396450604, 0.2593572907258436], [0.0750847095527344, -0.1432069129475978, -0.07885100982701966, -0.05337964659712442, -0.054908479727924384, -0.07131575716554318, 0.12739442577898824], [0.06520652354622676, -0.06003593883669826, -0.0352176810103063, -0.08709615361437832, -0.11874911355920567, 0.09987672766073502, 0.17809356247225594], [-0.029651435257007697, -0.08346887397504993, 0.023470305018931405, 0.09037447482152768, -0.07443480924873125, 0.07605289837707888, 0.0649305206159513], [-0.085481688166589, 0.02137617677317297, -0.011029896814620896, 0.11382336229266901, 0.14464569961096374, -0.042105784671701015, -0.0708732906386694], [-0.04475556970243236, -0.1325179089393587, -0.11827007680141341, -0.0037986072373744524, -0.05910234767013159, -0.11815187268236459, 0.14931657143589083], [-0.07545743690331592, -0.011398001474084585, 0.062009074375133484, 0.035876423180133156, 0.05846371931736116, -0.042240546061840294, 0.12493094197043947], [0.07029588034839938, 0.048801369340703525, 0.10339763534825792, 0.04293217779988844, -0.04680312142463327, 0.061294982424537174, -0.004580950128462338], [0.010594603113775303, -0.020059938346749854, 0.0549760133034006, 0.021947787912559687, 0.11842720739886832, -0.07834276964851172, 0.1735954135420168], [0.06377316139135786, -3.229582256865956e-05, 0.11167889438340352, 0.021845205578675676, -0.036998606958302274, -0.005709205567057667, -0.03179116959404845], [-0.05685921908102205, -0.021602332359313504, 0.056050394928210186, -0.022241722956673152, 0.11793894299401281, -0.17158797817074603, -0.1716166961144905], [0.1190577307501432, -0.017485942137350025, 0.11368015214158415, 0.22063351451889782, -0.0914895814304196, -0.13171401707332145, 0.09096870709545815], [0.026736590446902176, -0.031561844134336665, -0.14068388326172618, -0.056347905574928706, 0.011899297600401126, 0.12298677340122559, 0.1544435027274922], [-0.008547061690534083, 0.07913883584844289, 0.03570044905922165, -0.007594616713997976, -0.024293024855230872, -0.1364045204490089, -0.09864208685079023], [-0.04308690210663809, 0.03296394424623447, 0.21026159464241212, -0.061563044844110466, -0.008141343646963062, 0.18888321779324693, -0.08005060600878529], [0.007140958019466418, -0.07574195677575632, 0.10216083808073054, -0.01543481437293063, -0.06798527497713998, 0.04425915209511176, -0.09769030673788573], [-0.04692668518475141, -0.08885507843153147, -0.1772391774851662, 0.09855528197195873, 0.19652070053955636, -0.025774446446672056, 0.1060773071415591], [-0.10289352325379411, 0.05107699301727138, 0.037910429344894664, -0.014568954094262527, -0.11264299193973051, -0.05025252707732039, 0.06695721898687373], [0.0837495097047405, 0.07776235179512431, 0.0022479534604151305, 0.006121500937364151, -0.18181080960862975, -0.06983293285505278, 0.010039761688771123], [-0.1712406552537684, 0.024726535390967832, 0.057139845779002864, -0.13133919820119816, -0.0011163279770924574, -0.17415496849241596, 0.10057341574313884], [-0.2079514854511629, -0.08974892575305853, 0.02412548593908404, -0.06995318245077038, 0.10905478097383267, 0.013927567279244091, -0.14884805160138606], [-0.008626701350055452, -0.19469991200515557, -0.09831866175977909, -0.004029084249890618, -0.13670939363202605, -0.04255117986126774, 0.09084368044950061], [-0.08950066913858179, 0.23263440976686334, 0.036328113246532207, -0.10986526301497311, -0.04189634782885146, 0.03583068548855202, 0.07045017333316396], [0.028341466616303296, 0.13386125031556528, -0.0038568860392431364, -0.05710777508121675, 0.10122262446797062, -0.013538138833797468, -0.04259673555810891], [0.0706782730584359, -0.12081459342483745, 0.18355651359813055, -0.08770463702203336, -0.09412800977985641, 0.12677631910857307, 0.08701465458296566], [-0.04653583291661438, -0.062475275249891195, -0.04897012759285265, 0.031728084738604605, 0.015712119795758605, -0.12016888493326273, -0.05501263470450398], [-0.06559022137337453, -0.05135981517065871, 0.05510809648858006, 0.19525720751102704, 0.00842767182490799, -0.026759572716743632, -0.11666930498889878], [0.09006201162621973, -0.02225448879837948, 0.17533347275227637, 0.14961028368629634, 0.14299093245370087, 0.06983161495404183, -0.06514843641511009], [-0.02538529313683518, -0.14115934072125827, -0.0375771260746526, 0.05195387986687289, 0.19176522976741775, -0.021340655030010265, -0.004138925952138313], [0.0011037274096000842, -0.17616369308689447, 0.02460200733655245, 0.04799298559058595, -0.08278320527636956, -0.07338188341755837, -0.07888016793419654], [-0.06298116209373358, -0.05610593243286122, -0.18450529325051723, -0.029101869622156735, -0.03430545235318485, 0.03513990857534186, -0.0475725148036184], [-0.00946597095691973, -0.14311505930073062, 0.018457829400211432, -0.05514064685015452, 0.05927313095512447, 0.0414823448514474, -0.08892075802656703], [0.19756740456977653, -0.21951857881383266, -0.08927777328624062, 0.006147510824599847, -0.03999540011264294, -0.008101746428128267, 0.12160222018696859], [-0.053438956831425376, 0.13451827797459917, -0.16987264977141125, 0.06693870066542172, -0.18224343545414018, 0.039782456178383746, 0.049065944285966515], [0.07824960309595304, 0.0011083265420992706, 0.05403760987398976, 0.06952705435818399, -0.09602034341784475, 0.02233270092460551, -0.06479480687656611], [0.0009971913684941461, 0.019340035146115594, -0.03311602025112125, -0.04420560132265689, 0.05831189194771456, 0.12211351826846112, 0.2774717958687264], [-0.13514609223757112, 0.03149037985511298, 0.0034570105993242646, -0.03167274398020668, 0.12569967493859296, 0.15556744948086143, 0.01681776840197756], [-0.17961452605987976, 0.15119467012017754, 0.05887989186782664, 0.05343337791250741, -0.10678075641826547, 0.004786282144480446, 0.19038601110976888], [0.06803373752428114, 0.024283866427014057, -0.08574220893165163, 0.04024635432172377, -0.018219403757736355, -0.03322543681967298, -0.19563106274101977], [-0.09090260609954756, -0.14349017797464392, 0.15474905569324335, -0.06248559682195223, 0.07748024652673009, 0.09989834389407, -0.10875435638429894], [-0.18510496222524916, 0.09784754936631791, -0.02594264274560126, 0.1710471706177948, -0.036565810857877065, -0.06594227363284588, 0.08362792502564614], [-0.15859738153299058, -0.006336327908537212, 0.08558142656296129, -0.06146148708177252, 0.007950794490034196, 0.10767894792489809, -0.08467318538161035], [0.1554778418744286, -0.024244078915401195, -0.08510795413166054, -0.015027793533322602, -0.044486273362955034, 0.1624313583803854, 0.20429132804027278], [0.02600376139051099, -0.009045313072124327, 0.044376915702948085, 0.05085259341443028, -0.05850177539991192, -0.11711226783156208, -0.052182794866400706], [0.021953211681475054, 0.02313462061084588, 0.018043827324855675, 0.08844314151049684, 0.041852032489372484, -0.1263769203939423, -0.04246191952621758], [-0.08388342603781548, 0.015728305298059075, 0.0633251181061885, 0.018586579050252933, -0.21244229685652855, -0.06107818168613251, 0.06892988486614549], [-0.041119104314945115, 0.07821993723068128, -0.023119693180807425, 0.11066173409143966, -0.15960187197174056, 0.0665391857892731, -0.08556297421436804], [-0.24463373275110595, 0.048061332947779756, -0.05075349787748747, -0.13900698252102328, -0.000345868613607579, 0.06557723702748981, -0.12802746212217644], [-0.10307967587246307, -0.011359716353055722, 0.15244625043543944, 0.12335797263053493, 0.03979751936492276, -0.084586809336337, -0.06955084776805048], [0.05505927221994728, -0.007553264576225832, 0.047097836570476684, 0.08308110829109856, -0.23916377083275817, -0.039603640498733154, 0.10581505459897156], [-0.19356952742875802, 0.029371298446900534, 0.1422723542575449, 