{

	"model": {
	"layers": [
    {
        "type": "FLAT",
        "activation": "NONE",
        "weights": null
    },
    {
        "type": "HIDDEN",
        "activation": "NONE",
        "weights": [[
            [
                0.004565824355659858,
                0.015134206897187325,
                -0.004448047643855814,
                -0.010639191158799256,
                -0.012862730501091683,
                -0.01015586631714422,
                0.009372769941126326,
                0.0003027324512589464,
                -0.004914114189906646,
                0.014659836059477183,
                -0.011440252595699772,
                -0.0021105156844039275,
                -0.0028870600351136714,
                -0.0022926404716741627,
                -0.009621452568433794,
                0.012539445380026852,
                0.013327287221797587,
                -0.00765719526825975,
                -0.009966198055923711,
                -0.006242868716397995,
                -0.0132571176356193,
                -0.016431170750302156,
                0.0061236184345788485,
                -0.005426333529407739,
                0.00944857070392804,
                0.006246068412015067,
                -0.01190927141577719,
                -0.004421463895291805,
                0.0028618024332083135,
                -0.0031699665089361404
            ],
            [
                0.00024437542220691165,
                -0.005041190688950486,
                0.004229291658253927,
                -0.01295836929258592,
                -0.009910350243748152,
                -0.0011100163307825447,
                -0.009491934975411181,
                0.0026234383315705467,
                0.0006144008263384887,
                -0.004058248161263025,
                0.01253221678965081,
                0.002753033918105367,
                0.0024345117285966894,
                0.0008937806712481054,
                0.010995668418079139,
                -0.025272885047802708,
                0.0019323804920277786,
                0.0037140367500179622,
                -0.010505716720427572,
                -0.0037386876770330235,
                -0.013757559758478925,
                -0.009878995420837082,
                -0.003633998417011534,
                -0.002339366853512694,
                -0.00796847242645015,
                0.005388844453884719,
                0.0046676954485630395,
                0.012457232810594718,
                0.013345083761082873,
                -0.006979242661037366
            ],
            [
                0.0019525189161332154,
                -0.022778707638208624,
                -0.01702322324245544,
                -0.003418194003337476,
                0.005600642318714205,
                -0.01148667157194888,
                -0.004554829175881885,
                0.01169777039789678,
                0.015923228720207155,
                0.0008028734138213293,
                0.0181860946360463,
                0.0015738386520806058,
                0.008851624617197297,
                0.007251148857638973,
                -0.0018908842685230233,
                0.01012928258382676,
                0.015847591092512027,
                -0.005191912311919563,
                0.002887317294016062,
                -0.012697556788810283,
                -0.007598884087508585,
                0.011149947197997027,
                -0.00017466397876751236,
                0.007897489637602057,
                -0.0005671718442993656,
                0.011836748886504178,
                -0.014489415341140913,
                0.009649213083393922,
                0.005639909823012523,
                -0.006325384716153204
            ],
            [
                -0.009578040507947843,
                0.004266849534799203,
                -0.001590585100696013,
                -0.0027102360621475093,
                -0.0018921512958429124,
                -0.003024467184470946,
                0.0006705835998217447,
                -0.004803404180130877,
                0.005730890966956504,
                -0.006159638475048178,
                -0.0036630059072547674,
                0.0013572785348734877,
                -0.009550100860430604,
                0.0018167584119231017,
                0.0038432459534560527,
                0.016854557997456835,
                -0.0026343931071492062,
                -0.005045066794842402,
                -0.020218513485378356,
                -0.0027568476705476116,
                0.004895857754586483,
                -0.007347531887646952,
                0.014072462773318296,
                -0.001540051908787622,
                0.01006012109393675,
                0.001990960777373476,
                0.002980562795201437,
                -0.01943561646713841,
                -0.0067039016466236955,
                -0.0010151555997254364
            ],
            [
                0.0006723405874785615,
                -0.004155381626950937,
                -0.007415188474505796,
                -0.001094228242632917,
                -0.010692788607909199,
                0.011803692974037015,
                -0.0001560676171573252,
                0.01158208640791408,
                0.0026372809655988935,
                -0.002183704673033777,
                0.00017694060245227814,
                0.01851383447626256,
                0.021121081730127556,
                -0.011364754895998317,
                0.018004458971092353,
                0.0072109279434588005,
                -0.00029220785842888494,
                -0.010973554732497158,
                0.003275313908965108,
                0.003002314095773303,
                -0.011939642037260396,
                -0.013424824870811978,
                -0.0007153079748497655,
                0.006076777899905964,
                0.007468229341842399,
                0.012736016225208206,
                -0.001695930765824799,
                0.003376558551840877,
                0.012438691924308416,
                -0.00039948508864233435
            ],
            [
                -0.00002318586557993038,
                -0.0017622502311199079,
                0.0030133340134499533,
                -0.000562862915327838,
                -0.027169349038906946,
                0.00046247008110726965,
                0.004736186930125299,
                -0.01865699966430376,
                0.022417878526322328,
                -0.0014051497964706657,
                0.014480394216256121,
                0.004055425438503123,
                -0.010418488816113488,
                0.016238533746685817,
                -0.009637294185599997,
                0.00504631436788096,
                -0.01338840861119197,
                0.009245744853677762,
                -0.008425398260679735,
                0.002332437856979113,
                0.000052066485149232026,
                -0.006008440899834073,
                0.0071468146562832305,
                0.0017243492851210089,
                0.0021960964862467983,
                0.001227160823519762,
                -0.007584414214191262,
                0.004663189632717089,
                0.006384287256739952,
                -0.013233115200219447
            ],
            [
                0.005073745943805524,
                -0.0035120314425538253,
                -0.00735339790203346,
                0.016639935739653344,
                0.001823809827719805,
                -0.005390192454399587,
                0.018907310310949776,
                -0.004176978218725591,
                0.0014111233015712417,
                0.010360000646759921,
                -0.00999262453276846,
                0.006195080020561307,
                -0.0010158383509980588,
                -0.0038677189132054787,
                -0.008541022062613951,
                -0.031577554916708606,
                0.023533191632282662,
                -0.0033085694668584472,
                0.006205668346615304,
                0.0036888782455713524,
                0.0007487814710175403,
                -0.0019562148650079606,
                0.006015925815490752,
                0.00556590197771882,
                -0.006447935905824541,
                -0.017686707585727053,
                0.006485508311415871,
                -0.013988018493956655,
                0.00660140174061458,
                0.010781951965407694
            ],
            [
                0.012887971526156894,
                -0.0012131547710830535,
                -0.0025250254359038353,
                0.007200661285335936,
                -0.010165562085875449,
                0.007870306855936647,
                -0.00019521221097324216,
                0.013188139341410263,
                0.004085617430893252,
                -0.010210577704029004,
                0.0077338755812054955,
                -0.00472461083935898,
                -0.0037113481409404045,
                -0.020679253218683854,
                0.01027999928218256,
                0.005029420238413235,
                0.005986582252007685,
                -0.0014067875479852258,
                0.010289513201715996,
                0.0007753989342207069,
                0.001742464033593139,
                -0.009273316502870381,
                0.021562304688699765,
                0.00040330747340357805,
                -0.0008899480902075464,
                0.009998119103754118,
                0.005686491687843529,
                -0.009932469285047275,
                -0.006913465791392127,
                -0.0014762752661857462
            ],
            [
                0.006238893431639858,
                0.01325614981236439,
                -0.0018327138645649215,
                0.004985153283957155,
                -0.024916564110738948,
                0.011116459113114261,
                -0.010095458699599071,
                -0.0012914002308243929,
                0.00046302855496269075,
                -0.0005547267790393472,
                0.015786751685385122,
                -0.015804691756367173,
                0.004583807648746622,
                0.002187085883251858,
                -0.004809266144807134,
                0.011654313785778463,
                -0.011607562538844415,
                -0.011885329329735714,
                -0.006856676824000897,
                -0.010440425411625261,
                0.005749993510251881,
                -0.006142454331440019,
                0.009310940624885772,
                0.0041289555375908825,
                -0.0033128935997987765,
                -0.00037172958656428716,
                -0.005540679958442024,
                0.0026572270967227473,
                0.025430906822946082,
                -0.00803880475825245
            ],
            [
                0.00006108906062393072,
                -0.0009060794090837598,
                0.0003511539007075449,
                -0.02888079422005553,
                -0.006276196538563957,
                0.006513725014836379,
                -0.02071290214125685,
                0.01415967762191897,
                0.007296168808383792,
                0.011896596319745302,
                0.014094327608605305,
                0.023926252758545298,
                0.002027386167606708,
                -0.0035316257724140286,
                -0.0007039639560871779,
                0.0022747783919223065,
                0.006306708474453792,
                0.010130080759019135,
                0.0018569945921692666,
                0.007516792899691099,
                -0.0074795933939023175,
                -0.0113507705376866,
                0.0008263332311571121,
                -0.0038143067351546598,
                0.02942446377070694,
                0.003911583896898267,
                -0.010161507334846033,
                0.000896636285108316,
                -0.01727182889825998,
                -0.013747085995301346
            ],
            [
                -0.0026921317101981615,
                -0.0026666082466273544,
                0.011077455818736773,
                -0.007410895318935712,
                -0.015027635608496608,
                0.0063503971943076,
                -0.011904121373519965,
                0.01457290388556153,
                0.015135964434598683,
                0.021104031249185536,
                -0.002519737446071577,
                0.004757968336012944,
                0.0030145064443694858,
                0.011665161635350346,
                -0.003990744497775857,
                0.0005681017286034504,
                0.0048441801404570575,
                0.004347784425174882,
                0.0013716911164557849,
                0.0070430613794301615,
                -0.00557350941268157,
                -0.004056687868437847,
                0.00753143602497131,
                0.018545479928367043,
                -0.006577053800356288,
                -0.0006485630963789782,
                -0.0034436262281952543,
                -0.011672966159002715,
                -0.00963223383095309,
                0.0007092661436583169
            ],
            [
                -0.021864248013558355,
                0.006178958309825325,
                0.006298646483469662,
                -0.009792898271601498,
                0.0096255748802687,
                0.008959277563255767,
                -0.009400067435404096,
                0.004226195727181331,
                -0.009814825952097875,
                0.009546344511307859,
                -0.00778663610923359,
                0.008248518386177394,
                -0.0017598028020860458,
                -0.022682592810819063,
                0.0010908014480551175,
                -0.006582189210207809,
                -0.00015016473756608012,
                0.005124740330616102,
                -0.006785309555419894,
                0.002953559895323098,
                -0.00034676332060455927,
                -0.006792944250844622,
                -0.0017876104731832294,
                0.0035232248722622244,
                -0.011928257162565695,
                0.021096856926235804,
                -0.004753007218571576,
                0.0018759407542495443,
                0.0026926275278086214,
                -0.0008796784629573414
            ],
            [
                0.006329356092607569,
                -0.0023390810123908646,
                0.0067819567681475235,
                -0.008794793179303843,
                0.002556514116759706,
                0.017818713205525055,
                0.01273783163313308,
                -0.01612897972974564,
                -0.0009046476354818288,
                -0.004268143927586702,
                -0.02243173331546727,
                -0.03091653365637701,
                -0.006358465716844759,
                -0.023761168851237406,
                0.0022876298688616417,
                -0.020701531323071187,
                0.021359218026388804,
                0.005085967962296853,
                -0.02284517468221114,
                0.010081581859342931,
                -0.002409499456665003,
                -0.0060277497572676295,
                -0.00007610072622340047,
                0.002808881039505138,
                0.0047032589331025615,
                -0.012074485737420943,
                0.027094514868728162,
                0.00013610795985402092,
                -0.011960290993155239,
                -0.006650575562502299
            ],
            [
                0.019287161908456224,
                -0.008832486094504403,
                0.0006962231627180012,
                0.00012370805886019283,
                0.006287644556209144,
                -0.0017665374675305528,
                -0.005432053321661368,
                -0.015292205032061676,
                0.023707858424576476,
                -0.016188712521527145,
                -0.0008659633544856509,
                -0.002241957840494946,
                -0.009530094725058585,
                0.00930972699337617,
                -0.002501795587153208,
                0.016586681857923054,
                0.0068401921326304415,
                -0.014878849397709122,
                0.000004021088522939394,
                -0.012598801280601792,
                -0.01058600439205383,
                0.010244218910044605,
                -0.008764268930253397,
                0.010223204248130618,
                -0.006505945282453282,
                0.005871236687042926,
                -0.007620330433326755,
                0.019237296076782325,
                0.009687301768868915,
                0.0049919319999011755
            ],
            [
                -0.0033368429773722925,
                0.0004748357925921452,
                0.0045906211146195305,
                -0.004526932771922671,
                -0.015136661753461119,
                0.006861115848658742,
                -0.005763489452385832,
                -0.012817589943688604,
                -0.006648156618532032,
                0.026552901780541437,
                -0.008424051583621443,
                -0.0017020337732268232,
                0.011731997018831942,
                0.0036515376512472647,
                0.014554188818185874,
                -0.004768246624017942,
                0.012968507282185529,
                -0.002707310123156216,
                0.007602073668929338,
                -0.0036703120776117714,
                0.016708608016597067,
                -0.0006446436088798564,
                -0.01846061431229395,
                0.007607489869048902,
                0.010439694549309052,
                -0.0032812972242216515,
                0.012055272885351147,
                0.0002558748765527571,
                0.001076896989570094,
                -0.0018159951987290423
            ],
            [
                0.01943440815859225,
                0.012995297557885624,
                -0.001660340070492749,
                0.019100491847952154,
                0.002403974737495929,
                -0.02150239745587312,
                -0.013925185417962373,
                0.007072974407606779,
                0.009611956469854662,
                0.0032372564901543242,
                0.004349916444767355,
                0.013891213549707957,
                -0.012209899081433821,
                -0.002309423081095693,
                -0.008126701998358994,
                -0.005621339037378047,
                -0.007931877365183703,
                -0.0032470162989951673,
                -0.014343872122698055,
                0.02287072650598006,
                0.0041462013165493115,
                0.0026618080788430604,
                -0.012539775180244645,
                -0.00406647507380502,
                0.0034196332437602898,
                -0.014253730590748654,
                -0.005305298230847889,
                0.009520870212153547,
                -0.0057403721977036925,
                0.013055720541650377
            ],
            [
                0.0010748420556883184,
                -0.0002557453567094871,
                -0.014211137077486596,
                -0.004491013579125464,
                0.004154950269002722,
                -0.013054548851071995,
                0.00907880462506255,
                0.007829574546860034,
                0.015414063640406848,
                -0.029895120918162908,
                -0.0014521654987657109,
                -0.008021345646047746,
                -0.023526820893063488,
                0.02000464106089264,
                -0.0042958637805288165,
                -0.014775924719948978,
                0.020411354776065618,
                -0.010266593439484953,
                0.013351641401002878,
                0.008764264830931009,
                -0.008682598410224234,
                -0.000013948025052001702,
                -0.001465424340674791,
                -0.010528366809014011,
                -0.001800363366393197,
                -0.0033730843307834043,
                -0.0036532317245357108,
                -0.0026809346226102167,
                -0.0034274697567502604,
                -0.0016963419874125199
            ],
            [
                -0.0036457293905594384,
                -0.00568837470894172,
                -0.005620262260479556,
                0.005495469832594916,
                -0.006696224536849559,
                0.015170541206270883,
                0.0038585291341502867,
                -0.00941343425737607,
                -0.012991249268203966,
                -0.003211721515459883,
                0.020724855162472064,
                -0.008687936240769453,
                -0.008527939935882155,
                0.009216599752171947,
                0.01590298814891243,
                0.015517362756047365,
                -0.024824585910477114,
                0.016341328762927976,
                -0.021223040069021096,
                0.02012215144179835,
                0.01465436058187868,
                -0.0006605744845140282,
                -0.029631049684950245,
                0.0026282398108302286,
                -0.014352619180369876,
                0.009874292825553114,
                0.006132480961781758,
                -0.0024853728300290464,
                -0.014414908803996197,
                -0.0011803214952478243
            ],
            [
                -0.008729027139796546,
                -0.010124611216299985,
                -0.016012737820917937,
                0.0021647759286377044,
                -0.014111683228988528,
                -0.0038823996067162783,
                -0.009407986680868582,
                -0.0042575742233395015,
                -0.003051145896705037,
                -0.0003979282594991729,
                0.0020435070133471935,
                0.012765343734459225,
                -0.001591650962649053,
                0.01998724140047862,
                0.009115488139046606,
                0.0009967391585037472,
                -0.00960874318375421,
                0.009610442117450746,
                -0.0027844004752868635,
                -0.00003672322151104743,
                -0.0026128717656814945,
                -0.011518428484044437,
                0.004492339246421457,
                -0.005535075708446819,
                -0.022234752765879613,
                0.008407249945611725,
                0.008080306327436738,
                -0.002064231350714829,
                0.00309328898866032,
                -0.0028451464967858098
            ],
            [
                0.004025918782944517,
                0.005891022670822923,
                -0.014536008458462363,
                -0.01750876511560186,
                0.0021691615516992646,
                -0.013311723975720797,
                -0.0029511842402796026,
                -0.014847566568994464,
                0.00543948880532527,
                0.004474676999244188,
                -0.009525826430515968,
                -0.0012411238144215326,
                0.007352868905962318,
                -0.022749110422984043,
                0.011655966613453307,
                0.008122625900023774,
                0.004883235534711448,
                0.008692762866064848,
                0.01080737545726084,
                -0.0006475349192194951,
                0.010073736208966736,
                -0.006086485099137454,
                0.0005058044387406985,
                -0.011669549608933686,
                -0.004513233995657618,
                -0.01686023280635504,
                0.008836254135093383,
                0.0031375033123404203,
                0.028152587681508627,
                0.009487143348446742
            ],
            [
                -0.020446492609749456,
                0.017066885357012875,
                -0.006848846236713601,
                0.012773017430561775,
                0.0134353396777544,
                0.009268776600834805,
                0.005935023452172071,
                -0.00322295648380834,
                -0.004527670202767737,
                0.0075434152871959636,
                -0.0034756967045975512,
                -0.003713263635912563,
                -0.007678677135769121,
                0.02070802201407965,
                0.004005169424615829,
                0.018466167971991854,
                0.0256602349916493,
                0.008804742328701268,
                -0.007673143183785025,
                0.0050416490501367026,
                -0.0015886753003720008,
                0.01757128673524854,
                0.00446586334482927,
                -0.006545747463395545,
                -0.016878163337107534,
                0.004673994408783735,
                0.016505861026511484,
                0.022193228691299662,
                -0.010890280176952137,
                0.007117489521745621
            ],
            [
                -0.009122487573703791,
                0.011670553232938684,
                -0.0070406054338991685,
                0.0017498790749256885,
                -0.006805786553540241,
                -0.012313257318707443,
                -0.002062434827102706,
                -0.0019123731780212332,
                0.013970968524060148,
                0.007350232879062416,
                -0.006096087064179172,
                0.007999069729086726,
                -0.016302061433071113,
                0.013005410876235812,
                0.006115604511185649,
                0.020619753204147565,
                -0.020759741443142972,
                0.0032638236882583495,
                -0.00615503532520983,
                -0.015429960418967279,
                0.009804271264438403,
                -0.0069030132990378894,
                -0.0002550093232615568,
                -0.004776430055545964,
                -0.0031215433806827376,
                -0.003641166296812344,
                -0.0021408080834048834,
                -0.0036551103607700983,
                -0.0013847532308282331,
                0.0015155113867036361
            ],
            [
                -0.016299423025259996,
                0.00652804127078146,
                -0.009536614634482212,
                -0.003968089428993356,
                -0.012570307956201383,
                -0.002405139859201593,
                -0.014207646248947759,
                0.00269925276887211,
                0.005040008868046491,
                0.01003440733520313,
                0.008726660145525708,
                -0.011688695249692415,
                -0.00033912355594132036,
                -0.0141720768235753,
                0.0006880076680743812,
                -0.00407151933408674,
                -0.00012924382548651467,
                0.002627193272887651,
                0.0007486316496813759,
                0.012624662348853377,
                0.004703171693125731,
                0.0013615475223641394,
                0.006958260988311495,
                0.0010984230043643915,
                -0.010921021778985787,
                -0.0015568877478940183,
                -0.004446300676793789,
                -0.008982545637975329,
                0.01142718646400235,
                -0.01282354761277779
            ],
            [
                -0.003322174908716227,
                -0.0032426222415597753,
                -0.011028965151222193,
                0.006395756845016955,
                -0.0008640454373601841,
                0.009172366774477402,
                -0.03122505570351101,
                -0.005727804055455526,
                0.006122787494165012,
                0.011794650194761527,
                0.024406047585925652,
                0.006853595752218452,
                0.0145364147141926,
                -0.012865399122550147,
                0.01785899770533553,
                0.0026090040634007324,
                0.0040843373571380955,
                -0.0010096943475951623,
                -0.0053108675020750035,
                0.004238200687969343,
                -0.007262687720803582,
                -0.0015455458846909108,
                0.011659735431531685,
                0.013571917694753757,
                -0.015815700649231813,
                -0.014189524964307173,
                0.021140739675657303,
                -0.009163994376992585,
                0.008022215082731841,
                0.008994527336007625
            ],
            [
                0.007562538718779879,
                -0.002101156451600122,
                -0.018407433870140256,
                -0.0057332655534725295,
                0.005905968069442109,
                0.0044887242181913594,
                0.005341666574675679,
                0.00578642331617487,
                0.002294193242663176,
                0.008260529204192086,
                -0.014441825778409943,
                -0.0001604842020111212,
                -0.009597461499422692,
                0.012749738771198465,
                -0.004546633809012201,
                -0.010420285222446618,
                -0.00034096362146875895,
                -0.0034279864950284727,
                0.003945746159428937,
                -0.00700139224119414,
                -0.015486126197557834,
                0.0009383695331113133,
                0.011138438935331988,
                -0.0004821274343364228,
                0.0055842407429703865,
                -0.01233694461086583,
                -0.0007385031937374288,
                -0.0038523977532257904,
                -0.021028876221414684,
                -0.003067474649918975
            ],
            [
                0.0026817233645734136,
                -0.014373078322131841,
                -0.005386093700575381,
                -0.0009814888409774623,
                0.007908712687549444,
                -0.00449432858908416,
                0.005448665410096266,
                0.0051797166957507695,
                0.021902421517124404,
                -0.009631907826371322,
                0.008616952719103642,
                -0.007780473963165775,
                0.011584673073027315,
                -0.004169035826541384,
                -0.00658651036376792,
                -0.00496806831551345,
                0.0004046273926229803,
                0.007027808411770783,
                0.014633516297878894,
                0.03190291374043458,
                0.009824819104739356,
                -0.001641869083686712,
                -0.014665671273585442,
                0.0019540495466857854,
                -0.003491162894142195,
                0.012763786138420954,
                -0.001391801052026261,
                -0.0015084104072860536,
                -0.010686748872609775,
                0.01679609255518821
            ],
            [
                -0.021368887933430007,
                -0.0016862687812374915,
                0.01108633629665428,
                0.003581508365748391,
                -0.026099439470144092,
                0.0043786823944388445,
                0.0028868296801725438,
                -0.015045320853963958,
                -0.005170003136850964,
                0.0019691607816685035,
                -0.005503800104308309,
                0.007659881553675259,
                0.003446620241153139,
                -0.0021157651547440044,
                0.0002258860467446724,
                0.00794221346442585,
                0.0036447635067718754,
                0.0022130098960500906,
                0.008706574037177544,
                -0.003872796173773803,
                0.005051344193545738,
                -0.013445522780481023,
                0.005696046503089499,
                -0.0035200098315863264,
                0.0002766720613098595,
                0.016985397423808262,
                -0.013230277742563083,
                0.008303370078737986,
                -0.0003164744189106953,
                0.002072641887084015
            ],
            [
                0.012850621079944632,
                -0.018334583672028126,
                0.0023389825751047866,
                0.01329535540041811,
                0.0005464422618915728,
                -0.0014707737283558007,
                -0.0059714878306092465,
                -0.01479371914197283,
                0.007954267671840803,
                0.007525814884977006,
                -0.0010600954583887272,
                0.007192108267784488,
                -0.015515376665370017,
                0.005600140546200405,
                -0.006518305070447728,
                0.010479507459301592,
                0.004035571816763711,
                -0.01601848196384181,
                -0.000010029544837295385,
                0.0023054663482939513,
                -0.0013014777535515713,
                0.017361470227881756,
                0.005864731648211269,
                -0.00945495336174028,
                -0.006422129459663858,
                -0.004107534104587235,
                -0.006306177981178691,
                -0.013198415442133076,
                0.018656696447770425,
                -0.003055229822249195
            ],
            [
                -0.003566150106158636,
                -0.0077972196834779645,
                -0.0010150877980095408,
                0.025245783820984254,
                -0.007860885607800709,
                -0.01119067775964795,
                -0.007024234747657174,
                -0.004348563976641695,
                0.0024482646304768273,
                0.003114278023498433,
                0.009340138673553761,
                -0.0071064808445503854,
                -0.0029488564158889306,
                0.008667781994563382,
                0.0037853276930595366,
                0.021961811759145654,
                -0.01836848628094009,
                0.005195415402517245,
                0.0020498580823605367,
                0.008268811373193123,
                -0.009066216765762377,
                0.0072130857259885385,
                0.004811964256649021,
                0.02182586990821556,
                0.0012027485941876704,
                -0.00034510757779398024,
                -0.004054475256244086,
                -0.010010369865721638,
                -0.0018457669473390852,
                -0.0063695614384975275
            ],
            [
                0.00906600567600928,
                0.00492233019547706,
                0.007715530109574972,
                -0.01021484403191033,
                -0.0071621278192026275,
                -0.005735489644570602,
                0.014533437407188416,
                0.0111588855945293,
                -0.0053450180020627345,
                0.017677275473954753,
                -0.0056089301089234985,
                0.0026475806859889896,
                -0.007571905995396333,
                -0.007674871790585141,
                -0.00613617895749895,
                0.0009888724110826124,
                0.0015300670320852596,
                -0.0035397572146050596,
                -0.012251373751003053,
                0.020874365646797285,
                0.009921898053093046,
                0.0074597196189524805,
                0.011833117218609314,
                0.006106420569933123,
                0.025054517967057547,
                0.004050611366685656,
                -0.008339869453738269,
                -0.001180812307675627,
                -0.0028111290595091406,
                -0.009505902688581215
            ],
            [
                0.00968960111229592,
                -0.008189771531705746,
                0.0016301287018972797,
                0.0001922921557261564,
                -0.010005002486696878,
                -0.005654631842523554,
                0.01207563391792401,
                0.0048669011255231195,
                -0.013099701848976191,
                -0.00811039259846124,
                -0.01840493297191726,
                -0.004270855346188641,
                -0.007938087335947846,
                0.0019318639747166325,
                -0.003306497974042278,
                0.009285784303084802,
                -0.019204020774907498,
                -0.006721471665324573,
                -0.0010586673401266952,
                -0.014877672080850567,
                0.005765779807190841,
                0.0033575820944979967,
                0.011508614223699254,
                0.01737261434453732,
                -0.00659081453643805,
                0.014666403109147973,
                -0.0010401353572538376,
                -0.00034495624713660626,
                -0.012193937839332935,
                -0.005722952212144586
            ],
            [
                -0.011304268862222583,
                -0.01999664124317551,
                0.0034020498712810637,
                -0.0009673839050302884,
                -0.0024359818693800357,
                0.01954094947799794,
                -0.01343674540637378,
                -0.0028751516515303803,
                -0.0017013135115968598,
                -0.0064734139388636985,
                0.0011137552259514912,
                -0.0011348523372831472,
                0.031030698133021957,
                0.020836873675967656,
                0.0074348549176323185,
                -0.0024672679949030766,
                -0.009118402194540524,
                0.014224690266781883,
                -0.01745337692456839,
                0.0005143730111259493,
                -0.016579096424360187,
                0.008570081047898274,
                -0.004826366924517694,
                0.014742049110625908,
                0.012548725645698776,
                -0.013768490798007805,
                0.0011751665163118072,
                -0.006076328362870216,
                0.005914507087396664,
                0.007043662824742197
            ],
            [
                0.0020248689732651603,
                0.00405277270895,
                0.004590790776739084,
                -0.01099447247700936,
                -0.013055199714529673,
                0.009695028224581743,
                -0.00023344936857866086,
                -0.007673011917506423,
                -0.007446053804843125,
                -0.02781078791536876,
                0.00526204815785838,
                0.003822108901947661,
                -0.0036908993653269125,
                0.0010361496995860426,
                -0.004742859055728836,
                0.005253821329597913,
                -0.003880877527133227,
                -0.004828817206408403,
                -0.008910795879269557,
                0.00981370433999018,
                0.003087633976242549,
                0.003495964032592871,
                -0.005813304186138812,
                -0.009825402480647194,
                0.004268442313611419,
                0.013564957272033709,
                -0.006844813232313143,
                -0.0020820119523235437,
                -0.0035708777394172775,
                -0.019880168062514646
            ],
            [
                -0.009554756418352408,
                0.008252623159691726,
                0.0012068163538025297,
                -0.012502481744623721,
                0.011349672142995535,
                0.025544014147920777,
                -0.007528943924443458,
                -0.002996373705134911,
                -0.012360566448201007,
                0.004959062012376081,
                0.0035619299312582447,
                0.0019437762252298575,
                -0.005232913232261149,
                0.010843712130137288,
                -0.004517885708038005,
                0.0023580111834938413,
                -0.010828212718659023,
                0.008169040832865609,
                0.0007195809598310289,
                0.005066782322399177,
                0.01676822441575883,
                0.016029848540618535,
                -0.00459992060065499,
                -0.005552583011320566,
                0.012563303897185074,
                -0.00874471058709869,
                -0.0023122817032724223,
                -0.013714353314168709,
                -0.011727451641105122,
                0.013295998988471043
            ],
            [
                0.005699683352334558,
                -0.0035339922720999182,
                -0.009169504721132073,
                0.015107918554242714,
                -0.0012734691643098033,
                0.004556963971800928,
                -0.01982485619869571,
                -0.0011817262804354465,
                -0.017382534280160147,
                0.014730679393932647,
                0.007233864341352499,
                -0.009480957314695176,
                0.0016615283680216683,
                0.0029412357950411605,
                0.001241319232604029,
                0.01361088701681987,
                0.0005653456830757463,
                0.002186222893432627,
                -0.004633746119513744,
                0.009457087584135397,
                0.016283279750405086,
                0.004731622155465303,
                0.021170970429772,
                0.008526218725880105,
                0.01242555179826373,
                -0.006597872620392499,
                0.0031030866565045665,
                -0.013066374731434963,
                0.010689213021128121,
                0.0006523948340217468
            ],
            [
                0.010633393584597929,
                -0.015757334257236653,
                -0.0016998707915888388,
                0.003804193294885324,
                -0.00395379171252204,
                0.008345753643517907,
                -0.020177816888579038,
                0.012619259119072428,
                0.00544073806634428,
                -0.002343042939760573,
                -0.000758196607599168,
                0.00583615806732819,
                0.00757550792145666,
                -0.005288819985659049,
                0.00837184956721441,
                0.021674843787001994,
                -0.0031896992981717614,
                0.00896095781072698,
                0.0036411903809508836,
                -0.0029355619136907023,
                -0.002590414738698295,
                -0.01036574005664457,
                0.007764254568833566,
                -0.010893400080732578,
                0.012869171635976315,
                0.0069684186322557925,
                -0.010633770520578291,
                0.006029796575157271,
                0.017150568109972234,
                0.006660896808620888
            ],
            [
                0.0033263545432507834,
                -0.006842873282334727,
                0.010364268201564669,
                0.0011288362614692046,
                -0.0031748321976606806,
                0.006661762674206106,
                0.019096850340895675,
                -0.009510297104998627,
                0.0045567104776300825,
                0.0023347342309381408,
                0.0009003702158521736,
                -0.003844992905424397,
                -0.00618334443927109,
                0.009683893996627288,
                0.012532206551187084,
                0.006668219246329043,
                -0.0021342138213133726,
                -0.010793877711233326,
                -0.0030625699552395075,
                0.01072805459873893,
                0.0017953666993082598,
                -0.006649292617704656,
                -0.004444627099449188,
                0.003887908411922434,
                0.010699761035489566,
                -0.014340874739134634,
                -0.004126159177313214,
                0.006066896084638714,
                -0.003122389407774509,
                -0.007841758691542284
            ],
            [
                -0.0036659674420883867,
                -0.009200381439519643,
                0.004856593821804914,
                0.0035702761564249054,
                0.009396283765782054,
                0.001038351495941828,
                -0.014212451960043442,
                -0.006606163622708882,
                0.008874895046115475,
                0.0012491400732121574,
                0.0007232133262392144,
                0.009537719751583903,
                0.004248801748067947,
                -0.002647819516644914,
                0.0053952741030947595,
                -0.007225741799423025,
                -0.008160138931709944,
                -0.003005775463358536,
                -0.002374170603740759,
                0.006711540365926326,
                -0.02116570873678275,
                0.022300125311350207,
                0.009098185322917136,
                0.012644818710455146,
                0.006277349299680005,
                -0.0028197172816898392,
                0.013146939946189103,
                0.017642455140208887,
                0.007721138732850243,
                -0.010231010918807699
            ],
            [
                -0.020841218695237827,
                0.015139841820524812,
                -0.022176811755883298,
                0.00178401962682927,
                0.0101691704446024,
                -0.015398424466098288,
                0.01626236095704433,
                0.001471596443665511,
                0.009627027102654546,
                0.008761019172024948,
                0.02440210629624938,
                -0.00595312474446344,
                0.006210309271905896,
                -0.03252893416670591,
                -0.004538213009707945,
                0.002292688668263809,
                -0.00986784228296415,
                0.0026977261578321576,
                -0.0069350470096649665,
                -0.0008085560120454953,
                -0.0020059756397314264,
                -0.013433107919625709,
                -0.008969153852450321,
                0.009206570205689431,
                -0.005937104160747686,
                -0.004723852890047785,
                -0.0021247182534446752,
                -0.0001909771191780537,
                -0.001171616572096151,
                0.011572447185185717
            ],
            [
                -0.0036959947536769782,
                0.002563755062687789,
                -0.010419513025996174,
                0.0037330906241411096,
                0.01392818341348995,
                -0.004841307305882988,
                0.002976167339577445,
                0.005195330135115992,
                -0.009539336026662935,
                0.004067036475883128,
                -0.013486188135997387,
                0.003725211205257192,
                0.007100176815125322,
                0.0011069083107742273,
                -0.001757413028168083,
                -0.010424970087337513,
                -0.012764476461265002,
                0.014442816868719363,
                -0.000010506642205701536,
                -0.011910662058436109,
                0.007289100378477437,
                -0.0031670070098996734,
                0.008509096318860638,
                -0.013195372655040463,
                -0.0004137366500673907,
                -0.0004591784464721651,
                -0.00012941482200823457,
                -0.010502194292476645,
                0.0023007861561155966,
                -0.00950891695961158
            ],
            [
                -0.003487116566400711,
                -0.02148450665769365,
                0.007421111720424323,
                0.013848383271137507,
                -0.00503250736500981,
                -0.01585877528715172,
                0.01209490497557323,
                0.010549091911149847,
                -0.006997794161011971,
                -0.0016059697770295818,
                -0.00869895942489471,
                0.014752674226697642,
                0.02984482769773808,
                0.0011797958797512647,
                0.0101153699535161,
                -0.006772929491404174,
                -0.0004130340425556579,
                0.0115546779410632,
                0.01064832608403264,
                0.0003845233716669276,
                -0.002670014573865585,
                -0.006225698611939858,
                0.013039368391993624,
                0.009360454769477835,
                0.007792687837970672,
                0.0036359202957888604,
                -0.006231633025394411,
                -0.016733950666436456,
                -0.018244304398215113,
                -0.018171166081182223
            ],
            [
                -0.009271947754512651,
                -0.007854831568827995,
                -0.011362021826116796,
                -0.011923234630185965,
                -0.00881553970849888,
                0.009967587529633382,
                0.008531019228896904,
                -0.0023074043248302208,
                -0.0038192791929352638,
                0.006803401428776294,
                -0.004786043243239675,
                -0.002463003267378826,
                0.008099806920737663,
                -0.0021666581550870228,
                0.010603520787899563,
                -0.004666947005989044,
                -0.003998341695701659,
                -0.0005986481213773223,
                0.01176708537140215,
                -0.007858986832921577,
                0.003094863065522963,
                0.006294765707726609,
                -0.01096710041702609,
                0.009096162686920678,
                -0.004761915600304373,
                0.005480661060658315,
                -0.00915917299712264,
                -0.014833972013753695,
                0.00015011077909788284,
                0.0065258154575624314
            ],
            [
                0.02115595881989936,
                0.014454519523757535,
                0.00804130045480427,
                -0.004203173402882457,
                -0.005580866820710516,
                -0.012113424523302295,
                0.006344150245455612,
                0.030467326943558234,
                0.011607923145069246,
                -0.016146115068519557,
                0.0011743229687751,
                -0.0025238186283363952,
                0.001521089564194635,
                0.008955652463495514,
                -0.01206151611402171,
                -0.0068653450016063836,
                0.00127110228995573,
                0.01115921751475711,
                0.01596041207877828,
                -0.002976390566742152,
                -0.0013675891727272685,
                0.004567916110561236,
                0.0066828067164177015,
                -0.018609031246347045,
                0.01750677076037155,
                -0.006934806164262687,
                0.0018497876645802702,
                0.007150238406908661,
                -0.011351699574955899,
                -0.006690068033342337
            ],
            [
                -0.003882161892141325,
                -0.01027568839307279,
                0.01080420755529232,
                0.003387944192398926,
                0.011258605653232032,
                0.009391399054365627,
                0.008367569527451145,
                -0.008902725624588426,
                0.021955658022995952,
                -0.002175770945383,
                0.0007366862873409098,
                -0.004687248119242884,
                -0.0027167341678169922,
                -0.011053721585290726,
                -0.01484095114360875,
                -0.01702658078090993,
                0.00029446484616281454,
                0.006501125957301277,
                0.007217534138543805,
                -0.006882102416873944,
                0.009272531451714354,
                0.002227918085464771,
                0.005967487271491904,
                -0.010504306530748218,
                -0.0021972865148045277,
                -0.004952990508023155,
                0.012591111604831125,
                -0.0009282542907410369,
                0.005740055098138157,
                -0.0011710772802633073
            ],
            [
                -0.005801829190073012,
                -0.0077807764763231394,
                -0.010394983680263573,
                0.016899804017308034,
                0.0013800132390489673,
                -0.001138590773879608,
                0.00015039503344063638,
                0.016881587915723313,
                0.013143692790678849,
                -0.011600009737256702,
                0.0026369359981386073,
                0.005404070596914891,
                0.008641297480850223,
                0.014016721424698125,
                0.004487144420430959,
                -0.009827385817060276,
                -0.0016185706404633442,
                -0.0022473421677245216,
                -0.006586451300892068,
                0.003986164696338503,
                -0.021173073505235524,
                0.007803779807266392,
                -0.017522752435514655,
                0.0012641605621078681,
                0.00441501359308437,
                0.0042532299945744,
                -0.004096528357122692,
                -0.010896617370206056,
                -0.00004985348104168024,
                0.0001432940639902245
            ],
            [
                -0.0031900704599577214,
                -0.007242270700388486,
                0.009576819084262281,
                0.014716561640396152,
                -0.007434279891631505,
                0.006776290431394642,
                -0.008961625437948059,
                0.0227152940922507,
                0.003799354222975316,
                0.008650428137274438,
                0.005277405755706977,
                0.007393353859406823,
                0.00011885349047427893,
                -0.025449553047428537,
                -0.01170121838102769,
                0.005509147498816478,
                0.003219535530358228,
                0.022279779458023955,
                -0.004071445971858353,
                0.001567514726366031,
                -0.016789077687022612,
                0.013170076112237129,
                0.01720839773359491,
                -0.027455011549150105,
                0.010782807937718642,
                0.0020711338803201394,
                -0.00755962545746492,
                -0.006027597493779775,
                0.018192012519662303,
                0.005130827342964814
            ],
            [
                0.0015757916502718145,
                0.0008178927025963312,
                -0.006655495609178896,
                0.004726847599795964,
                -0.011839378174898066,
                -0.019333972938956053,
                -0.010123612909605775,
                -0.009293131765965442,
                0.005563271453163739,
                -0.006119200473761544,
                -0.008002499230908976,
                0.023097784548621735,
                0.0006888851735482392,
                -0.004531327283378733,
                0.013801690082706068,
                0.0015505771672780734,
                0.00030739294413238043,
                0.007595368553098518,
                0.000005553617457291464,
                -0.006389281003800561,
                -0.003891250172869351,
                0.0010333540327003904,
                -0.0162954064225577,
                0.007780115433829122,
                -0.01570218019967676,
                -0.008130638572079048,
                -0.004373144320765172,
                0.011164509134484614,
                -0.003570309879478309,
                -0.00027872164158237496
            ],
            [
                0.006236567899786254,
                0.002228527509336284,
                0.009162232792886525,
                0.010707408736915175,
                0.006931608378071279,
                0.019133542951703712,
                -0.009840938116018983,
                -0.011088242747671942,
                0.003639093710234578,
                0.018945158603538837,
                -0.0005081474313349465,
                0.008799483836891095,
                -0.00404515306972349,
                -0.011197605003380537,
                -0.0008211880108558462,
                -0.009382668007124234,
                -0.008583300951221432,
                -0.00272446078878823,
                -0.009535328246013303,
                0.015603943313760206,
                0.008527718669058652,
                -0.010874376691259905,
                0.01602403889375969,
                -0.003108280096810324,
                0.0032704107696335375,
                0.007176011292558572,
                -0.006217924850733868,
                -0.0002298755154821551,
                0.004373151782584466,
                -0.009272359827463422
            ],
            [
                -0.01622229085145899,
                -0.003486620502312522,
                0.011404939739381647,
                0.017120247866952494,
                0.012100959872271156,
                0.0048624050824265545,
                -0.004888282211169381,
                0.0051988755005752275,
                -0.006310878904929849,
                0.0035769036179274156,
                -0.0015164407434763015,
                0.015528047718343157,
                -0.003789163982965446,
                -0.006503108237833602,
                0.0035734372440114647,
                -0.0055622471446120205,
                0.002919605964331336,
                0.004139851162012243,
                0.0005283999058517712,
                0.013279490107181732,
                0.01788613719118797,
                0.006095145426005823,
                -0.0028741480045871935,
                0.007222671277631317,
                0.010342156375075752,
                0.0014198411513982564,
                -0.0036925954593895497,
                0.006600148532765796,
                -0.004075685126051726,
                -0.0017022772939939675
            ],
            [
                -0.01992359231800679,
                0.0011120573847931874,
                -0.014906210827424394,
                0.0008293609835999614,
                -0.0012438916120451743,
                -0.004085117535996786,
                -0.0047615446457534094,
                -0.004488852313498645,
                0.0019007918801126472,
                0.01638852806078908,
                -0.0028180839180593246,
                -0.0028386741050793946,
                -0.0055025059476994445,
                -0.011641975405936646,
                0.005415251232994728,
                -0.011008917119847089,
                -0.005126418934262595,
                0.005907450761411737,
                0.0009678987990638741,
                -0.0036600624145312686,
                0.00656685491368878,
                -0.01539113771840529,
                0.003408249133425463,
                0.0063081767311922495,
                -0.0003479486648987595,
                0.0036556144849041665,
                0.007825069924025353,
                0.0008183977724367794,
                0.004548229431126987,
                0.007991451911946718
            ],
            [
                0.012068720246459923,
                0.011010455111613596,
                -0.007829510319958616,
                -0.00028912805607765027,
                -0.010096546934191696,
                -0.006062136884113688,
                -0.007243525427861135,
                -0.008689266325347965,
                -0.007591293282685472,
                0.0013332634232679822,
                0.016204209671193556,
                0.017032649596553907,
                0.008799588382959878,
                0.007896719401260396,
                -0.015011977032691597,
                -0.012134823550796762,
                0.0038343686316012556,
                -0.009896809487018378,
                0.008408427699997759,
                -0.010733995748673137,
                -0.0019001767489358527,
                0.00591539764031263,
                0.0023106845447627444,
                0.0014279255348990723,
                0.0004890804560375876,
                0.0004315071800671706,
                -0.002169433813832761,
                0.006327240442418106,
                -0.0004930477394396019,
                -0.013341890883845972
            ],
            [
                -0.008686136306340813,
                0.0005402263501839289,
                -0.0003898040467285595,
                -0.0072123607184547,
                -0.01315779522747639,
                -0.0013351170228416845,
                -0.0036522562558280692,
                0.0011130371546934045,
                0.00798233989421561,
                -0.004498819148723902,
                0.004811523181477797,
                0.016112713634760037,
                -0.006575119984265805,
                -0.011206165261284491,
                0.007029285946470481,
                0.0077143071410045744,
                0.004319145978818011,
                -0.002873524185701994,
                -0.009385685486643902,
                -0.01100448286512868,
                0.01649176271174914,
                -0.007960574596275768,
                0.004513307703996241,
                -0.0042394443998108365,
                0.018557441111208745,
                0.0011077390286831617,
                -0.0055964535481310635,
                -0.0013991631737935095,
                -0.02390560999164222,
                0.01036879683322223
            ],
            [
                0.016608242086463235,
                0.007223489642406205,
                0.012638661620267742,
                0.0021751622326604356,
                0.02420525558749527,
                -0.00023813370270970083,
                -0.004861306010082221,
                -0.0034178061710017746,
                0.012280547062309265,
                0.01944306410702187,
                -0.0019347424393324783,
                -0.005054941537846361,
                -0.0034938874731352803,
                -0.01264610879119003,
                -0.011160629495692192,
                -0.005876627526937997,
                -0.0068879174014204415,
                -0.008848198230272173,
                0.005496396594873087,
                0.013105281181529684,
                0.01590361852008801,
                -0.0015260973858855448,
                0.0060613644674876194,
                -0.008215523707243825,
                -0.003865447802172829,
                0.007471267917882778,
                -0.012015313235861866,
                0.000218856856431106,
                -0.0025697505650819786,
                -0.0007348122471907786
            ],
            [
                -0.01192856500020606,
                -0.004666689952918162,
                0.0060285839980842755,
                0.003732852123290156,
                0.007922709194370416,
                -0.006117650128599228,
                0.015980188424856878,
                -0.009069246346306842,
                -0.01241097732029661,
                0.01676127653359138,
                0.0070506316591291305,
                -0.004728892676554016,
                -0.013536497618477715,
                0.012259477971289135,
                -0.001929658680837729,
                0.0076239357980473765,
                -0.00790092594801003,
                0.0019240014700248823,
                0.019318872219411143,
                -0.008434644275419219,
                0.0009367428237856006,
                0.008142819744488586,
                -0.015064662984879735,
                -0.0007551877088256856,
                0.01601127797837799,
                0.003103429528522595,
                0.011593616412512303,
                -0.0012000159362538366,
                -0.0058198047572412025,
                -0.014468523086314418
            ],
            [
                0.004878659440720487,
                0.017188334198887528,
                0.028414428187477973,
                -0.00630166643275045,
                0.014078780203730856,
                -0.012968125495459592,
                0.002290695441335404,
                0.00012780527090480557,
                -0.018247792517911483,
                0.0025462179914291718,
                -0.00009882406390021647,
                -0.023235333998121045,
                0.012600569225252234,
                0.016315715014813277,
                0.014377222336687695,
                -0.012747602708692225,
                0.008866017038058662,
                0.0046018623836456005,
                -0.002057471105999096,
                -0.005971782791148568,
                0.01601394233646669,
                0.005086403610325298,
                -0.005391702634081219,
                0.0077685448896125785,
                0.0164890724907312,
                0.0007960473449779487,
                0.02065314353474162,
                0.009804583353513871,
                -0.006527210448595981,
                0.005664485850595469
            ],
            [
                -0.0009677529790069831,
                0.005213952512975548,
                0.002866943944351789,
                -0.009274330227785838,
                -0.005637974752999307,
                0.002553854327723684,
                -0.01042408901346824,
                -0.003649408929155354,
                0.004408086479832079,
                -0.0048537505980763744,
                0.009569389647058791,
                0.004164116489423173,
                -0.008865952009665555,
                0.002006270290257857,
                0.027558781516882725,
                -0.004264748590083511,
                -0.007918283168164507,
                0.011343272546170648,
                -0.0013091201072322482,
                0.006387025079866517,
                -0.019822135897970508,
                0.01629109806242027,
                0.007323363365076265,
                0.009226882110812016,
                -0.0014424486024487402,
                0.007018018388979229,
                -0.00009680233116170168,
                0.007162130435408479,
                -0.006753335734452232,
                -0.00160500383785345
            ],
            [
                0.001136819473342438,
                -0.009799273816127612,
                0.00121217669640885,
                0.006441727733215743,
                0.0052157525195714784,
                -0.0020669543656497555,
                -0.010308626021081952,
                -0.020996665255682563,
                -0.006014493486564013,
                -0.0027751446736475876,
                -0.02247218884780845,
                0.014830043475982045,
                0.0008164669247652676,
                -0.01029579300009511,
                0.018578994487284485,
                -0.006596694893455957,
                0.005396759791619257,
                0.005819557037650525,
                0.0018249580128346242,
                0.00962875250024587,
                -0.00334538229349616,
                0.013288253190459296,
                -0.012873158050687263,
                0.004093840889357559,
                0.01867535138536508,
                0.007118256952586009,
                -0.01885816984044125,
                -0.0015920437516860311,
                0.017213633134546262,
                -0.011899721346026241
            ],
            [
                0.008455330031386415,
                0.0029768095448513025,
                -0.007294789499194492,
                -0.013616405471264484,
                0.011542911488004974,
                0.0004061712893440472,
                -0.014707594027777635,
                -0.003276463998319174,
                -0.0004297390753505367,
                0.006097332768759491,
                0.007059380646705163,
                0.0037176133454576354,
                0.0014652304355373443,
                -0.00048580944249747467,
                0.007936971630117967,
                -0.008468097146971257,
                -0.009466699486368768,
                -0.017760824693735876,
                0.0043318324082957,
                0.007335906861404622,
                0.020969139382863104,
                -0.006236307815291452,
                -0.004569001303573079,
                -0.018556086231471026,
                0.001477811022133881,
                -0.004579450535228568,
                -0.011603452618683143,
                0.00295177598731993,
                0.015287192970707587,
                -0.009850319037863741
            ],
            [
                -0.017911831773225802,
                -0.011693047237350776,
                -0.003262786308214103,
                -0.0033705909794723063,
                -0.015793154551693167,
                -0.007307270893927686,
                0.015630723629072574,
                -0.0023112861680685934,
                -0.00807073475830017,
                -0.0013232375489843405,
                0.03531457781597526,
                -0.012122851153813223,
                -0.019224857738339134,
                -0.0067009257775704194,
                -0.010108256780474681,
                -0.013971230202570994,
                0.011586170500193822,
                0.007536150817280328,
                -0.001752116426210638,
                -0.002443904351767691,
                0.01338672239980219,
                0.0016235743009369971,
                0.006245165063759506,
                -0.0075665268848015355,
                -0.004924665373459701,
                -0.009770976663741198,
                0.003171059313162872,
                0.011473847606660181,
                -0.019573500532850417,
                -0.015464493035226833
            ],
            [
                -0.0002160367865653353,
                0.007105367098667172,
                -0.010019217594860238,
                0.002285111068166172,
                -0.012832253424609509,
                -0.0023262866735674946,
                0.010397733663133462,
                -0.004875494461638422,
                0.005186733811908327,
                0.01621170161404124,
                -0.008278518788005939,
                -0.023373911469719073,
                0.02151860002039465,
                -0.014334136313477516,
                -0.007414481305413002,
                -0.002808144177641091,
                0.010578906420638284,
                -0.0003799555624099744,
                0.003475337365259486,
                -0.0022339716089309477,
                -0.004071153992260931,
                0.011469110319034068,
                0.0005870466816008188,
                -0.00486846821066316,
                -0.013614591847962895,
                -0.006197919713809826,
                0.012089267965694721,
                -0.0030376548895380815,
                -0.014581281290301774,
                -0.006337654850010333
            ],
            [
                -0.011338833071772803,
                0.012845156655708807,
                0.004091173695936172,
                0.008667074729562263,
                0.0012510790899572298,
                0.009738217099331791,
                0.004289671323139773,
                -0.006620367968401852,
                0.01206100182930242,
                -0.028932739751557263,
                0.024857498263070144,
                0.006531087684057262,
                0.004207407699626356,
                0.0024587821420245697,
                0.016610441793880007,
                0.0015378717642884378,
                -0.006535039370129462,
                0.013049611603386116,
                -0.003467904672113781,
                0.0064740325130615535,
                -0.01348377891623146,
                0.004831548059073446,
                -0.0029806117527837635,
                0.013083290973677669,
                0.002704065717621338,
                0.0022563613621115856,
                -0.005036207564869204,
                0.008361001762869776,
                -0.0057819435026881414,
                0.0018466113832710663
            ],
            [
                0.013172310018138218,
                -0.000676990460509034,
                -0.000495945802908386,
                -0.000908003714078749,
                -0.003940732061691848,
                -0.022019142598501507,
                -0.0038544405945211612,
                0.005463219445306023,
                0.014461932508400646,
                0.011268727878954757,
                -0.00777815205444062,
                -0.015924883234322035,
                0.004477852666140951,
                -0.005119663183007468,
                0.010656317450875124,
                -0.009066585480037656,
                0.013717857333933114,
                -0.014184928935028198,
                0.006110127113210262,
                0.0077825532558780134,
                0.004994375365611325,
                0.010178686910197516,
                0.012322992603914057,
                0.006329657398817816,
                0.016499759316458997,
                -0.0032036299063633025,
                -0.0026208635910340557,
                0.020106492385267235,
                -0.007623741881653434,
                0.00850152056146253
            ],
            [
                0.001914554842025071,
                -0.01300873389544842,
                -0.008142254317856661,
                0.004586413672629926,
                -0.011393755141326478,
                -0.010391892953132942,
                0.008653412502807779,
                -0.0012732954097720507,
                0.00868758575513852,
                -0.002625948229738743,
                0.005842243530136743,
                -0.02346015594818412,
                0.0015091685178264432,
                0.011453226225587122,
                0.021721180349173242,
                0.02319633249051361,
                0.01106980369228224,
                0.015892036552976243,
                0.011169690072198207,
                0.006125570251827222,
                0.009411416311746756,
                -0.00332206855885381,
                -0.003533803060140754,
                0.007824426615364827,
                -0.002337972135182991,
                -0.03174154404309209,
                0.01072857272981443,
                -0.0017775020397713672,
                -0.002221300597024241,
                0.005445585110697549
            ],
            [
                0.0030249979699941212,
                0.005967423293579285,
                0.0038074552969433327,
                0.0011590623943718923,
                -0.0022460223838043384,
                0.01598037276874327,
                0.0014664087537900967,
                0.007538155495330405,
                0.005743326387422545,
                0.0007999178770239422,
                -0.02142302025850103,
                0.007992721810977241,
                -0.0009082677951654989,
                -0.00737886735423785,
                -0.0077983095107057795,
                -0.010780597036939494,
                0.000458410913739011,
                0.0030147826478573586,
                -0.01355260596670212,
                0.023998745742010892,
                -0.0017513138937096727,
                0.0024543531059712034,
                -0.0013803162949909955,
                -0.007866053603071297,
                0.003053237939336261,
                0.002064775394273185,
                0.022452896223028162,
                -0.007167924479978785,
                -0.011416009033499824,
                -0.01210574712309783
            ],
            [
                0.017662309625302044,
                -0.01065459902713981,
                0.006803155034054332,
                -0.014161136448388647,
                0.003090257013392964,
                -0.0105554719909166,
                0.0010972768729602038,
                0.01314955138580733,
                -0.0032602751079422974,
                0.0007698493136572577,
                0.0067228778861663264,
                0.008453175730027749,
                0.007274435822997611,
                0.008767619501324288,
                0.0009332323277717005,
                -0.0006260629700170142,
                -0.01730223111791322,
                0.010366417045315074,
                0.008483219547003477,
                -0.01532237436186643,
                -0.00826479991819774,
                -0.01507966064506422,
                0.012090445341382497,
                0.007680986980304886,
                0.005876992826646964,
                -0.004635393276220188,
                -0.007724423889729257,
                -0.011552365752431647,
                0.01930810980189253,
                -0.019823028430486184
            ],
            [
                -0.02052989424104548,
                0.0025416862739239044,
                0.013954264149560577,
                0.015967763757369965,
                0.016840705603871648,
                0.0011895826164849798,
                -0.004410661999176562,
                0.001843722114513928,
                -0.005950683791552301,
                -0.009605217746426217,
                0.0020944855142293996,
                0.00864181848431905,
                -0.000028723739422360905,
                -0.002033976650003548,
                -0.012537632232388692,
                0.004088504385756675,
                0.008593853213879113,
                0.01411889652912584,
                0.004327837425104316,
                0.0013944664249896672,
                0.0005594169769735467,
                -0.007412046451717888,
                0.0026966606127640496,
                0.0022606589456497677,
                0.003247002620257093,
                0.0005048344673901247,
                0.0057883651233121185,
                -0.002423483799790223,
                0.0010752072911035882,
                0.012543965152038093
            ],
            [
                0.0026281815150932556,
                0.00547764329242341,
                0.005623767108222808,
                -0.003222506880204215,
                0.0074145347677605465,
                0.0005058508442301371,
                0.002874886947595688,
                0.005565611790702926,
                0.00976221777605658,
                -0.005627724137279897,
                -0.016046663450544636,
                0.0003568143971763568,
                -0.014444367892967568,
                0.016266935393584547,
                -0.0018637052859513618,
                0.006259749287259893,
                0.00857965603991908,
                0.00042700305984014875,
                -0.010528175312272311,
                -0.008305100767825114,
                0.0024005476953153407,
                0.009497262495281687,
                0.00714340465959635,
                -0.007173322750099205,
                -0.01562291142264857,
                0.013410420840408903,
                0.007976514863718637,
                -0.0041267737626547295,
                0.014845064408090011,
                -0.0090199416446791
            ],
            [
                -0.017573972078993257,
                0.0041437353230245,
                0.017505138546884076,
                -0.003442054514139068,
                -0.017066638960393104,
                0.005203219979702996,
                0.011658907185828076,
                -0.003772059616563839,
                -0.0019889150728123087,
                0.007379517125854147,
                -0.004636581912502904,
                -0.0024144695842135007,
                -0.012242625898012524,
                0.005755050796085672,
                0.005136570335256859,
                0.0006799882993695329,
                -0.006793206386587352,
                0.0011432382120144873,
                -0.005573058878135658,
                -0.021806014822081346,
                0.0071844647492734955,
                0.0026920571911516603,
                0.002035882489705338,
                0.003873568225781883,
                -0.005765961753862008,
                0.00745729369362865,
                0.007077918595291481,
                0.001573846402266968,
                -0.007325661660330183,
                0.0024917703530507756
            ],
            [
                0.009131807294626173,
                0.0020661239881174264,
                -0.0017813732165422758,
                0.0005438497387529445,
                -0.007086808994798853,
                -0.010527563635367889,
                -0.011684927274836436,
                0.004576063945250162,
                -0.001410332182029231,
                0.0006571934390695085,
                0.004309928477033524,
                -0.0013821003781554885,
                -0.0098186271943485,
                -0.0009083005667405912,
                0.0035616564482871377,
                -0.0018591863937987936,
                0.00713635353673992,
                0.008027790695592929,
                0.007215885804881808,
                0.004535485382355725,
                -0.012862185009326498,
                0.000028805644151092044,
                -0.0010657789976498675,
                0.006232283280002725,
                -0.008996342491126269,
                0.010996717081720297,
                0.006600600004759588,
                -0.005960927401328881,
                0.00951721364171364,
                0.004608489770062882
            ],
            [
                -0.010885892984926251,
                0.003994315763621773,
                -0.009453946860360935,
                -0.0027340737662735963,
                -0.015535895835463526,
                -0.016025883165261552,
                0.004430713225065229,
                -0.006646058087613581,
                0.0034213582286651808,
                -0.002565946070396334,
                -0.0015684735942842853,
                -0.018931197608540697,
                -0.02057769565705049,
                0.006295944065509559,
                0.0015084441872265555,
                -0.00041733905874364365,
                -0.005834802284670119,
                -0.0002502155269617887,
                -0.004528780861842472,
                0.0016724080828662612,
                -0.013614830583044406,
                0.024531272185773313,
                -0.004194031372283237,
                0.005636876539071755,
                0.014881310907958125,
                0.009784711499508728,
                0.0016795376526687774,
                0.00575486275918923,
                0.00682531241766894,
                0.007906322405187865
            ],
            [
                0.012542742461008345,
                0.012274638151265326,
                -0.0025158381380726135,
                0.004988480571165047,
                -0.0045561509050906415,
                0.012013021128614383,
                -0.003359071931459,
                0.0049216999917234055,
                -0.0015233200894439502,
                0.0024634932782729596,
                -0.0037256933395573527,
                0.005860256858895497,
                0.013021629007133469,
                0.006577208766494985,
                0.005009075832035403,
                -0.006748039881787984,
                0.002331463934158428,
                -0.0031468138126203205,
                0.00452327744928879,
                -0.005808514711544606,
                0.0003927090709651927,
                -0.005554877405322562,
                -0.00048318520304457645,
                -0.0011648187350889207,
                -0.013993512606125745,
                -0.006201558346436782,
                -0.011882964552877885,
                0.006751656615589906,
                0.00009329197469247546,
                -0.011734756918131056
            ],
            [
                -0.016419222719666348,
                -0.01112547066787833,
                -0.000849801354184434,
                -0.005839712652498369,
                -0.0012086038239590635,
                0.017363115743015682,
                0.013446861519157964,
                -0.0010495439907826343,
                -0.003463450040733053,
                -0.0037282610854608997,
                0.013977448105894488,
                -0.025089012966855926,
                -0.006835555588536779,
                0.0020261418860233666,
                -0.0035676610323160515,
                0.000759389963784405,
                -0.005641723158544798,
                0.008934063967388418,
                0.0009022872692293958,
                0.020816450385507047,
                -0.023024676859636346,
                -0.010010364739554991,
                0.001628228134891667,
                0.01145432588285206,
                -0.005498991090659002,
                0.016864735485610485,
                0.02403086174257607,
                -0.004761869274556101,
                0.015114757892339636,
                0.0017454333828188493
            ],
            [
                -0.02471283977662406,
                0.0031237891913048163,
                0.01428142478629604,
                0.000632012264001269,
                -0.021132901191041307,
                -0.0020775250280695534,
                0.0007699790822821545,
                0.01440776569490837,
                0.007314038150638891,
                -0.003551965443528297,
                -0.0026522735297913754,
                0.0013695425486763577,
                -0.009983876753014542,
                0.020359000144542522,
                0.01221015416262093,
                -0.009963706772093992,
                -0.012358858281083742,
                0.002869286762929205,
                0.012460851049115361,
                -0.00676787192333289,
                -0.008606591168476788,
                -0.00346571278047205,
                0.0038544564507923874,
                0.0023589172824977174,
                0.00968623316484054,
                -0.00008859757551271396,
                -0.010202029661455265,
                0.002404921138519267,
                -0.009517623619217716,
                -0.00990666682078796
            ],
            [
                -0.02605823766105523,
                -0.0211045108556666,
                0.005329881436153727,
                -0.012510918740554976,
                0.005597780418156942,
                -0.0027584139158500893,
                0.0027236991808260525,
                0.008756585291168621,
                -0.012365457734724725,
                0.012165267888054195,
                -0.011688415412042288,
                0.015461027073849092,
                0.019001098145739918,
                0.00414545277711606,
                -0.007077037237381903,
                0.0077048570259050575,
                0.0016752449000183008,
                -0.019708403526597532,
                -0.011606062209451208,
                0.019750891709763952,
                -0.01856671420046029,
                0.003825221802835551,
                0.008691844276716468,
                0.008550443635904152,
                -0.008843610479329564,
                -0.005854222547891228,
                -0.0077514065353476635,
                -0.01787594814816699,
                -0.005632124275242983,
                0.01864404840661059
            ],
            [
                -0.0032344540637226204,
                0.005520028368732141,
                -0.018856472656709814,
                0.0003585095038427921,
                0.005100196470112834,
                0.012904133718037373,
                0.01365173411965652,
                -0.0108579909045737,
                -0.002907575016807022,
                0.0012209724273610318,
                -0.01909983771676905,
                -0.012871842884390795,
                0.01044531129018875,
                0.006483134132071389,
                -0.004936507570487586,
                0.003170645984035857,
                -0.00857450957130403,
                0.013947173371389213,
                0.005356356138105741,
                0.008555139685809825,
                0.00006874319384376376,
                -0.019115394319468508,
                -0.012135436694958611,
                -0.004827677718724781,
                0.0016424975457279714,
                0.003918051051364288,
                0.016166978112190897,
                0.00908134789169452,
                -0.003936275537726899,
                0.0019540422136208237
            ],
            [
                -0.002734043447195357,
                -0.00803224019056155,
                0.0044661061185932134,
                0.004632741776325886,
                -0.001062442184230039,
                0.0027818021028218087,
                -0.01284383837597306,
                0.016209873637522146,
                0.009437542891740558,
                0.0004090449494196372,
                -0.0020789139454973978,
                0.00035796372649161924,
                -0.023680422073663564,
                0.009194803062570473,
                0.012969610445591858,
                -0.0043575731711469855,
                -0.01381383984303589,
                0.004412286186671053,
                0.008166563866710887,
                0.011789870370913955,
                0.010010073609597023,
                0.01025235938135025,
                -0.005268976954807612,
                0.010519249019665408,
                -0.00013159727529428396,
                -0.0009391766183002092,
                -0.01886965322805693,
                0.0026904432405821144,
                0.006091191075340741,
                -0.0011909972118258915
            ],
            [
                -0.005192477468304838,
                0.024520349790735523,
                -0.0012204696484533252,
                0.011926197907582245,
                -0.024272612082784743,
                0.0027696386842570543,
                0.01783172484247402,
                -0.0027764312060472186,
                0.01436606661507144,
                -0.004601560941674467,
                -0.0015936888950941063,
                -0.00426347374210021,
                0.011714707419023576,
                0.0030909122461271928,
                -0.002551531105626233,
                0.0004804000784163517,
                0.014771803508957942,
                0.001475252817874736,
                0.01235050262066723,
                0.004217697281872549,
                -0.00300359389059726,
                -0.0026709726351723992,
                -0.000747007874145236,
                -0.004268146944520036,
                -0.003075256957467191,
                0.016441298916865455,
                -0.001936347562659357,
                -0.0011720828295937425,
                0.0015579995781360395,
                0.011756962547668101
            ],
            [
                0.0008310073551684909,
                0.015285693210990312,
                0.006285968636436615,
                0.011504491577198612,
                -0.01038630536212243,
                0.013285284652542728,
                -0.01181185956720615,
                -0.01657906547894223,
                0.014761828690570588,
                0.0060684250213592595,
                0.011504086804205851,
                -0.0047545773956251544,
                0.004897787243361864,
                0.008840808274147292,
                0.007056446567574639,
                -0.001230769794563511,
                0.0011686689508602485,
                -0.00933503383829557,
                0.006980913421754857,
                0.014128646429867138,
                0.00012017055106159656,
                -0.013285573137231142,
                0.015922597223018743,
                0.00543419723137851,
                -0.010159836036840415,
                -0.015384592370735707,
                -0.014302680222294133,
                -0.014082284822088257,
                0.0076788716187143795,
                0.008870383335654089
            ],
            [
                -0.011547357001321014,
                0.002831689375727841,
                -0.012518293320916902,
                -0.0045281885212340185,
                0.006571002666415199,
                0.004725620204417748,
                0.0016665491313512743,
                0.011730503567544239,
                -0.01090574205492569,
                0.002713128339866394,
                -0.015710644452634738,
                0.01949479113375577,
                -0.010579732115752272,
                0.0069265792713509265,
                -0.001894900030918596,
                0.012576381219736381,
                0.012585756642162112,
                -0.012701388228079018,
                0.00879256517883562,
                0.0014683425940694027,
                0.0009068314956553883,
                0.017996987271171792,
                -0.0037675715328309386,
                0.00026511138354601933,
                0.02335714076477241,
                -0.0030337634060480924,
                -0.01537256909243009,
                -0.021681372308612945,
                0.007071734076983557,
                0.0019179578228326795
            ],
            [
                0.005765011535604339,
                -0.005623914263344676,
                0.008874309464817468,
                0.006506665473483425,
                0.001276427193969277,
                -0.005799968303967543,
                0.0029232702165563726,
                0.002791329245667018,
                -0.00422369511958524,
                -0.0019855436842743397,
                0.006559890810179054,
                0.01539544013220847,
                -0.018154254222124806,
                -0.0040637999341850755,
                -0.0022081499455914653,
                -0.004302334636009247,
                0.002173926360636589,
                -0.0026213201316021015,
                0.006845625843359808,
                -0.008143828591275373,
                -0.0002533750576131793,
                0.001948350178187051,
                -0.0152452326193962,
                -0.0009593057190881554,
                -0.004264267954537378,
                -0.016414042903902096,
                -0.014866352744201084,
                0.005909612906943718,
                -0.018207590864119175,
                -0.006972618234257107
            ],
            [
                0.023249880277170492,
                -0.0021738384610063347,
                -0.003998585420441813,
                -0.011346356873319117,
                -0.005489260671170231,
                0.0038466083273052502,
                0.013847605566159592,
                0.003935667530491142,
                0.002150418994427096,
                -0.001408000139509247,
                -0.008669211522329325,
                0.016462334431605496,
                0.0018320608655149186,
                -0.0057596120024836885,
                -0.00669098736725281,
                -0.011048619533465729,
                -0.007579527027826333,
                0.00006538302236437642,
                0.006427047127503372,
                0.02153539627369859,
                -0.009230070314157544,
                -0.009435274784004027,
                0.011383083195571157,
                0.009766885684191975,
                0.005505042147042082,
                -0.002722113619789084,
                -0.013071643781476381,
                0.007897570089913222,
                0.002636405786628156,
                0.00754772141321752
            ],
            [
                -0.0030878296948024155,
                -0.004542509931292398,
                -0.010601379696260967,
                0.01081029013146349,
                -0.006006449580463972,
                0.005213272761890621,
                0.004305766437576836,
                0.021712580685436324,
                0.005857961166120113,
                0.0042100200906771855,
                -0.0032033382849323074,
                0.005917290351301803,
                0.013926418237783546,
                0.007542974494024348,
                -0.0000460153989691457,
                -0.01143477934585513,
                0.014093505742640004,
                -0.016485043260940697,
                0.0028788486803916352,
                -0.009303234927340268,
                0.006353525860532074,
                0.017084300632892874,
                0.006593640704779729,
                -0.004149966142206489,
                -0.0008422859406164172,
                0.0033179255309700034,
                0.012707085347386939,
                0.006296497626244688,
                -0.005768412501804434,
                -0.0030715954484252825
            ],
            [
                -0.009102389712536529,
                0.004463832731280368,
                0.009274647870133504,
                -0.01592899376136226,
                -0.01634041703248813,
                0.006043507000561359,
                -0.0036119613052517175,
                0.014749358157627684,
                -0.011247600841557166,
                -0.002318773275513339,
                0.004862566219456828,
                0.007327286166008789,
                -0.008063521828707934,
                -0.0031040643117100364,
                -0.002369253558763282,
                -0.018651348268648733,
                0.002760503335450899,
                0.024081775824890624,
                0.009639882943617138,
                -0.002275213180266357,
                0.006852649700919931,
                0.019783985262324836,
                -0.01398326370936507,
                -0.013028920914566615,
                -0.00712446770741939,
                -0.015896270202478673,
                -0.002705373079118538,
                -0.012278678516672427,
                0.0019211255119019202,
                0.005604694228683557
            ],
            [
                -0.007954702790346277,
                -0.013852710449508756,
                0.014691373910333863,
                0.004615720647976939,
                0.015190130429440158,
                0.008122349729632515,
                0.006454332249917093,
                0.005731341475905076,
                -0.007702324450000777,
                -0.008312989856948314,
                -0.01731657154186076,
                -0.011190127481532804,
                0.005018693535312215,
                -0.004010887303256375,
                -0.005869852721874633,
                -0.0035294789577863623,
                0.011954912763574077,
                -0.019797364727800335,
                -0.0009290957586582325,
                0.020662619051508072,
                0.02089169034358692,
                0.00786938913080294,
                0.005829801039942874,
                0.01840251318804447,
                -0.009714450993122967,
                -0.004157609320034012,
                -0.004181818662745005,
                0.026393748183357768,
                -0.02054063478090881,
                0.00875692018133444
            ],
            [
                -0.0033210901671810286,
                0.007180986361832577,
